svm_type c_svc
kernel_type rbf
gamma 0.8
nr_class 11
total_sv 349
rho -0.35157 -0.423356 -0.401187 -0.296134 -0.38465 -0.126342 -0.128466 -0.156645 -0.0365769 -0.375398 -0.557087 -0.340591 -0.1513 -0.260397 0.0217629 -0.0236671 0.00503159 0.0641067 -0.229027 -0.395349 -0.146437 -0.181833 0.127686 0.0781553 0.10804 0.232023 -0.164202 -0.0305362 0.346981 0.393131 0.24008 0.415613 0.426723 0.425893 -0.40832 0.711823 0.194189 0.214994 0.345852 0.149752 0.402761 0.187355 0.277205 0.263719 0.295316 0.0321653 0.00852469 0.119832 -0.314913 -0.0972336 0.23839 -0.237218 0.416019 -0.598801 -0.531085
label 0 1 2 3 4 5 6 7 8 9 10
nr_sv 30 32 29 23 35 35 35 28 33 36 33
SV
5 1.371727155777839 0 0 1.08717838052931 0 0 0 0 0 1:-0.2637 2:-0.466919 3:-0.0682051 4:0.771111 5:-0.0101061 6:0.557382 7:-0.218367 8:0.228591 9:-0.494182 10:-0.436931 
3.973280080706623 0 0 0 0 0 0 0 0 0 1:-0.270258 2:-0.481096 3:-0.0323077 4:0.73 5:-0.0373926 6:0.644641 7:-0.194558 8:0.233985 9:-0.441478 10:-0.436281 
0 0 0 0 0 0.6221101147393076 0.5603323070009872 1.703042284614612 0 0 1:-0.275878 2:-0.492439 3:-0.0533333 4:0.777778 5:-0.0232441 6:0.594689 7:-0.198639 8:0.256237 9:-0.358658 10:-0.454486 
0 0 0.9255791225649251 0 0 0 0 0 0 0 1:-0.256674 2:-0.50252 3:-0.0876923 4:0.759444 5:-0.0232441 6:0.587733 7:-0.140136 8:0.250169 9:-0.290897 10:-0.455787 
0 0 0 1.173930275422725 0.2777521477420115 0 0 0 2.875913990766571 1.805769869478851 1:-0.242155 2:-0.507246 3:-0.125641 4:0.731111 5:-0.0136433 6:0.579513 7:-0.047619 8:0.204316 9:-0.232717 10:-0.509753 
1.096772023636887 0 0.4166515189842696 0 0.6771745482049887 1.014085832434807 0 0.9441156771211136 0 0.8135738570239293 1:-0.480562 2:-0.532766 3:0.487692 4:0.0177778 5:0.572511 6:0.435346 7:0.496599 8:-0.103844 9:-0.43258 10:-0.342003 
0 0 0 0.3536758452565276 0 0 0.7763950455832166 0 0.5753661840758373 0 1:-0.561593 2:-0.547574 3:0.648718 4:0.150556 5:0.549773 6:0.331015 7:0.529252 8:-0.0788941 9:-0.462012 10:-0.33355 
0.5527143841821222 0.360702445715235 0 0 0 0 0 0 0 0 1:-0.579859 2:-0.63201 3:0.810769 4:0.445 5:0.42193 6:0.0110654 7:0.153061 8:-0.25826 9:-0.814511 10:-0.198309 
0 0 0 0 0.3299392033560455 0 0 0 0 0 1:-0.506792 2:-0.706364 3:0.736923 4:0.388333 5:0.357756 6:0.132469 7:0.314286 8:-0.349292 9:-0.936345 10:-0.231469 
1.75373132996038 0.8883741251870338 0.4690875145353403 0.4712841556292302 0.4633227450015194 0 0 0.6022925947302705 0.6363968743672141 0.4460613498719042 1:0.832787 2:-0.691556 3:-0.972308 4:0.313333 5:-0.0656897 6:0.952577 7:0.239456 8:0.488874 9:-0.969884 10:-0.273082 
0 0 0 0 0 0.7181826135437533 0 0 0 0 1:0.78829 2:-0.694707 3:-0.898974 4:0.393889 5:-0.0535624 6:1 7:0.292517 8:0.407957 9:-0.937029 10:-0.39922 
0 0 0 0 0 0 0.7039954803231772 0 0 0 1:0.871663 2:-0.689351 3:-0.967179 4:0.246111 5:-0.116726 6:0.961429 7:0.387755 8:0.773432 9:-0.826831 10:-0.351105 
4.937944013846489 0.6816460153267163 1.007452199923711 0.7572030223312753 0.9181160727179913 0.9254656323391151 0.6070689193178505 1.133163309617174 0 1.095376254910841 1:0.715691 2:-0.724638 3:-0.575385 4:-0.0816667 5:0.0237494 6:0.516282 7:0.420408 8:0.713419 9:0.192334 10:-0.204161 
0 0 0 0 0 0 0 0 1.040972098524046 0 1:0.734895 2:-0.742596 3:-0.610769 4:-0.075 5:0.0338555 6:0.521973 7:0.42381 8:0.742414 9:0.186858 10:-0.204161 
0 1.646285955653449 0 0 0 0 0 0 0 0 1:0.586885 2:-0.780718 3:-0.557436 4:0.0716667 5:0.101061 6:0.610496 7:0.409524 8:0.76062 9:0.0253251 10:-0.236021 
1.747097064049243 0 0 0 0 0 0 0 0 0 1:0.476815 2:-0.7908 3:-0.492308 4:0.169444 5:0.111167 6:0.668037 7:0.471429 8:0.750506 9:-0.0273785 10:-0.257477 
2.107455937703753 0 0 0 0 0 0.494318741776088 0 0 0 1:-0.040281 2:-0.956837 3:0.429231 4:0.582778 5:0.422436 6:0.568764 7:-0.258503 8:-0.477411 9:-0.251882 10:0.509103 
0 0 0 0 0 0.5513426413550826 0 0 0 0 1:-0.147073 2:-0.899811 3:0.519487 4:0.642222 5:0.407276 6:0.479608 7:-0.396599 8:-0.535401 9:-0.0978782 10:0.492848 
0 0.7771076094795717 0.637281885343621 0.6305691038251015 0.3912846483100617 0 0.2910439232439554 0.7006096024923749 0.3873115255978604 0.4500904402604669 1:-0.288993 2:-0.777568 3:0.648205 4:0.469444 5:0.384032 6:0.478343 7:-0.501361 8:-0.642616 9:-0.132786 10:0.604681 
0 0 0 0.8734939171002176 0 0 0 0 0 0 1:-0.115222 2:-0.694077 3:0.0189744 4:0.317778 5:0.540172 6:0.148909 7:0.765986 8:-0.855698 9:-0.583162 10:0.16515 
0 0 0.3123978697034022 0 0 0.4963954928936228 0.5271076741151051 0 0.8316639889739953 0 1:-0.0899297 2:-0.623503 3:-0.08 4:0.206667 5:0.601819 6:0.283592 7:0.652381 8:-1 9:-0.603012 10:0.221717 
0 0 0 0 0.6667291732175946 0 0 0.5028235418220618 0 0.4915473787860836 1:-0.126932 2:-0.648708 3:0.0630769 4:0.295 5:0.566448 6:0.147012 7:0.677551 8:-0.944707 9:-0.76386 10:0.273082 
0 0.6928852257832409 0 0 0 0 0 0 0 0 1:-0.242623 2:-0.641777 3:0.261026 4:0.348333 5:0.614957 6:-0.014227 7:0.518367 8:-0.79029 9:-0.876797 10:0.254226 
0.9383463069211219 0 0 0 0 0 0 0 0 0 1:-0.330211 2:-0.602079 3:0.327692 4:0.402222 5:0.598282 6:-0.0597534 7:0.463946 8:-0.857721 9:-0.766598 10:0.124837 
0 0 0.6151069772590976 0 0 0 0 0 0 0 1:-0.366276 2:-0.562382 3:0.301026 4:0.432778 5:0.567458 6:-0.0268732 7:0.443537 8:-0.93122 9:-0.698152 10:0.0429129 
0.5823132545389534 0 0 0 0.6114486819243488 0 0 0 0 0 1:-0.0618267 2:-0.79017 3:0.0107692 4:0.392778 5:0.847398 6:0.204553 7:0.172109 8:-0.766689 9:-0.0657084 10:0.0539662 
0 0.7892738290818154 0 0 0 0 0 0 0 0.1609420034599072 1:-0.166276 2:-0.756144 3:0.0897436 4:0.434444 5:0.878221 6:0.133101 7:0.155782 8:-0.703304 9:-0.145106 10:0.146944 
0.5128538896204178 0 0 0 0 0 0 0 0.5757883367060703 0 1:-0.754567 2:-0.470699 3:0.731282 4:0.596111 5:0.89237 6:0.174202 7:-0.0367347 8:-0.396494 9:-0.106092 10:0.282835 
1.523275209079662 0.9549878220843517 0 0 0 0.3350299557425843 0.3934133992577765 0.6550294334676348 0.3798534153674935 0 1:-0.928337 2:0.10586 3:0.98359 4:0.83 5:-0.0560889 6:-0.776794 7:-0.336735 8:-0.0451787 9:0.0609172 10:0.523407 
0.4273618414452613 0.6098531161720095 0.6101625600935487 0.8435761180556172 0.8018847181100086 1.46735216269636 1.467102463156107 0.5446466502943057 1.251898147379504 0.7719533565757051 1:-0.950351 2:0.0214241 3:0.86 4:0.737778 5:-0.149065 6:-0.744546 7:-0.613605 8:-0.244774 9:0.481177 10:0.206762 
-5 0 0.3737801869723741 1.231468550231998 1.096832990780066 0 0 0 0.7304827177897659 0 1:-0.117564 2:-0.442344 3:-0.0805128 4:0.541111 5:-0.0591208 6:0.750869 7:-0.201361 8:0.215779 9:-0.321013 10:-0.224967 
-1.943345132841398 0 0 0 0 0 0 0 0 0 1:-0.0754098 2:-0.461248 3:-0.165641 4:0.54 5:-0.0520465 6:0.739488 7:-0.223129 8:0.378287 9:-0.425736 10:-0.120286 
-0 0 0 0 0 0 0 0 0 1.362202640244394 1:-0.0416862 2:-0.470069 3:-0.222564 4:0.453333 5:-0.0757959 6:0.743282 7:-0.10068 8:0.359407 9:-0.232717 10:-0.184005 
-0 0 0 0 0 0.8692022550512065 0.5099495361643233 0 1.606353811762993 0.4714638985718273 1:0.00655738 2:-0.488028 3:-0.273846 4:0.372222 5:-0.104598 6:0.786911 7:-0.0972789 8:0.408631 9:-0.140999 10:-0.102081 
-0 2.118092646553737 1.138209784257033 0 0 0 0 0 0 0 1:0.0140515 2:-0.476686 3:-0.322051 4:0.305 5:-0.120263 6:0.779323 7:-0.0809524 8:0.418746 9:-0.16564 10:-0.0364109 
-0 0 0 0.3273138579886081 0 0 0 3.591711195326897 0 0 1:-0.0444965 2:-0.444234 3:-0.303077 4:0.288889 5:-0.121273 6:0.802087 7:-0.0986395 8:0.348618 9:-0.273101 10:-0.0292588 
-0.5731070239058624 0.8753743179383328 1.159022495333015 0 0 1.034037876310706 0.9365755100423049 0.9939313213852605 1.033173605729243 0 1:0.798126 2:-0.608066 3:-0.238974 4:-0.432778 5:-0.163214 6:0.250079 7:0.490476 8:0.426837 9:0.485969 10:0.120286 
-0 0 0 0 1.292309548658682 0 0 0 0 1.352951364702125 1:0.664637 2:-0.58097 3:-0.26 4:-0.395 5:-0.0848914 6:0.363895 7:0.479592 8:0.411328 9:0.308008 10:-0.0110533 
-0.9518249137652286 0 0 0 0 0 0 0 0 0 1:0.571429 2:-0.578765 3:-0.243077 4:-0.349444 5:-0.00202122 6:0.452419 7:0.434694 8:0.394471 9:0.209446 10:-0.109233 
-1.418757563273565 0 0 0 0 0 0 0 0 0.3673672522657516 1:0.297424 2:-0.538437 3:-0.142051 4:-0.0755556 5:0.282466 6:0.563073 7:0.314286 8:0.38503 9:0.100616 10:-0.274382 
-0.4973794102138296 0 0 0 0 0 0 0 0 0 1:0.9363 2:-0.437618 3:-0.753333 4:-0.0477778 5:-0.220313 6:0.769206 7:0.106122 8:0.81996 9:-0.353867 10:0.0747724 
-0 0 0 0.5668901057009771 0 0.5750469538948849 0.5389366118199794 0.6804153523222192 0.5985272986351501 0.5579982723461486 1:1 2:-0.428796 3:-0.760513 4:-0.0427778 5:-0.268317 6:0.728106 7:0.0646259 8:0.886042 9:-0.328542 10:0.164499 
-0 3.878381635436853 0.7265642549578858 0 0.5936222746032326 0 0 0 0 0 1:0.990632 2:-0.436673 3:-0.725128 4:-0.015 5:-0.268823 6:0.726842 7:0.077551 8:0.909643 9:-0.327173 10:0.153446 
-3.019476286514486 1.121618364563147 0 0 0 0 0 0 0 0 1:0.785012 2:-0.499055 3:-0.695897 4:0.243889 5:-0.0474987 6:0.817262 7:0.047619 8:0.995954 9:-0.24846 10:0.0357607 
-0 5 0 0 0 0 0 0 0 0 1:0.684778 2:-0.508192 3:-0.337436 4:-0.357222 5:-0.0550783 6:0.319633 7:0.236735 8:0.477411 9:0.232717 10:-0.182705 
-0 0 0 1.301986763632204 0 0 0 0 0 0 1:0.773302 2:-0.517958 3:-0.304103 4:-0.375 5:-0.124305 6:0.320898 7:0.253741 8:0.474039 9:0.290212 10:-0.153446 
-2.404456931138496 0 0 0 0 0 0 0 0 0 1:0.720843 2:-0.585066 3:-0.301538 4:-0.335556 5:-0.11622 6:0.328486 7:0.270068 8:0.45853 9:0.304586 10:-0.163199 
-0 0 0 0 0 0.9090994660112143 0 0 0.7628817746335695 0 1:-0.024356 2:-0.510397 3:0.765128 4:0.485 5:0.45528 6:-0.195068 7:-0.526531 8:-0.476736 9:-0.219713 10:0.0923277 
-2.107455937703753 0 0.621216613021075 0.474147026161398 0.7144821296053984 0 0.8055150626823933 0.5380843638468139 0 0.5693720041281572 1:0.0126464 2:-0.572149 3:0.778462 4:0.445556 5:0.459323 6:-0.158394 7:-0.440136 8:-0.442347 9:-0.284736 10:-0.00455137 
-0 4.274938776867478 0 0 0 0 0 0 0 0 1:-0.218735 2:-0.402016 3:0.621026 4:0.567778 5:0.40475 6:-0.752766 7:-0.50068 8:-0.300742 9:-0.340862 10:0.36736 
-0.2668105810972893 1.722336694707863 0 0 0 0 0 0.3040115144829651 0.3843848225927086 0.3339133781380839 1:-0.359719 2:-0.265911 3:0.177949 4:0.718889 5:0.386559 6:0.315839 7:-0.506122 8:-0.469319 9:-0.668036 10:0.141743 
-1.520659561460075 0 0 0 0 0 0 0 0 0 1:-0.253864 2:-0.310019 3:0.0702564 4:0.766667 5:0.411319 6:0.49921 7:-0.219048 8:-0.358732 9:-0.771389 10:0.0214564 
-0 0 0 0 0 0.6457741764684467 0.5343956123506127 0 0 0 1:-0.207026 2:-0.373031 3:0.0882051 4:0.776111 5:0.369884 6:0.58963 7:-0.0285714 8:-0.138908 9:-0.92334 10:0.0936281 
-0 0.7391053771079714 0 0 0 0 0 0 0 0 1:-0.148946 2:-0.423125 3:-0.0184615 4:0.729444 5:0.382011 6:0.568132 7:0.119728 8:0.00674309 9:-0.927447 10:-0.0539662 
-2.98638105363159 0 0 0 0.4507747869698819 0 0 0 0.7221698473475111 0 1:-0.15363 2:-0.439193 3:-0.0276923 4:0.686667 5:0.408287 6:0.449257 7:0.0918367 8:0.128793 9:-0.918549 10:-0.202211 
-0 1.007970099168066 0 0 1.468770581014796 0 0.3407965575432257 0 0 0 1:0.237471 2:-0.63327 3:-0.155897 4:0.189444 5:0.636685 6:0.136263 7:-0.00544218 8:-0.028321 9:-0.507187 10:0.296489 
-0 0 1.251076706209153 0 0 0 0 0 0 0 1:0.195316 2:-0.630435 3:-0.0769231 4:0.17 5:0.621021 6:0.189377 7:-0.0557823 8:-0.00404585 9:-0.530459 10:0.304941 
-0.3486977521379942 4.598447901990556 0 0.7928295268726731 0.3837976529284179 0.3623453632540968 0 0.9041818535636754 0.5004708967447191 0.9970351659391061 1:-0.00936768 2:-0.566163 3:0.0435897 4:0.271111 5:0.613946 6:-0.157129 7:-0.155782 8:-0.173297 9:-0.561944 10:0.554616 
-1.601939298386929 0 0 0 0 0 0 0 0 0 1:-0.616862 2:0.0746692 3:0.567692 4:0.558889 5:0.22284 6:-1 7:-0.611565 8:-0.438975 9:-0.0855578 10:0.862159 
-0 1.278630942816267 0 0 0 0 0 0 0 0 1:-0.617799 2:-0.0113422 3:0.533333 4:0.737222 5:0.196564 6:-0.987986 7:-0.411565 8:-0.591369 9:-0.203285 10:1 
-0.5128538896204178 0 0 0 0 0 0 0 0 0 1:-0.580796 2:-0.154694 3:0.501538 4:0.793333 5:0.327438 6:-0.861524 7:-0.385034 8:-0.546864 9:-0.355236 10:0.86801 
-0 4.465852986318197 0.8439034774802943 0.7562273829696695 0.8004993581895681 1.186490945166978 1.132133473659978 1.156933007807456 1.173619346638845 1.057153661418027 1:-0.687588 2:-0.0718336 3:0.605128 4:0.494444 5:0.329459 6:-0.979134 7:-0.436735 8:-0.282535 9:-0.269678 10:0.780234 
-0 -0 0 0 0 0 0 0 0.9714943498305622 0 1:0.447775 2:-0.31695 3:-0.532821 4:-0.135556 5:-0.282466 6:0.514385 7:-0.348299 8:0.327714 9:-0.449692 10:0.0604681 
-0 -1.278630942816267 0 0.5195009143587856 0 0.483528753834613 0.3378592152960189 0 0 0 1:0.440749 2:-0.298047 3:-0.561538 4:-0.15 5:-0.28095 6:0.54031 7:-0.381633 8:0.352664 9:-0.514031 10:0.0747724 
-0 -0 0.8955993072168122 0.3461162900234575 0 0 0 0 0 0 1:0.384543 2:-0.31443 3:-0.608205 4:0.035 5:-0.189995 6:0.44736 7:-0.372109 8:0.38503 9:-0.501711 10:0.0156047 
-0 -0 0 0 0.4909810074164122 0 0 0.9311798156518809 0 1.292861651058435 1:0.362529 2:-0.330813 3:-0.568718 4:0.0355556 5:-0.171804 6:0.471388 7:-0.37415 8:0.42414 9:-0.50308 10:0.0403121 
-0 -0 0 0 0 0 0 0 0 0.3112426179979879 1:0.590164 2:-0.454316 3:-0.210256 4:-0.406667 5:0.117736 6:0.0028454 7:0.143537 8:0.183412 9:-0.0602327 10:-0.0806242 
-0 -0 1.041331549168243 0 2.922562836332505 0 0 0 0 0 1:0.529742 2:-0.487713 3:-0.264615 4:-0.343889 5:0.0141486 6:0.114764 7:0.105442 8:0.215105 9:-0.0869268 10:-0.0676203 
-1.156650850096344 -5 1.222751885892741 0.6175375498587581 0 0.9518040361156777 0.3958342532003275 0.5530692522106848 0.322274123370103 1.745308742367861 1:0.657611 2:-0.495274 3:-0.151795 4:-0.537778 5:-0.108641 6:0.0597534 7:0.168027 8:0.33176 9:0.019165 10:0.0214564 
-1.371727155777839 -0 0 0 0.8820138915162534 0 0 0 0 0 1:0.612646 2:-0.350977 3:-0.477436 4:0.381111 5:-0.100556 6:0.60607 7:-0.0707483 8:0.597438 9:-0.368925 10:0.053316 
-0 -0 1.286122515932216 0 0 0 0 0 0 0 1:0.816862 2:-0.331443 3:-0.578462 4:0.321667 5:-0.159171 6:0.49099 7:-0.062585 8:0.614295 9:-0.266256 10:0.0598179 
-0 -0 0.7006948342407168 0 0 0 0 0 0 0 1:0.869321 2:-0.336799 3:-0.583077 4:0.305 5:-0.13997 6:0.453683 7:0.00272109 8:0.637222 9:-0.184805 10:0.131339 
-0 -5 0 0 0 0 0.7524526780328333 0 0 0 1:0.841218 2:-0.347196 3:-0.569231 4:0.320556 5:-0.136433 6:0.546001 7:0.0244898 8:0.697235 9:-0.151951 10:0.120936 
-1.266742715036677 -1.353145977848579 0 0.7612805719369603 0 0.789017496947326 0 0.968818611502182 0.6299421674069222 0.6898620896197356 1:0.740984 2:-0.389729 3:-0.534872 4:0.444444 5:-0.0525518 6:0.652229 7:-0.00340136 8:0.673635 9:-0.175907 10:0.150845 
-0.6816460153267163 -0 3.909725334712852 0.8775704763372276 1.145918530338219 0.860447741057816 0.5219159964022275 0.7790104229740529 0.9758259256107769 1.095645600458236 1:0.555035 2:-0.287335 3:-0.268205 4:-0.151111 5:0.372916 6:-0.30509 7:0.298639 8:0.134862 9:-0.15332 10:-0.33355 
-0 -1.390663781792351 0 0.3301687415945495 0 0 0 0 0 0 1:0.591101 2:-0.307813 3:-0.202051 4:-0.150556 5:0.28954 6:-0.121088 7:0.206803 8:0.159137 9:-0.0219028 10:-0.380364 
-0 -0 0 0 0 0 0 0 0 0.5790599669140998 1:0.535363 2:-0.36925 3:-0.245128 4:-0.0672222 5:0.175341 6:0.0218147 7:0.17619 8:0.347943 9:-0.201232 10:-0.294538 
-0 -0.7968973561640866 0 0 0 0 0 0 0 0 1:0.185012 2:-0.431317 3:0.404615 4:0.471111 5:0.311774 6:-0.685741 7:-0.397959 8:-0.409305 9:-0.0643395 10:0.360208 
-1.279168233049886 -0 0 0.7199776069432871 0.4175438321971603 1.541356860436938 0.8720407409907919 0.8497840513035207 0.625943777121849 0 1:-0.0810304 2:-0.270321 3:0.577436 4:0.565 5:0.0864073 6:-0.990515 7:-0.34966 8:-0.107215 9:0.150582 10:0.303641 
-0 -2.736584544604502 0 0 0 0 0 0 0 0 1:-0.101639 2:-0.305608 3:0.543077 4:0.605 5:0.200606 6:-0.889346 7:-0.391837 8:-0.191504 9:0.0136893 10:0.221066 
-0.1280308095983087 -0 0 0 0 0 0 0 0 0 1:0.179391 2:-0.355703 3:-0.170769 4:0.527778 5:0.234967 6:0.1135 7:-0.177551 8:-0.242077 9:-0.536619 10:0.351756 
-0 -5 0 0 0 0 0 0 0 0 1:-0.00702576 2:-0.304033 3:-0.0189744 4:0.538333 5:0.284992 6:0.0116978 7:-0.280952 8:-0.225219 9:-0.782341 10:0.544863 
-1.639800950473222 -0.9380909140741347 0.4292495584551288 0.4398437236409287 1.731424378466677 0.6222744775883154 0.5065977790227569 0.6304267068570173 0.7416968428053721 1.342596006857285 1:0.0580796 2:-0.353812 3:-0.104103 4:0.511111 5:0.289035 6:0.0679734 7:-0.171429 8:-0.183412 9:-0.892539 10:0.492848 
-0 -0 1.843987879446954 0 0 0 0 0 0 0 1:0.405621 2:-0.390359 3:-0.0225641 4:0.415556 5:0.195048 6:-0.424597 7:-0.379592 8:-0.374916 9:-0.119097 10:0.454486 
-0 -0 0.923407578702342 0 1.016083188801225 0 0 0.495888197151811 0 0 1:0.242623 2:-0.360744 3:-0.0630769 4:0.541667 5:0.0939869 6:-0.478343 7:-0.255782 8:-0.486177 9:0.0616016 10:0.364109 
-0 -0 0 1.043124922580812 0 0.5192514531940778 0.2731801754808583 0 0.3892066785726362 0.8620588044095301 1:0.263232 2:-0.42281 3:-0.123077 4:0.504444 5:0.0884285 6:-0.315207 7:-0.285714 8:-0.568442 9:0.0848734 10:0.405072 
-0 -0 0 0 0.5195054597840244 0 0 0 0 0 1:0.292272 2:-0.510712 3:-0.137436 4:0.416667 5:0.195553 6:-0.360101 7:-0.0251701 8:-0.635199 9:-0.124572 10:0.56762 
-0 -5 0 0 0 0 0 0 0 0 1:-0.459953 2:-0.26087 3:0.355897 4:0.413889 5:0.269328 6:-0.905786 7:-0.35102 8:-0.252866 9:-0.1013 10:0.857607 
-0 -1.082684180355419 0 0 0 0 0 0 0 0 1:-0.502576 2:-0.242911 3:0.271282 4:0.457778 5:0.271854 6:-0.771103 7:-0.226531 8:-0.359407 9:-0.131417 10:0.668401 
-0.8883741251870338 -0 0 0 0 0 0 0 0 0 1:-0.580796 2:-0.197858 3:0.230769 4:0.496667 5:0.138454 6:-0.552324 7:-0.14898 8:-0.440324 9:-0.0971937 10:0.541612 
-0.360702445715235 -1.504052045813129 1.350915451741855 0.4977826869209825 1.374691169764236 0.6949094596648547 0.8563416695289542 1.455896480558539 1.374813200675442 2.026202004074815 1:-0.632319 2:-0.230939 3:0.279487 4:0.513333 5:0.170288 6:-0.659184 7:-0.0387755 8:-0.29265 9:-0.185489 10:0.537061 
-0 -0 -0 4.651937055097579 0 0 0 0.954964895908451 0 1.993717433844116 1:0.369555 2:-0.0286704 3:-0.492821 4:0.345 5:-0.457302 6:0.198862 7:-0.340136 8:0.0303439 9:0.0417522 10:-0.424577 
-0 -0 -0 3.96905955041651 0 1.378604356358408 0 0 0 0 1:0.361593 2:-0.0365469 3:-0.496923 4:0.327778 5:-0.410814 6:0.0382548 7:-0.154422 8:-0.129467 9:0.185489 10:-0.401821 
-0 -0 -0 0 0.5072466673441006 0 0 0 0 0 1:0.357845 2:-0.0485192 3:-0.498974 4:0.348889 5:-0.425467 6:0.123617 7:-0.286395 8:0.0121376 9:0.126626 10:-0.458388 
-0.637281885343621 -1.251076706209153 -0.7006948342407168 0 0 0 0.8554181083575138 0 1.010091590379808 0.2887980785905329 1:0.363934 2:-0.0163831 3:-0.593846 4:0.374444 5:-0.360283 6:0.190642 7:-0.367347 8:0.08294 9:-0.0691307 10:-0.40117 
-0 -0 -3.122948283072443 0 0 0 0 0 0 0 1:0.514286 2:-0.112791 3:-0.487179 4:-0.270556 5:0.0621526 6:-0.269048 7:0.00272109 8:-0.0627107 9:0.0540726 10:-0.155397 
-0 -1.159022495333015 -2.660493270786755 1.624388967900686 5 0 0 0 0 0 1:0.627166 2:-0.0349716 3:-0.261026 4:0.377778 5:-0.316827 6:0.186848 7:0.0285714 8:0.495617 9:-0.205339 10:0.0968791 
-0 -0 -0 0 0 0 0 0 0 2.126789081576102 1:0.656674 2:-0.0595463 3:-0.257949 4:0.413889 5:-0.364325 6:0.183686 7:-0.0612245 8:0.509777 9:-0.143053 10:0.105332 
-1.031758496243367 -0 -0 0 1.115433538610651 0.9187406192088129 0.3903963653385523 1.598263584502097 0.4246781226218274 0 1:0.705386 2:-0.0771897 3:-0.257949 4:0.427222 5:-0.391612 6:0.136263 7:-0.111565 8:0.515846 9:-0.08282 10:0.13459 
-0 -0 -0 0 5 0 0 0 0 0 1:0.737705 2:-0.0910523 3:-0.238974 4:0.425 5:-0.3714 6:0.0983244 7:-0.0693878 8:0.453136 9:0.000684463 10:0.19896 
-0 -0 -0.923407578702342 0 0 0 0 0 0 0 1:0.732553 2:-0.128544 3:-0.264615 4:0.483889 5:-0.334007 6:0.123617 7:-0.037415 8:0.416049 9:-0.036961 10:0.186606 
-0 -0 -0 2.368890827719513 3.055591489019668 0 0 0 0 0 1:0.48993 2:-0.0428481 3:0.0774359 4:-0.355556 5:0.16574 6:-0.397408 7:0.110884 8:-0.20971 9:0.149897 10:-0.26658 
-1.007452199923711 -0 -1.30979839397754 0 0 1.209404707421796 1.079972000335901 1.267748676732497 0 1.16209673777762 1:0.462295 2:-0.0645873 3:0.00461538 4:-0.346111 5:0.269328 6:-0.558015 7:0.0680272 8:-0.0802428 9:0.126626 10:-0.391417 
-0 -0.621216613021075 -0 0 0 0 0 0 1.147773959236515 0 1:0.479625 2:-0.13138 3:0.0251282 4:-0.194444 5:0.0085902 6:-0.298767 7:-0.0306122 8:-0.171274 9:0.314168 10:-0.427828 
-0 -0 -0 0 5 0 0 0 0 3.985684156523631 1:0.468384 2:-0.153434 3:-0.0241026 4:-0.111667 5:-0.102072 6:-0.143851 7:-0.230612 8:0.08294 9:0.122519 10:-0.378414 
-0.5472495774834674 -1.138209784257033 -1.286122515932216 0 0 0 0 0.4194009189654726 0.5514905051827499 0.6716692780347086 1:0.686183 2:-0.336799 3:0.246667 4:-0.243889 5:0.0525518 6:-0.738856 7:0.242177 8:-0.190155 9:-0.329227 10:0.236021 
-0 -0 -0 0 2.98310204717324 0 0 0 0 0 1:0.152693 2:-0.1339 3:-0.159487 4:-0.015 5:-0.0641738 6:-0.458742 7:0.0435374 8:-0.655428 9:-0.0951403 10:0.20091 
-0.5320004971454217 -0 -1.843987879446954 1.247204859802382 3.094531831453002 0 0 0 0 1.426687496299313 1:0.0332553 2:-0.134846 3:-0.0917949 4:0.08 5:-0.123295 6:-0.437243 7:0.00884354 8:-0.590695 9:-0.0944559 10:0.191808 
-0 -0 -0 0 1.367829397476605 1.047640757839833 0.6393797928271259 0 0 1.601724097159891 1:0.557845 2:0.0989288 3:-0.0697436 4:-0.135556 5:-4.2067e-17 6:-0.724312 7:0.217007 8:-0.194201 9:-0.494182 10:0.251625 
-0 -0 -0 0 0.6228768195318595 0 0 0 0 0 1:-0.195785 2:-0.218336 3:-0.0358974 4:-0.0827778 5:-0.142496 6:-0.388555 7:0.206122 8:0.23938 9:-0.301848 10:0.53316 
-0 -1.217683664452668 -1.756333139350893 0.4101009268340416 4.052312965386067 1.358058966135272 0.4920601543255785 1.296582674276952 0 1.189910600257026 1:-0.270726 2:-0.213611 3:-0.0189744 4:-0.0794444 5:-0.0763012 6:-0.371483 7:0.15034 8:0.244774 9:-0.29295 10:0.493498 
-0.3123978697034022 -0 -0 0 0 0 0 0.375256630896671 0.8815954269587537 4.155335530863487 1:-0.259953 2:-0.222117 3:-0.0933333 4:-0.145 5:0.0419404 6:-0.251344 7:0.00408163 8:0.246123 9:-0.302533 10:0.616385 
-0 -0 -0 0 3.150686730980941 0 0 0 0 0 1:-0.255738 2:-0.248582 3:-0.223077 4:0.00444444 5:-0.128348 6:-0.13816 7:0.229932 8:0.123399 9:-0.386037 10:0.705462 
-0.9255791225649251 -0.7265642549578858 -0 3.002177379831855 5 0.9831369688541383 0.8069156518499931 1.677034518957583 1.909894702714493 0.5218590945092862 1:-0.255738 2:-0.287335 3:-0.292821 4:0.163333 5:-0.275392 6:0.00537464 7:0.346259 8:-0.0161834 9:-0.209446 10:0.572172 
-0 -0 -0 -0 5 0 0 1.130003604452192 0 0 1:0.223888 2:0.0119723 3:-0.158462 4:0.372778 5:-0.750379 6:0.0116978 7:0.313605 8:-0.229265 9:0.293634 10:-0.16515 
-0 -0 -0 -0 5 0.8099911298764898 0 0 0 0 1:0.251054 2:0.0768746 3:-0.249744 4:0.301111 5:-0.717029 6:0.176099 7:0.173469 8:-0.159811 9:0.315537 10:-0.319246 
-0 -1.301986763632204 -0 -5 0 0 0 0 0 1.54750064994812 1:0.164871 2:0.052615 3:-0.310256 4:0.295556 5:-0.509853 6:0.268416 7:-0.142177 8:-0.0121376 9:0.0985626 10:-0.329649 
-0 -0 -0 -4.898890191009039 5 0 0 0 0 0 1:0.0772834 2:0.00882168 3:-0.304615 4:0.282222 5:-0.385548 6:0.23111 7:-0.0959184 8:-0.159811 9:0.0841889 10:-0.258127 
-1.582163023217033 -0.474147026161398 -1.631037101561949 -0 0.5289950586939879 0.8603780242170376 0.5667972034369586 1.721211199092278 2.255451558545093 5 1:-0.030445 2:-0.00850662 3:-0.304615 4:0.305556 5:-0.308742 6:0.302561 7:-0.195238 8:-0.11733 9:-0.0451745 10:-0.276983 
-0 -0 -0 -0.5430215291057163 5 0 0.9610074196920358 0 0 0 1:0.197658 2:0.154379 3:0.271282 4:-0.178333 5:-0.462355 6:-0.279165 7:-0.0258503 8:0.0613621 9:0.438056 10:-0.156047 
-0 -0 -0 -0 2.684838158656519 0 0 1.708380736925856 0 2.904514512022195 1:0.190164 2:0.250788 3:0.156923 4:-0.232778 5:-0.437595 6:-0.164085 7:-0.047619 8:0.173972 9:0.29911 10:-0.221066 
-0 -0 -0 -0 0 0.3252106033572102 0 0 0 0 1:0.15363 2:0.414934 3:-0.225128 4:-0.335556 5:-0.325417 6:0.0161239 7:0.0238095 8:0.0222522 9:0.13347 10:-0.444083 
-0 -0 -0 -0.5479757131188476 0 3.210904052997126 0.529186053982018 0 0.4205843432280955 0 1:0.134895 2:0.407687 3:-0.310256 4:-0.391111 5:-0.218292 6:-0.245653 7:0.236735 8:-0.0728254 9:0.178645 10:-0.46554 
-0 -0 -0 -0 5 1.7032513508937 0 0 0 0 1:0.301639 2:0.0712035 3:0.16359 4:0.572778 5:-0.515917 6:-0.21214 7:-0.221769 8:0.766015 9:0.0581793 10:0.238622 
-0 -0 -0 -0 3.152269199484345 5 0 1.959681943189441 0 0 1:0.359719 2:0.0387524 3:0.171282 4:0.612222 5:-0.543204 6:-0.231742 7:-0.281633 8:0.817937 9:0.0732375 10:0.353706 
-0 -0 -0 -0 0 5 1.387146493450551 0 0 1.380623787751216 1:0.421546 2:0.0163831 3:0.201538 4:0.704444 5:-0.4952 6:-0.294341 7:-0.402041 8:0.779501 9:0.109514 10:0.420676 
-0 -0 -0 -0 0 2.466148219548182 0 0 0.9219469734136593 0 1:0.407963 2:-0.0302457 3:0.173333 4:0.767778 5:-0.475493 6:-0.274107 7:-0.376871 8:0.712744 9:0.19781 10:0.356307 
-0.8734939171002176 -0.7928295268726731 -1.043124922580812 -1.624388967900686 1.232003937168558 0 0 0.6650490504818284 0 0 1:0.375644 2:-0.0778198 3:0.159487 4:0.814444 5:-0.415867 6:-0.264622 7:-0.365986 8:0.627782 9:0.186858 10:0.281534 
-0 -0 -0.9555202381655463 -0 2.969871120075164 1.508330078800539 0 0 0 0 1:0.24637 2:0.229679 3:0.318462 4:-0.305556 5:-0.370894 6:-0.412583 7:-0.0836735 8:0.519892 9:0.125941 10:-0.290637 
-0 -0 -0 -0 0 0 0 0 0.2520995751706926 0 1:0.242155 2:0.126024 3:0.484615 4:-0.217778 5:-0.469429 6:-0.392349 7:-0.127211 8:0.529332 9:0.151951 10:-0.213264 
-0.7792497504846345 -0 -0.4398437236409287 -0 2.336314869114818 0 0 0 0 0.9769667720901455 1:0.281499 2:-0.126654 3:0.718462 4:0.00333333 5:-0.516422 6:-0.619349 7:-0.218367 8:0.428186 9:0.213552 10:0.129389 
-0 -0.7269919593008868 -0 -0.4101009268340416 0 2.802796725929479 0.622222532976047 0.9997189957632346 0.6938825264427626 0 1:0.244496 2:-0.115942 3:0.691795 4:-0.0133333 5:-0.535624 6:-0.693961 7:-0.12585 8:0.474713 9:0.138261 10:0.146944 
-0 -0.3565492816573909 -0 -1.247204859802382 4.910591033922403 0 0 0 0 0 1:0.148946 2:0.052615 3:0.11641 4:-0.518889 5:-0.27236 6:-0.413848 7:0.644898 8:-0.0121376 9:-0.206708 10:0.0318596 
-0 -0 -0 -0 1.417864017491543 0 0 0 0 0 1:0.100703 2:0.0601764 3:0.0646154 4:-0.460556 5:-0.250126 6:-0.270945 7:0.601361 8:-0.0579906 9:-0.225188 10:-0.0715215 
-0 -0 -0 -0 0 0 0 0 0 1.873736803028116 1:0.0697892 2:0.0951481 3:0.0025641 4:-0.487222 5:-0.187468 6:-0.101486 7:0.598639 8:-0.217802 9:-0.221081 10:-0.13459 
-0 -0 -0.5195009143587856 -0 1.974902133914271 0 0 0 0 0 1:0.0421546 2:0.0541903 3:0.115897 4:-0.263333 5:-0.368873 6:-0.18748 7:0.668707 8:-0.0728254 9:-0.5154 10:0.0214564 
-0 -0 -0 -0 0 1.413136424352974 0 0.5075790559589983 0 0.991140468042097 1:0.0627635 2:0.0601764 3:0.094359 4:-0.419444 5:-0.233451 6:-0.217831 7:0.633333 8:0.000674309 9:-0.418891 10:-0.0604681 
-0 -0 -0 -0 1.847730800515655 0 0 0 0 0 1:0.0908665 2:0.0834909 3:-0.0266667 4:-0.121111 5:-0.513896 6:-0.462536 7:0.434014 8:0.210384 9:0.0403833 10:-0.308192 
-0 -0 -0 -0 0 5 0 0 0 0 1:0.0899297 2:0.165091 3:-0.11641 4:-0.277222 5:-0.4381 6:-0.243124 7:0.529932 8:-0.0384356 9:0.0924025 10:-0.458388 
-0 -0 -0.3461162900234575 -0.7871958373336569 1.784809436913764 0 0 0 0 0.6052036292094904 1:0.27541 2:0.290485 3:0.152821 4:-0.400556 5:-0.609904 6:-0.291812 7:0.114286 8:0.501686 9:-0.557153 10:-0.109233 
-0.6305691038251015 -0.5668901057009771 -0 -0 0 0 0 0.45256823784162 0.5183520981259118 0 1:0.240281 2:0.292691 3:0.130256 4:-0.421667 5:-0.730167 6:-0.213405 7:0.127891 8:0.501011 9:-0.543463 10:-0.139142 
-0 -0 -0 -0 0 2.583605159816327 0 0 0 0 1:0.222482 2:0.263075 3:0.110256 4:-0.358889 5:-0.769075 6:-0.326589 7:0.182993 8:0.552933 9:-0.492129 10:-0.207412 
-0 -0 -0 -0 0 5 0 0 0 0 1:0.204215 2:0.253308 3:0.0984615 4:-0.345 5:-0.758464 6:-0.43092 7:0.232653 8:0.513823 9:-0.341547 10:-0.278934 
-0 -0 -0 -0 0 0 1.139556640977428 0 0 0 1:0.195785 2:0.264335 3:0.0794872 4:-0.389444 5:-0.753916 6:-0.420171 7:0.233333 8:0.46797 9:-0.262149 10:-0.263979 
-0 -0 -0 -0 1.395511840772872 0 0 0 0 0 1:0.123185 2:0.134531 3:-0.36359 4:-0.319444 5:-0.306721 6:-0.160923 7:0.863265 8:-0.504383 9:-0.353867 10:0.127438 
-0.9119568750384786 -0 -0 -0 0 0 0 0 0 0 1:-0.167681 2:0.113422 3:-0.270769 4:-0.285 5:-0.326933 6:-0.241859 7:1 8:-0.469993 9:-0.152635 10:0.102081 
-0 -0 -0 -0 0 2.18819438390669 1.251432667068769 1.257107022763295 1.181193290714295 0 1:-0.352225 2:0.147133 3:-0.153333 4:-0.407778 5:-0.160687 6:-0.39804 7:0.842857 8:-0.246123 9:-0.0841889 10:0.168401 
-0 -0 -1.21776029386427 -0 0 0 0 0 0 0 1:-0.362529 2:0.119723 3:-0.265641 4:-0.403333 5:-0.00808489 6:-0.21214 7:0.666667 8:-0.391773 9:-0.12731 10:0.261378 
-0.3262997679552295 -1.231468550231998 -0 -2.214981542498198 3.617094404797606 0.9797203020363001 0.8572399548598565 0.7669649889273515 0.9622255327937196 1.255805871947405 1:-0.244028 2:0.0775047 3:-0.489744 4:-0.296111 5:-0.0752906 6:0.0439456 7:0.637415 8:-0.45853 9:-0.218344 10:0.358908 
-0 -0 -0 -0 -5 0 0 0 0 0 1:0.104918 2:0.00441084 3:-0.111795 4:0.241111 5:-0.72764 6:0.0692381 7:0.193197 8:-0.293999 9:0.26694 10:-0.144993 
-0.4633227450015194 -0.6340418672979614 -0 -0 -5 0 0 1.236303070076145 1.36073619711651 1.507128857007059 1:0.117096 2:0.0324512 3:-0.103077 4:0.227778 5:-0.76857 6:0.122352 7:0.212245 8:-0.301416 9:0.279261 10:-0.205462 
-0 -0 -0 -0 -1.88342335104118 2.345262925330379 1.02395285738536 0 0 0 1:0.0885246 2:0.0727788 3:-0.150256 4:0.161667 5:-0.711976 6:0.0458426 7:0.35034 8:-0.385705 9:0.245722 10:-0.169051 
-0 -0 -0 -0 -2.336314869114818 0 0 0 0 0 1:0.0285714 2:0.1046 3:-0.185641 4:0.101667 5:-0.597777 6:-0.126146 7:0.460544 8:-0.432906 9:0.127995 10:-0.00910273 
-0 -0 -0 -0 -2.625038356530187 1.441903904279208 0 0 0 0 1:0.00515222 2:0.148708 3:-0.238462 4:0.0583333 5:-0.579586 6:0.0723996 7:0.268027 8:-0.400539 9:0.149897 10:-0.00845254 
-1.07963686585202 -0 -1.145918530338219 -2.542169862834085 -0 0 0 0 0 0 1:0.35363 2:-0.188091 3:0.439487 4:-0.264444 5:-0.0656897 6:-0.470756 7:-0.0183673 8:-0.318948 9:0.687201 10:0.106632 
-0 -0.5936222746032326 -0 -0 -0.5657893126481206 0 0.374165865557334 0 0.9596809846397336 0 1:0.297424 2:-0.152804 3:0.473333 4:-0.403333 5:-0.0197069 6:-0.52134 7:0.0455782 8:-0.246123 9:0.646133 10:0.0754226 
-0 -0 -0 -0 -0 0 0 1.065667397581439 0 0 1:0.244496 2:-0.246692 3:0.490769 4:-0.229444 5:-0.251137 6:-0.458742 7:0.144218 8:-0.348618 9:0.555784 10:0.139792 
-0 -0 -0 -0 -0 0 0 0 0 2.139656110807853 1:0.323653 2:-0.207624 3:0.414872 4:-0.239444 5:-0.274886 6:-0.370218 7:0.00408163 8:-0.255563 9:0.613279 10:0.149545 
-0 -0 -0 -1.209608958586046 -0.1628489724515063 1.307097693341954 0 0 0 1.870463747882145 1:0.274941 2:-0.0400126 3:0.183077 4:-0.301667 5:-0.103588 6:-0.387291 7:-0.0809524 8:0.0114633 9:0.643395 10:-0.0929779 
-0 -0 -0 -0 -5 0.8527209982448219 0.8308814242721586 0 0 0 1:0.445433 2:0.0163831 3:0.0625641 4:0.592778 5:-0.422941 6:-0.142586 7:-0.188435 8:0.714093 9:-0.149213 10:0.186606 
-0 -0 -0 -0 -5 0 0 0 0 0 1:0.483841 2:0.015753 3:0.0523077 4:0.527778 5:-0.45528 6:-0.118558 7:-0.115646 8:0.706001 9:-0.0896646 10:0.291287 
-0 -0 -0 -0 -0 1.47805638075734 0 1.511285410640747 0.6379514487764723 0 1:0.555035 2:-0.0390674 3:0.00974359 4:0.594444 5:-0.455786 6:-0.112868 7:-0.163265 8:0.648685 9:-0.0595483 10:0.303641 
-1.007113751561034 -0 -0 -5 -0 0 0 0 0 0.4687561155819005 1:0.586417 2:-0.068683 3:-0.0676923 4:0.606667 5:-0.448711 6:-0.0218147 7:-0.12381 8:0.676332 9:-0.0835044 10:0.237971 
-0 -1.096832990780066 -1.507064196217637 -5 -0 0 0 0 0 1.218745861949257 1:0.595785 2:-0.108381 3:-0.13641 4:0.553889 5:-0.424962 6:0.00347771 7:0.0258503 8:0.521241 9:-0.0520192 10:0.285436 
-0 -0 -0 -0 -5 2.34307283879281 1.215494543063379 0 0 0 1:0.302108 2:-0.00850662 3:0.382051 4:-0.148889 5:-0.245579 6:-0.358837 7:0.0727891 8:0.284558 9:0.409309 10:-0.273082 
-0 -0 -0 -0 -4.910504955832479 0 0 0 0 0 1:0.328337 2:-0.0812854 3:0.433333 4:-0.0755556 5:-0.339565 6:-0.329118 7:-0.0170068 8:0.461227 9:0.355236 10:-0.249025 
-0 -0 -0 -0 -0 0.5373255713575189 0 0 0 0 1:0.356909 2:-0.127914 3:0.426154 4:-0.0811111 5:-0.313795 6:-0.439772 7:-0.000680272 8:0.42414 9:0.527036 10:-0.279584 
-0 -0.658267681360721 -0 -0 -0 0 0 1.152344934497171 0.324851925369999 5 1:0.343326 2:-0.350347 3:0.466667 4:0.0561111 5:-0.262254 6:-0.294973 7:-0.117687 8:0.429535 9:0.507187 10:-0.0812744 
-0.3912846483100617 -0 -0 -0 -2.183765570709382 0.8336393901094848 0.6284053286116859 0.3905919806974767 0.3960170391707587 1.07625764466551 1:0.271194 2:-0.0923125 3:-0.0430769 4:-0.465 5:-0.0394138 6:-0.567499 7:0.834694 8:-0.045853 9:-0.449692 10:0.414174 
-0 -0 -0.4175438321971603 -0 -3.423022752451911 0 0 0 0 0 1:0.29555 2:-0.125079 3:-0.0717949 4:-0.472778 5:0.00404245 6:-0.472653 7:0.735374 8:-0.0869858 9:-0.305955 10:0.206112 
-0 -0 -0 -2.075074839472327 -0 0 0 0 0 0 1:0.244028 2:-0.150914 3:-0.134872 4:-0.346667 5:0.0353714 6:-0.317104 7:0.570068 8:-0.203641 9:-0.379877 10:0.19961 
-0 -0 -0 -0 -0 0 0 0 0 5 1:0.109602 2:-0.175488 3:-0.0902564 4:-0.215556 5:0.138454 6:-0.211508 7:0.411565 8:-0.18004 9:-0.577002 10:0.152146 
-0 -1.919545367984678 -1.731424378466677 -0 -0 0 0 0 0 5 1:0.034192 2:-0.232199 3:0.0446154 4:-0.035 5:0.1238 6:-0.108441 7:0.336054 8:-0.139582 9:-0.680356 10:0.053316 
-1.278177855141943 -0 -0 -1.881677083507373 -0 0 0 0 0 0 1:-0.082904 2:-0.275677 3:0.128718 4:0.178889 5:0.0565942 6:-0.130572 7:0.369388 8:-0.206339 9:-0.542779 10:0.0221066 
-0 -0 -0 -2.98310204717324 -2.684838158656519 0 0 0 0 0 1:0.183138 2:0.0223693 3:-0.164103 4:-0.198889 5:-0.2476 6:-0.165349 7:0.142857 8:-0.0209036 9:-0.0451745 10:-0.130689 
-0 -0 -1.447045775653564 -5 -2.953727676507314 0 0 0 0 1.971062555507896 1:0.264637 2:-0.122558 3:-0.00923077 4:-0.0916667 5:-0.296614 6:-0.0723996 7:0.0414966 8:0.222522 9:0.00958248 10:-0.330949 
-0 -0 -0 -1.341618682254615 -0 0 0 0 0 5 1:0.196721 2:-0.200693 3:0.00512821 4:0.0405556 5:-0.234462 6:-0.0490041 7:-0.0632653 8:0.449764 9:-0.180698 10:-0.295189 
-1.08717838052931 -0.7144821296053984 -1.475517060678941 -0 -0 0.9902014885971868 0 2.058178236620401 1.489849191853209 5 1:0.0796253 2:-0.251418 3:0.0235897 4:0.102222 5:-0.120263 6:0.0161239 7:-0.0455782 8:0.530681 9:-0.265572 10:-0.30039 
-0 -0 -0 -0 -3.772748400491931 1.577492022642026 0.9630408330151367 0.8097784401059431 0.4153142113697519 3.755164072176036 1:0.347073 2:0.3138 3:0.124103 4:-0.450556 5:-0.251137 6:-0.249447 7:0.127211 8:0.173297 9:-0.666667 10:0.163849 
-0 -0 -0 -0 -0 0 0 0 0 2.165463631433167 1:0.162529 2:0.0642722 3:0.0164103 4:-0.140556 5:-0.194543 6:-0.183686 7:0.146259 8:-0.402562 9:-0.620808 10:0.4987 
-0 -0 -1.401519351300278 -3.82478660124004 -0 0 0 0 0 4.057079985759337 1:0.0440281 2:0.031821 3:-0.193846 4:-0.112778 5:0.0924709 6:-0.176099 7:-0.0428571 8:-0.592717 9:-0.364134 10:0.524057 
-0 -0 -0 -4.444833421564662 -0.9552617943132871 0.7964454893215954 0 0.788767571464142 0 0 1:-0.322717 2:0.0220542 3:-0.214359 4:-0.0483333 5:-0.296614 6:-0.21214 7:0.304082 8:-0.0296696 9:-0.262834 10:0.572172 
-0 -0 -0 -3.102253448011375 -0 0 0 0 0 0 1:-0.348478 2:-0.0614367 3:-0.304103 4:0.0327778 5:-0.163214 6:-0.050901 7:0.248299 8:-0.246123 9:-0.219713 10:0.643693 
-0.9181160727179913 -1.184297011117986 -1.374691169764236 -1.544486542332372 -1.395511840772872 0.6508590732695095 1.208476448797538 1.441946603712417 1.630324797487445 2.200278458240994 1:-0.48993 2:-0.0519849 3:-0.411795 4:0.124444 5:0.0899444 6:-0.248182 7:0.280272 8:-0.198247 9:-0.265572 10:0.73472 
-0.6221101147393076 -0 -0 -0 -0 -0 0 1.418418938467885 0 1.26493380899954 1:-0.190164 2:0.196597 3:0.0533333 4:0.365 5:-0.9333 6:0.0989567 7:0.264626 8:0.17532 9:0.362081 10:-0.145644 
-0 -0 -0 -0 -0 -0 4.456711007104833 0 0 0 1:-0.237002 2:0.149338 3:0.0917949 4:0.428333 5:-0.912077 6:-0.0787227 7:0.27619 8:0.111261 9:0.38809 10:-0.0760728 
-0 -0 -0.6222744775883154 -0 -0 -0 1.806759101959649 1.293780811479316 0 0 1:-0.261827 2:0.110271 3:0.0733333 4:0.345 5:-0.780697 6:-0.397408 7:0.497959 8:0.0613621 9:0.338809 10:0.0903771 
-0 -0 -0 -0 -0 -0 0 2.898320440472136 1.339467870623693 0 1:-0.22623 2:0.0712035 3:0.0471795 4:0.367778 5:-0.817079 6:-0.250711 7:0.417007 8:0.0883345 9:0.407255 10:0.0156047 
-0 -0.7953297488640697 -0 -1.241175909538226 -3.210904052997126 -2.919960285036547 0 0 0.723133786461279 0 1:-0.185948 2:0.0875866 3:-0.145128 4:0.175 5:-0.789288 6:0.0211824 7:0.332653 8:0.108564 9:0.395619 10:-0.0812744 
-0.3350299557425843 -0.4362178694412336 -0 -1.209404707421796 -1.187797447574675 -0.3527666988810316 1.493414046466039 0 0.3431048577089109 0 1:-0.030445 2:0.445495 3:-0.235385 4:-0.436111 5:-0.0212228 6:-0.668669 7:0.138776 8:0.29737 9:0.478439 10:-0.0682705 
-0 -0 -0.4566775031931047 -0 -0 -0 0 0 0 0 1:-0.0327869 2:0.37051 3:-0.0748718 4:-0.235 5:-0.275392 6:-0.509327 7:-0.136054 8:0.192852 9:0.776181 10:-0.136541 
-0 -0 -0 -0 -2.223663255266267 -0 0 0 0 0 1:0.0103044 2:0.379332 3:0.0123077 4:-0.264444 5:-0.406266 6:-0.282327 7:-0.137415 8:0.181389 9:0.714579 10:-0.107932 
-0 -0 -0 -0 -0 -2.34307283879281 0 1.801750175426213 0 1.171437282925926 1:-0.00749415 2:0.350977 3:0.117949 4:-0.226111 5:-0.408287 6:-0.348087 7:-0.108844 8:0.119353 9:0.759754 10:0.0325098 
-0 -0 -0 -0 -0 -0 0 0 0.851007268206796 0 1:0.00515222 2:0.390359 3:0.0389744 4:-0.34 5:-0.308742 6:-0.499842 7:0.0918367 8:0.0566419 9:0.787817 10:-0.122887 
-0 -0 -0 -0 -4.406777473159025 -0 0.4691708315933327 0 0 0 1:0.219672 2:0.15942 3:0.230256 4:0.663889 5:-0.671551 6:-0.367689 7:-0.312925 8:0.917734 9:0.126626 10:0.43173 
-0 -0 -0 -0 -4.169399570441882 -0 0 0 0 0 1:0.198595 2:0.0806553 3:0.248205 4:0.723889 5:-0.560889 6:-0.432185 7:-0.369388 8:0.813891 9:0.195072 10:0.483745 
-0 -0 -0 -1.047640757839833 -0 -0 0.4226158295684177 0 0 1.104780268911035 1:0.185948 2:-0.0532451 3:0.229231 4:0.895556 5:-0.435068 6:-0.44736 7:-0.513605 8:0.70263 9:0.19165 10:0.560468 
-0 -0 -0 -0 -0 -0 1.240826124032447 1.010221288047847 0 0 1:0.21171 2:-0.0778198 3:0.195385 4:0.906667 5:-0.456796 6:-0.417009 7:-0.465986 8:0.776129 9:0.238193 10:0.553966 
-0 -0 -0 -0 -0 -0 0 0 0.8180638344358578 0 1:0.235129 2:-0.0270951 3:0.189744 4:0.797222 5:-0.509348 6:-0.395511 7:-0.368707 8:0.91234 9:0.179329 10:0.579974 
-0.7181826135437533 -0.6457741764684467 -0.860447741057816 -0 -5 -2.027481359318496 0 1.91770230785787 0 0 1:0.294614 2:0.00441084 3:0.168718 4:0.694444 5:-0.510864 6:-0.405628 7:-0.321088 8:0.937289 9:0.143737 10:0.603381 
-0 -0 -0 -0 -0 -0 1.762181659076618 0.6269622943641265 0 0 1:-0.0548009 2:0.0396975 3:0.701026 4:0.234444 5:-0.534108 6:-0.448625 7:-0.60068 8:0.401888 9:0.819302 10:0.228869 
-1.46735216269636 -0 -0 -0 -0 -0 2.129121433357941 0 0 0 1:-0.0482436 2:-0.174543 3:0.782051 4:0.516111 5:-0.355735 6:-0.476446 7:-0.793878 8:0.105866 9:0.80219 10:0.593628 
-0 -1.186490945166978 -0.477825817838328 -0.377685748392786 -0 -0 1.277747842680303 0 1.18890783557677 0.5833883287496915 1:0.0669789 2:-0.372716 3:0.700513 4:0.620556 5:-0.186458 6:-0.427758 7:-0.745578 8:-0.113958 9:0.696783 10:0.785436 
-0 -0 -1.214160912858933 -0 -0.8099911298764898 -0.8336393901094848 0 1.592557720475719 0 0 1:0.113349 2:-0.392565 3:0.651282 4:0.579444 5:-0.287014 6:-0.489093 7:-0.526531 8:0.0330411 9:0.733744 10:0.66775 
-0.9254656323391151 -0.9090994660112143 -0.606853539405505 -0 -0 -0 0 0 0 0 1:-0.214052 2:0.13201 3:0.831795 4:-0.08 5:-0.457302 6:-0.742649 7:0.0278912 8:0.751854 9:-0.0622861 10:-0.343953 
-0 -0 -0 -0 -0 -0 0 0 0.9426291516234102 0 1:-0.154567 2:0.158475 3:0.801026 4:-0.157222 5:-0.481051 6:-0.671198 7:0.112925 8:0.910991 9:-0.104038 10:-0.343953 
-0 -0 -0 -0 -0 -0 0 1.348978445023934 0 0 1:-0.170023 2:0.255514 3:0.822564 4:-0.201111 5:-0.491157 6:-0.605438 7:0.0877551 8:0.842886 9:-0.137577 10:-0.180754 
-0 -0 -0 -0 -0 -0 3.776977133178813 0 0 0 1:-0.239344 2:0.386894 3:0.729231 4:-0.321667 5:-0.513391 6:-0.607335 7:0.0802721 8:0.778152 9:-0.334702 10:-0.0721717 
-0 -0 -0 -0 -0 -0 1.948434049628197 0.7860694330897287 0 0 1:-0.283841 2:0.558286 3:0.29641 4:-0.499444 5:-0.382516 6:-0.453683 7:0.380272 8:0.312879 9:-0.390144 10:-0.114434 
-0 -0 -0 -0 -2.709525905354515 -0 0 0 0 0 1:-0.146604 2:0.271582 3:-0.0887179 4:-0.231667 5:-0.249116 6:-0.400569 7:0.572789 8:0.1706 9:0.0287474 10:-0.544213 
-0 -0 -1.435332789950291 -0 -0 -0 1.291160242111998 0 0 0 1:-0.0224824 2:0.262445 3:-0.164103 4:-0.402778 5:-0.0828701 6:-0.100221 7:0.623129 8:0.192178 9:-0.0150582 10:-0.492198 
-0 -0.5750469538948849 -0 -0 -5 -0 0 0 0 0 1:-0.0796253 2:0.282294 3:-0.169231 4:-0.331111 5:-0.0848914 6:0.0395194 7:0.606122 8:-0.0863115 9:0.0232717 10:-0.394668 
-1.047738134248705 -0 -0 -0.9187406192088129 -0.6231242623811423 -2.345262925330379 0 2.952346177995455 1.256428100058601 2.694987021963088 1:-0.180796 2:0.235665 3:0.0461538 4:-0.217222 5:-0.135422 6:0.0135947 7:0.432653 8:-0.176669 9:0.0492813 10:-0.426528 
-0 -0 -0 -0.3745293526202059 -3.128007329286689 -1.307097693341954 0 0 0 0.9720597528543355 1:0.169087 2:0.1339 3:0.634872 4:-0.0844444 5:-0.645781 6:-0.609232 7:-0.170068 8:0.894134 9:-0.00684463 10:-0.364759 
-0 -0 -0 -0 -5 -0 0 0 0 0 1:0.0238876 2:0.255514 3:0.2 4:-0.236111 5:-0.602324 6:-0.440405 7:0.293197 8:0.612947 9:-0.594114 10:-0.331599 
-0 -0 -0 -0.3478049244381922 -3.382476029394244 -1.577492022642026 0 0 0 0 1:-0.0103044 2:0.196912 3:0.113333 4:-0.396111 5:-0.471956 6:-0.291179 7:0.348299 8:0.443021 9:-0.546886 10:-0.36736 
-1.014085832434807 -0 -0 -0 -0 -0 0 0 0 0 1:-0.379859 2:0.400756 3:-0.10359 4:-0.600556 5:-0.202122 6:-0.262725 7:0.432653 8:0.532704 9:-0.997262 10:0.276333 
-0 -1.034037876310706 -0.789017496947326 -0 -0 -0 1.780112259278807 4.888644594005454 0.8096642436633443 0.9779472610005464 1:-0.408899 2:0.343415 3:-0.054359 4:-0.765 5:-0.0136433 6:0.014227 7:0.214966 8:0.413351 9:-0.908282 10:0.20156 
-0 -0 -0 -1.378604356358408 -0 -1.447304562591105 0.7624670684874427 0.695721554695967 1.770734287996298 0.9243728037162815 1:-0.463232 2:0.307498 3:-0.16359 4:-0.34 5:-0.194543 6:-0.324692 7:0.627211 8:0.298719 9:-0.889802 10:0.269181 
-0.5271076741151051 -0 -0 -0.4920601543255785 -0.8565054504944137 -0.9630408330151367 -0.881799023418284 2.475696749045845 0 0.9468589714198042 1:-0.405152 2:0.127599 3:0.338974 4:0.766667 5:-0.842345 6:-0.0964274 7:-0.25034 8:0.540796 9:0.497604 10:-0.103381 
-0 -0 -0.8563416695289542 -0 -0 -0 -2.835908728806114 2.743204401520373 1.064563179522046 0 1:-0.467447 2:0.120038 3:0.353333 4:0.647222 5:-0.740273 6:-0.501107 7:0.196599 8:0.0418071 9:0.634497 10:0.173602 
-0 -0 -0 -0 -0 -0 -0 0 0.8317316776647994 0 1:-0.530211 2:0.172338 3:0.300513 4:0.522222 5:-0.980293 6:-0.101486 7:0.0115646 8:0.424815 9:0.518823 10:-0.104031 
-0 -0 -0 -0 -0 -0 -2.255700523757746 0 0 0 1:-0.544262 2:0.169187 3:0.293846 4:0.426111 5:-1 6:-0.121088 7:0.127211 8:0.426837 9:0.49076 10:-0.0981795 
-0 -0.6175222999227712 -0 -0.6393797928271259 -0.5667972034369586 -1.02395285738536 -1.319211459928804 4.63796119098043 0 0.9082479587946636 1:-0.405152 2:0.457782 3:0.524615 4:-0.498333 5:-0.491157 6:-0.407525 7:0.247619 8:0.351315 9:0.0506502 10:0.513654 
-0 -0 -0 -0 -0 -0 -1.932502119301585 0 0 0 1:-0.357845 2:0.581285 3:0.337436 4:-0.581667 5:-0.463871 6:-0.263358 7:0.544898 8:0.461902 9:-0.0978782 10:0.364109 
-0 -0 -0.8720407409907919 -0 -0 -0 -0 0 0 0 1:-0.425761 2:0.540013 3:0.574872 4:-0.450556 5:-0.483578 6:-0.58141 7:0.282313 8:0.468645 9:-0.00889802 10:0.514954 
-0.7763950455832166 -0 -0 -0 -0 -0 -0 0 1.425489754773401 0 1:-0.415457 2:0.642092 3:0.514359 4:-0.530556 5:-0.451743 6:-0.511856 7:0.209524 8:0.470668 9:0.0821355 10:0.611183 
-0 -0.5389366118199794 -0.3958342532003275 -0 -0.5306410429561369 -0 -0.4929151567408307 0 0 0 1:-0.345199 2:0.568683 3:0.194872 4:0.65 5:-0.684689 6:-0.702814 7:-0.34966 8:0.824005 9:0.302533 10:0.0279584 
-0 -0 -0 -0 -0.9610074196920358 -0 -1.240826124032447 0 0 0 1:-0.229508 2:-0.124764 3:0.757436 4:0.798889 5:-0.543709 6:-0.358837 7:-0.943537 8:0.492245 9:0.629021 10:0.780884 
-0 -0 -0 -0.8554181083575138 -0 -0 -0 0 0 0 1:-0.22904 2:-0.169187 3:0.766667 4:0.880556 5:-0.565942 6:-0.413848 7:-0.881633 8:0.357384 9:0.609172 10:0.836801 
-1.467102463156107 -1.132133473659978 -0 -0 -0 -0 -2.184797488645036 1.125501021152623 0 0 1:-0.231382 2:-0.168242 3:0.772821 4:0.87 5:-0.562911 6:-0.470123 7:-0.821769 8:0.266352 9:0.620123 10:0.737971 
-0 -0 -0.8597752116982463 -0 -0 -0.8308814242721586 -0 0 0.9378667385006618 0.8521341515466446 1:-0.234192 2:-0.171078 3:0.743077 4:0.826111 5:-0.514401 6:-0.446728 7:-1 8:0.315577 9:0.68104 10:0.79909 
-0 -0 -0 -0 -0 -0 -1.253048701908693 0 0 0 1:-0.212646 2:-0.199118 3:0.738462 4:0.831111 5:-0.571501 6:-0.466329 7:-0.934694 8:0.314902 9:0.701574 10:0.769831 
-0 -0 -0 -0 -0 -0.374165865557334 -3.776977133178813 0 0 0 1:-0.38267 2:0.563957 3:0.315897 4:-0.301111 5:-0.477514 6:-0.798925 7:0.180272 8:0.939312 9:-0.0718686 10:-0.0175553 
-0 -0 -0 -0 -1.139556640977428 -0 -0 0 0 0 1:-0.413115 2:0.637051 3:0.352308 4:-0.364444 5:-0.532087 6:-0.628833 7:0.182993 8:0.656102 9:0.0704997 10:0.0669701 
-0 -0 -0 -0.8069156518499931 -0.4613114239671217 -1.208476448797538 -0 0.3984977931109997 1.473243525171619 0.7009955884049883 1:-0.546604 2:0.458097 3:0.0625641 4:0.281667 5:-0.444164 6:-0.649067 7:0.437415 8:0.19555 9:0.490075 10:0.0370611 
-1.054651048777075 -0 -0 -0 -0 -0 -0 0 0 0 1:-0.539578 2:0.381537 3:0.0805128 4:0.427222 5:-0.525518 6:-0.700285 7:0.396599 8:0.213756 9:0.561944 10:0.0442133 
-0 -0.8055150626823933 -0 -0 -0.7901212431016476 -0 -1.962584878059372 1.927523278470463 1.083767046744269 0.3891688059584397 1:-0.468384 2:0.452426 3:-0.0774359 4:0.158889 5:-0.669025 6:-0.179893 7:0.509524 8:0.360081 9:0.594798 10:-0.173602 
-0.3934133992577765 -0.4268228485921647 -0.5065977790227569 -0.3903963653385523 -0 -0.6284053286116859 -1.124670947283086 0 0.4282269623851936 0.421698891311934 1:-0.531148 2:0.437618 3:0.221026 4:-0.91 5:-0.270339 6:-0.130572 7:0.439456 8:0.432906 9:0.0800821 10:-0.404421 
-0 -0 -0 -0 -0 -0 -0 0.4758754807324682 0 0 1:-0.592506 2:0.508507 3:0.0430769 4:-0.798889 5:-0.162203 6:-0.148909 7:0.465986 8:0.412003 9:-0.169062 10:-0.412874 
-0.6070689193178505 -0 -0 -0.4556164478061286 -0 -0 -1.716282345219453 1.514365447054598 0 0.3462406261970788 1:-0.627166 2:0.578765 3:-0.397949 4:-0.67 5:0.159677 6:-0.0983244 7:0.708844 8:0.155091 9:-0.460643 10:-0.394018 
-0 -0 -0 -0 -1.386426008841875 -0 -0 0 1.080438841674279 0 1:-0.621546 2:0.536232 3:-0.209231 4:-0.736111 5:0.0955028 6:-0.212773 7:0.727891 8:0.188806 9:-0.22245 10:-0.311443 
-0 -0.3407965575432257 -0 -0 -0 -0 -0 0.9422685045617055 0 0 1:-0.607494 2:0.864209 3:-0.130769 4:-0.957222 5:-0.0272865 6:-0.0938982 7:0.17619 8:0.635873 9:-0.670089 10:-0.0897269 
-0.4848818795599631 -0 -0 -0 -0 -0 -1.287197102537976 1.076703830950099 0 0 1:-0.654801 2:0.840895 3:-0.272821 4:-1 5:0.144012 6:0.191906 7:0.0938776 8:0.46325 9:-0.823409 10:-0.0162549 
-0.5101575240071695 -0.9365755100423049 -0 -0 -0.622222532976047 -1.215494543063379 -0.3532768957066003 2.16229667096892 0.6804029541226269 0.8483179289330135 1:-0.653396 2:0.806868 3:-0.692308 4:-0.661111 5:0.4381 6:0.12172 7:0.208163 8:0.102495 9:-0.605065 10:0.053316 
-0 -0 -1.025632853513692 -0.6243555525297722 -0 -0 -0 0 0 0 1:-0.652459 2:0.771267 3:-0.616923 4:-0.709444 5:0.300657 6:0.0869428 7:0.3 8:0.260958 9:-0.517454 10:0.0344603 
-0 -0 -0 -0 -0 -0 -0 0 1.922045157111736 0.01379454371532651 1:-0.673068 2:0.745117 3:-0.482051 4:-0.822778 5:0.183426 6:0.052798 7:0.278231 8:0.339177 9:-0.307324 10:0.0559168 
-0 -0.5380843638468139 -0 -0.4194009189654726 -1.405944457170296 -0.4397507614240868 -1.333652553807126 -0 2.539363111475054 0.9749702825630967 1:-0.331148 2:0.0233144 3:-0.34 4:0.119444 5:-0.253663 6:0.479608 7:-0.0455782 8:0.227916 9:0.372348 10:-0.284785 
-0 -0 -0 -0 -0 -0 -0 -0 0.9387769012952853 0.8728712607889285 1:-0.218735 2:-0.160365 3:-0.350256 4:0.171111 5:-0.313795 6:0.527031 7:-0.212245 8:0.652731 9:0.227926 10:-0.023407 
-0.828230398506493 -3.074898790678088 -1.126314904008828 -1.598263584502097 -0.3962339187291166 -0.8598773412351296 -0 -0 0 1.07164379437337 1:-0.220141 2:-0.202268 3:-0.353846 4:0.24 5:-0.279939 6:0.62504 7:-0.22449 8:0.770735 9:-0.0855578 10:0.10078 
-0 -0 -0 -0 -0 -0 -0 -0 3.788164299832845 0 1:-0.508197 2:0.326717 3:0.355897 4:-0.0305556 5:-0.414351 6:-0.0660765 7:0.105442 8:0.0316925 9:0.49076 10:0.627438 
-0 -0 -0 -0.638277122544713 -0 -0 -0 -0.7978525617448078 1.646915675950562 1.29936454520986 1:-0.557845 2:0.349716 3:0.36359 4:-0.201667 5:-0.343103 6:-0.134998 7:0.112925 8:0.091706 9:0.336756 10:0.544863 
-0 -0.5103900107592558 -0.9311798156518809 -0 -0 -0.6848161659275673 -0 -2.608521483825268 0 0 1:-0.584075 2:0.300252 3:0.472821 4:-0.101111 5:-0.47903 6:-0.198862 7:0.126531 8:0.0525961 9:0.193703 10:0.517555 
-0.6867714326653257 -0 -0 -0 -0 -0 -0 -0 0 0 1:-0.541452 2:0.357593 3:0.494872 4:0.0588889 5:-0.619505 6:-0.124249 7:0.136054 8:0.028321 9:0.192334 10:0.408973 
-0 -0 -0 -0 -0 -0 -3.690697827050691 -2.403398759202931 0 0 1:-0.507728 2:0.450221 3:0.41641 4:0.00166667 5:-0.575543 6:-0.0331963 7:0.37415 8:-0.0465273 9:0.299795 10:0.191808 
-0 -0 -0 -0 -1.589810786808332 -0.7121011508745161 -0.7860694330897287 -0 2.39836529556132 0 1:-0.496487 2:0.529931 3:0.0666667 4:-0.238333 5:-0.27236 6:0.180525 7:0.379592 8:-0.0222522 9:0.312799 10:0.110533 
-0 -0 -0 -1.296582674276952 -1.392892868036522 -1.389879969750654 -2.7217160294327 -1.14326374169889 0 0 1:0.012178 2:-0.094518 3:-0.0764103 4:0.64 5:-0.505811 6:-0.498577 7:0.247619 8:0.362104 9:0.513347 10:0.390117 
-0.6022925947302705 -0.9041818535636754 -1.455896480558539 -0.375256630896671 -1.127931903167649 -0.3440794224489874 -1.389982871706456 -0 0.5454626353817835 0.7935860518201918 1:-0.11897 2:-0.116887 3:-0.00769231 4:0.906667 5:-0.352198 6:-0.461271 7:0.0789116 8:0.217127 9:0.375086 10:0.343303 
-0 -0 -0 -0 -0 -0 -0 -1.599940659821483 0 0 1:-0.18829 2:-0.0620668 3:-0.0102564 4:1 5:-0.452249 6:-0.257034 7:0.0428571 8:0.267701 9:0.412047 10:0.0962289 
-0.3234810836964446 -0 -0 -0 -0 -0.3490168100400552 -1.508674372509246 -1.139425235844812 0 0 1:-0.221546 2:0.0015753 3:0.014359 4:0.873333 5:-0.531582 6:0.0641796 7:-0.0612245 8:0.439649 9:0.531828 10:-0.288687 
-0 -0 -0 -0 -0 -0 -0 -0.7725959113002128 1.331211527476348 0 1:-0.219672 2:0.00819156 3:0.0128205 4:0.745 5:-0.485599 6:0.164717 7:0.0598639 8:0.424815 9:0.604381 10:-0.323147 
-0 -0 -0 -0 -0.4385761677485044 -0 -0 -0 0 3.474355518518048 1:-0.163466 2:-0.0554505 3:-0.0517949 4:0.656667 5:-0.451238 6:0.289915 7:-0.0387755 8:0.720162 9:0.479124 10:-0.237321 
-0 -0 -0 -0 -1.673371014827536 -0.8082655120481831 -1.348978445023934 -0.9275000460021741 0 0.7948616560269437 1:-0.10445 2:-0.0535602 3:0.371282 4:-0.15 5:-0.557352 6:0.0319317 7:-0.203401 8:0.607552 9:0.441478 10:0.375813 
-0.4597992552533369 -0 -0.310484421727539 -0 -0 -0 -1.592557720475719 -0.6569922092605902 0.8858347326929699 0 1:-0.0435597 2:-0.270636 3:0.53641 4:0.167778 5:-0.524002 6:-0.0458426 7:-0.193878 8:0.46325 9:0.401095 10:0.748375 
-0 -0.6465429970482002 -0 -1.03875739641287 -0.6650490504818284 -1.236303070076145 -0 -0 1.51758463690705 1.682708142494245 1:-0.0796253 2:-0.374291 3:0.475385 4:0.238333 5:-0.608388 6:0.207714 7:0.179592 8:0.449764 9:0.0657084 10:0.407672 
-0.6636588799933938 -0 -0 -0 -0 -0 -0 -0 0 0 1:-0.469789 2:0.240391 3:0.250769 4:-0.392222 5:0.193027 6:0.0730319 7:0.273469 8:0.165206 9:-0.269678 10:-0.511053 
-0 -0 -0 -0 -0 -0.8173462103686342 -2.1599687914169 -0 0 0 1:-0.464637 2:0.20983 3:0.240513 4:-0.301667 5:0.138454 6:-0.124881 7:0.353741 8:0.260958 9:-0.267625 10:-0.490247 
-0 -0 -0 -0 -0 -0 -0 -0 2.640223713033089 0 1:-0.493208 2:0.247637 3:0.433333 4:-0.286667 5:0.133906 6:-0.22289 7:0.180952 8:0.0795684 9:-0.223135 10:-0.4987 
-0 -0 -0.2885773438915745 -0.7240894119089535 -1.130003604452192 -0 -0 -0 2.279524439166293 1.216493679414911 1:-0.468852 2:0.202268 3:0.295385 4:-0.171667 5:0.184942 6:-0.22289 7:0.265986 8:0.140931 9:-0.346338 10:-0.53446 
-0.6623049068127198 -0.5168124046488087 -0.7790104229740529 -0 -0 -0.3905919806974767 -0.5277194361514143 -1.076703830950099 0.9340329565874942 1.337414061401196 1:-0.311475 2:0.252048 3:-0.541538 4:0.217222 5:-0.0757959 6:0.399937 7:0.170748 8:0.855024 9:0.0123203 10:-0.750975 
-1.040737377801893 -0 -0 -0 -0 -0.6514080694056169 -0 -0 4.715363830167573 2.369222975902758 1:-0.360656 2:-0.149338 3:-0.0358974 4:0.579444 5:0.0384032 6:0.243124 7:-0.318367 8:0.653405 9:0.0198494 10:-0.157997 
-0.5129046510966148 -0.6804153523222192 -0.5612067074119462 -0.5436592648235433 -0.45256823784162 -0.6536931495556264 -1.774109255306384 -0.4250117362379834 0 0.3016949459172875 1:-0.425293 2:0.122873 3:0.222564 4:-0.61 5:0.224861 6:-0.270945 7:0.628571 8:0.817937 9:-0.753593 10:-0.10143 
-0 -0 -0 -0 -0 -0 -0 -1.336271513201033 1.427058321415213 0 1:-0.453864 2:0.0923125 3:0.377949 4:-0.631111 5:0.183426 6:-0.226684 7:0.470748 8:0.867835 9:-0.722108 10:-0.083225 
-0 -0 -0 -0 -0 -0 -2.030631064612137 -0 0 0 1:-0.465574 2:0.111531 3:0.131795 4:-0.618333 5:0.426478 6:-0.0395194 7:0.210884 8:0.33648 9:-0.888433 10:0.215865 
-0.3049329111106814 -0.9939313213852605 -1.211403441985328 -0.954964895908451 -0 -1.117734031543202 -0 -0 0.8796591603594202 4.102088580945367 1:-0.526464 2:0.094833 3:0.11641 4:-0.435 5:0.563921 6:-0.0287702 7:-0.177551 8:-0.0411328 9:-0.50924 10:0.189857 
-0 -0 -0 -0 -0 -0 -0 -0.3984977931109997 0 0 1:-0.651991 2:0.699748 3:0.06 4:-0.882222 5:0.245579 6:-0.0920013 7:-0.0292517 8:0.0836143 9:-0.750171 10:0.0845254 
-0 -0 -0 -0 -0.8958828261324983 -0 -0 -1.467583117646478 0 0 1:-0.655269 2:0.68179 3:-0.2 4:-0.593889 5:0.377463 6:-0.190009 7:0.197959 8:-0.0586649 9:-0.810404 10:-0.0325098 
-0 -0 -0 -0 -0 -0 -0 -2.726335768700762 0 0 1:-0.70445 2:0.698173 3:-0.110769 4:-0.688889 5:0.335523 6:-0.156497 7:0.12517 8:-0.00606878 9:-0.755647 10:0.0149545 
-0 -0 -0 -0 -0 -0 -2.366716380819216 -0 0.5764211236625902 0 1:-0.742389 2:0.735665 3:0.0205128 4:-0.784444 5:0.22385 6:-0.182422 7:0.0326531 8:0.104518 9:-0.823409 10:0.13264 
-0.7006096024923749 -0.3040115144829651 -0 -0 -0 -0 -0 -0 1.976896985692161 0 1:-0.737705 2:0.73913 3:-0.146667 4:-0.678889 5:0.411319 6:-0.126146 7:-0.158503 8:-0.0647336 9:-0.815195 10:0.212614 
-0 -0 -0 -0 -0 -0 -0 -0 -0.3833204508211677 0.6809496071708838 1:-0.267916 2:-0.0277253 3:-0.431282 4:0.659444 5:0.10763 6:0.525767 7:-0.271429 8:0.345246 9:0.145106 10:-0.451235 
-2.875913990766571 -0 -0 -0 -0 -0 -0 -0 -5 2.217967746797634 1:-0.279625 2:-0.0280403 3:-0.445128 4:0.683333 5:0.0970187 6:0.522605 7:-0.262585 8:0.374241 9:0.0588638 10:-0.384265 
-0 -2.356866434462351 -1.290912028374227 -0 -0 -0 -0 -0 -0 0 1:-0.311007 2:-0.0214241 3:-0.434359 4:0.664444 5:0.0995452 6:0.566867 7:-0.305442 8:0.348618 9:-0.0116359 10:-0.247074 
-0 -0 -0 -1.147773959236515 -1.72692535331351 -1.36073619711651 -0 -0 -0 0 1:-0.286183 2:-0.0365469 3:-0.541538 4:0.673333 5:0.136938 6:0.429023 7:-0.107483 8:0.169252 9:0.245038 10:-0.371912 
-0 -0 -0 -0 -0 -0 -0.8180638344358578 -0 -0 0 1:-0.284778 2:-0.0396975 3:-0.610769 4:0.677778 5:0.125316 6:0.409421 7:-0.0857143 8:0.245448 9:0.271732 10:-0.505202 
-0 -0 -0 -0 -0 -0 -0 -0.6379266091967527 -0 0 1:-0.371429 2:-0.0126024 3:-0.568718 4:0.678333 5:0.0970187 6:0.49668 7:-0.289796 8:0.453136 9:0.0314853 10:-0.558518 
-0 -0 -0 -1.238066420864902 -0 -0.9961881372957346 -0 -0 -0 0.731379619941544 1:-0.676347 2:0.104285 3:0.230256 4:0.0677778 5:-0.192016 6:0.316472 7:0.180272 8:0.0350641 9:0.214237 10:0.592328 
-0.2908310912324847 -0 -0 -0 -0 -0 -0 -0 -0 0 1:-0.749415 2:0.200693 3:0.313846 4:0.188333 5:-0.396665 6:0.472653 7:0.0789116 8:-0.0768712 9:0.277892 10:0.271782 
-0 -0 -0.1369919607712868 -0 -0 -0 -0 -0 -4.864024683834987 0 1:-0.844965 2:0.36673 3:0.306154 4:0.0238889 5:-0.215766 6:0.0957951 7:0.215646 8:-0.0708024 9:0.167693 10:0.381664 
-0 -0 -0 -0 -0.7540699734766761 -0 -1.256428100058601 -1.728936028550527 -0.8858347326929699 0 1:-0.874941 2:0.44896 3:0.283077 4:-0.173333 5:-0.224861 6:0.190642 7:0.27483 8:0.0714767 9:-0.206023 10:0.33355 
-0 -0 -0 -0 -0.3741179146745316 -0.7608478450855276 -1.574141054668075 -0 -1.51758463690705 0 1:-0.419672 2:0.119408 3:-0.0425641 4:0.312778 5:-0.475998 6:-0.0167562 7:0.533333 8:0.074174 9:1 10:0.203511 
-0 -0 -0 -0 -0 -0 -0 -2.338807089664372 -1.121883759044374 0 1:-0.512412 2:0.1046 3:0.0758974 4:0.455556 5:-0.436079 6:-0.110971 7:0.414966 8:0.0188806 9:0.9295 10:0.120936 
-0 -0 -0 -0 -0 -0 -0.5363055034789691 -0 -0 0.3433383777979797 1:-0.588759 2:0.169502 3:0.163077 4:0.545 5:-0.309752 6:-0.277901 7:0.44966 8:-0.142953 9:0.859001 10:0.215865 
-1.251898147379504 -0.5985272986351501 -0.9184035613604905 -0 -0 -0 -0 -0 -0 0 1:-0.613583 2:0.116887 3:0.194872 4:0.636111 5:-0.235472 6:-0.325956 7:0.433333 8:-0.207013 9:0.839151 10:0.350455 
-0 -0 -0 -0.4246781226218274 -0.5183520981259118 -0 -0 -0.4282269623851936 -0 0 1:-0.608899 2:0.0995589 3:0.137436 4:0.516111 5:-0.258717 6:-0.37085 7:0.534694 8:-0.122724 9:0.8282 10:0.39922 
-0.8316639889739953 -1.606353811762993 -0.7416968428053721 -0.8815954269587537 -1.255149964999398 -1.033968487947231 -1.18890783557677 -0.6344204647235354 -3.203609578351567 1.331734182023742 1:-0.245902 2:-0.364839 3:0.153333 4:-0.0327778 5:-0.208691 6:0.334809 7:0.0360544 8:0.440998 9:0.485969 10:0.520806 
-0 -0 -0 -0 -0 -0 -0 -0 -0.8093037389059344 0.9549730486306817 1:-0.325995 2:-0.3138 3:0.175385 4:-0.0411111 5:-0.164224 6:0.35694 7:0.0163265 8:0.477411 9:0.47091 10:0.419376 
-0 -0 -0 -0 -0 -0 -0 -0 -2.638395827435495 0 1:-0.676815 2:-0.148078 3:0.358462 4:0.105 5:-0.102577 6:0.375277 7:-0.130612 8:0.418071 9:0.399042 10:0.0260078 
-0 -0.7628817746335695 -0.3892066785726362 -0.4319324342262999 -0.8070753760397635 -0 -0 -0 -1.331211527476348 1.286365251283286 1:-0.507728 2:0.287965 3:0.561026 4:0.118333 5:0.369884 6:-0.169776 7:-0.139456 8:0.400539 9:-0.57974 10:-0.415475 
-0 -0 -0 -0 -0 -1.144315558137433 -0.8031623671447236 -0 -0 0 1:-0.520843 2:0.232199 3:0.532821 4:0.0894444 5:0.446185 6:-0.221625 7:0.0278912 8:0.413351 9:-0.494182 10:-0.5013 
-1.040972098524046 -0 -0 -0 -0 -0 -0 -0 -2.640223713033089 0 1:-0.579859 2:0.132955 3:0.572821 4:-0.0622222 5:0.42951 6:-0.134998 7:-0.000680272 8:0.420769 9:-0.523614 10:-0.628739 
-0 -0 -0 -0 -0 -0 -0 -0.4491707579912416 -0.3709316599319816 0 1:-0.687588 2:0.361059 3:0.802564 4:-0.226111 5:0.300657 6:0.0875751 7:-0.0183673 8:0.468645 9:-0.21013 10:-0.622237 
-0 -0 -0 -0 -0 -0 -0 -0 -0.6511184592367946 0 1:-0.757845 2:0.418715 3:-0.315897 4:0.172778 5:0.303183 6:-0.282959 7:0.354422 8:-0.127444 9:-0.0766598 10:-0.817295 
-0 -0 -0 -0 -0.5285262052315823 -0 -0 -0 -0 0 1:-0.764403 2:0.431317 3:-0.299487 4:0.172222 5:0.295604 6:-0.360101 7:0.421088 8:-0.125421 9:-0.0109514 10:-0.872562 
-0 -0.5004708967447191 -0.625943777121849 -0 -0 -0.324851925369999 -0.9426291516234102 -0 -0 0.448920502676487 1:-0.781265 2:0.467864 3:-0.178974 4:0.1 5:0.193532 6:-0.355675 7:0.288435 8:-0.101146 9:0.242984 10:-1 
-0 -0 -0 -0.5781591561535085 -0 -0 -0 -0 -0 0 1:-0.801874 2:0.545684 3:-0.0887179 4:-0.0505556 5:0.259727 6:-0.547898 7:0.319728 8:-0.138908 9:0.188912 10:-0.76593 
-0 -0 -0 -0 -0 -0 -0 -1.473243525171619 -1.628405979929499 0 1:-0.824356 2:0.620983 3:-0.0753846 4:-0.116111 5:0.251137 6:-0.582675 7:0.261224 8:-0.0883345 9:0.0876112 10:-0.642393 
-0.6363968743672141 -0 -0 -0 -0 -0 -0 -0 -0 0 1:-0.847307 2:0.651229 3:-0.210769 4:-0.01 5:0.203638 6:-0.547898 7:0.338095 8:-0.136885 9:0.116359 10:-0.894668 
-0 -0.6537902999064796 -0.9758259256107769 -0 -0 -0 -0 -0 -0 0.5348499440751938 1:-0.884309 2:0.277253 3:0.518462 4:-0.191111 5:0.285498 6:-0.678786 7:0.272789 8:0.191504 9:-0.758385 10:-0.0513654 
-0 -0 -0 -0 -0 -0 -0 -0 -1.427058321415213 0 1:-0.910539 2:0.205104 3:0.56359 4:-0.292778 5:0.343103 6:-0.511856 7:0.29932 8:0.29737 9:-0.859001 10:-0.0812744 
-0.5753661840758373 -0 -0 -0.3880438639554374 -0 -0.2766462811391414 -0.8096642436633443 -0.6345962887530272 -0 0 1:-0.933489 2:0.0689981 3:0.698974 4:-0.369444 5:0.365841 6:-0.379703 7:0.255102 8:0.546864 9:-0.862423 10:-0.106632 
-0 -0 -0 -0 -0.6287399025451389 -0.6341366601917104 -0.9405372171044659 -0 -0 0 1:-0.855269 2:0.816005 3:-0.0138462 4:-0.515 5:-0.00808489 6:-0.659817 7:0.618367 8:-0.234659 9:-0.516085 10:0.325098 
-0 -0 -0 -0 -0 -0 -0.8301970708918316 -0 -0 0 1:-0.876347 2:0.862319 3:0.0476923 4:-0.746667 5:0.0146539 6:-0.628833 7:0.44966 8:0.0539447 9:-0.431896 10:0.264629 
-0.6648106608410791 -0.4978361811670972 -0.322274123370103 -0.5514905051827499 -0 -0 -0 -1.922045157111736 -1.976896985692161 0.4142214051847538 1:-0.906323 2:0.969124 3:-0.169744 4:-0.892222 5:0.160687 6:-0.48277 7:0.414966 8:-0.0242751 9:-0.471595 10:0.552016 
-0.3873115255978604 -0.5353374245621461 -0.6299421674069222 -0.2837844178941533 -0.6127791100277165 -0.6830347035005921 -0 -0 -0 0 1:-0.919906 2:1 3:-0.607179 4:-0.363889 5:0.215766 6:-0.360101 7:0.047619 8:-0.538773 9:-0.0171116 10:0.36671 
-0 -0 -0 -0 -0 -0 -0.3431048577089109 -0.6804029541226269 -0.57105529194842 0.9969160273432803 1:-0.917096 2:0.97448 3:-0.562051 4:-0.375556 5:0.275897 6:-0.35694 7:-0.0979592 8:-0.470668 9:-0.0896646 10:0.289987 
-0 -0 -0 -0 -4.825222291190959 -0 -0 -0 -0.6516030112843914 -2.217967746797634 1:0.0206089 2:-0.0507246 3:-0.309744 4:0.192222 5:-0.34664 6:0.404995 7:-0.345578 8:0.329737 9:0.091718 10:-0.442783 
-0.4500904402604669 -0 -0.6898620896197356 -0 -0 -0 -0 -0 -0 -0 1:0.180796 2:-0.0781348 3:-0.371282 4:0.157222 5:-0.412329 6:0.444831 7:-0.357823 8:0.549562 9:-0.103354 10:-0.259428 
-0 -1.352951364702125 -1.342596006857285 -3.168557561621843 -0 -2.533572102768858 -0 -0 -0 -0 1:0.224824 2:-0.10712 3:-0.365128 4:0.147222 5:-0.478525 6:0.345558 7:-0.328571 8:0.550236 9:0.00136893 10:-0.26723 
-0.8135738570239293 -0 -0 -0.4173664434093096 -0 -0 -0 -0 -0 -0.3433383777979797 1:0.0215457 2:-0.225268 3:0.43641 4:-0.284444 5:-0.22385 6:0.138792 7:0.285714 8:-0.220499 9:-0.0472279 10:0.141092 
-0 -0 -0 -0 -1.766483882108171 -4.711570101950965 -0 -0.4812406068998318 -0.4669911126412756 -0 1:0.0721311 2:-0.120983 3:0.274359 4:-0.413333 5:-0.159677 6:0.277268 7:0.306122 8:-0.246123 9:-0.132786 10:0.0708713 
-0 -0.9545615742428604 -0.5790599669140998 -0 -1.743134473928415 -0 -2.208630878305859 -0 -0 -0 1:0.0613583 2:-0.0554505 3:0.115385 4:-0.35 5:-0.151086 6:0.388555 7:0.055102 8:-0.196898 9:0.118412 10:-0.274382 
-0 -0 -0 -0 -0 -0 -0 -0 -0.5648906681305197 -0 1:-0.0028103 2:-0.084121 3:0.214872 4:-0.298889 5:-0.169783 6:0.27221 7:-0.0129252 8:-0.176669 9:0.162902 10:-0.274382 
-0 -0 -0 -2.591446003329184 -0.6507020279330139 -1.834584134120719 -0 -0 -0 -0 1:0.00843091 2:-0.0699433 3:0.0953846 4:-0.358889 5:0.0939869 6:-0.0338286 7:-0.0721088 8:0.0242751 9:0.2423 10:-0.293238 
-0 -0.8501384815212774 -0 -0 -0 -0 -0 -0 -4.844709649163997 -1.331734182023742 1:0.0454333 2:-0.0330813 3:-0.170769 4:0.575556 5:-0.395149 6:0.36516 7:-0.0986395 8:0.739042 9:0.0116359 10:-0.230169 
-0 -0 -0 -0 -0.6434349991048625 -0 -1.166901472991694 -0.9468589714198042 -2.383880896355624 -0 1:0.0978923 2:-0.160365 3:-0.14359 4:0.668889 5:-0.3714 6:0.251344 7:-0.244898 8:0.653405 9:0.220397 10:-0.204161 
-1.098550732117895 -0 -0 -0.557090304752588 -0 -0 -0 -0 -0 -0 1:0.174239 2:-0.193762 3:-0.190256 4:0.655 5:-0.349672 6:0.188745 7:-0.22585 8:0.513149 9:0.340178 10:-0.359558 
-0 -0.5693720041281572 -1.292861651058435 -2.386825371725302 -0 -5 -0 -0 -0 -0 1:0.298361 2:-0.350032 3:0.317436 4:-0.0827778 5:-0.275392 6:-0.0951628 7:-0.194558 8:0.345246 9:0.386721 10:0.156047 
-0 -0 -0 -0 -0 -4.11495398972743 -0 -0 -0 -0 1:0.300703 2:-0.324512 3:0.340513 4:-0.0927778 5:-0.335018 6:-0.0502687 7:-0.112925 8:0.347269 9:0.383299 10:0.180754 
-0 -0 -0 -0 -1.985827416960707 -0 -1.564223628731255 -0.9082479587946636 -0.8728712607889285 -0 1:0.277752 2:-0.343415 3:0.370256 4:-0.0594444 5:-0.38858 6:-0.00980082 7:-0.029932 8:0.285233 9:0.359343 10:0.211964 
-0 -0 -0 -0 -0 -0 -0 -0 -1.618031458132047 -1.686352668572226 1:0.1274 2:-0.276938 3:0.405641 4:-0.0333333 5:-0.255685 6:0.0686058 7:-0.0122449 8:0.329063 9:0.281314 10:0.0721717 
-0 -0 -2.056551360365849 -0 -0 -0 -0 -0.3462406261970788 -0.7370732316890247 -0 1:0.0777518 2:-0.309389 3:0.204615 4:-0.429444 5:0.132895 6:-0.288018 7:0.329932 8:0.382333 9:-0.510609 10:-0.0305592 
-0 -0 -0 -0 -0 -3.653854742059231 -0.5833883287496915 -0 -0 -0 1:0.0468384 2:-0.273157 3:0.161538 4:-0.272222 5:0.115715 6:-0.438508 7:0.371429 8:0.220499 9:-0.652293 10:0.0110533 
-0 -0.9739790897839837 -0 -2.562191453785132 -0.991140468042097 -3.161494971423707 -0 -0 -0 -0.4142214051847538 1:0.17096 2:-0.292691 3:0.26359 4:-0.187778 5:0.125821 6:-0.56497 7:0.305442 8:0.192852 9:-0.614648 10:-0.0741222 
-1.47136791501281 -0.4306971421566556 -0 -0 -0 -0 -0 -0 -1.484725176732872 -0.5348499440751938 1:0.0299766 2:-0.0856963 3:-0.152308 4:0.324444 5:-0.0763012 6:0.114132 7:0.163946 8:0.435604 9:-0.0595483 10:-0.651495 
-0 -0 -0 -0 -0 -1.157797361013445 -0 -0 -0 -0 1:0.0355972 2:-0.118463 3:-0.168718 4:0.346667 5:-0.127337 6:0.0730319 7:0.163946 8:0.504383 9:-0.0438056 10:-0.564369 
-0 -0 -0 -0 -0 -5 -0 -0 -0 -0 1:0.0140515 2:-0.137996 3:-0.146667 4:0.302222 5:-0.147549 6:0.0654442 7:0.103401 8:0.455158 9:-0.017796 10:-0.527958 
-0 -0 -0.8620588044095301 -1.426687496299313 -1.494348308829078 -1.785030471437255 -1.458415896511563 -0.7009955884049883 -0 -0 1:0.0449649 2:-0.192187 3:-0.15641 4:0.313333 5:-0.17332 6:-0.109706 7:0.227211 8:0.338503 9:0.161533 10:-0.622887 
-0 -0 -0 -0 -0 -0 -0 -0 -1.167847325378407 -0.6809496071708838 1:0.192506 2:-0.084121 3:0.0784615 4:-0.278889 5:0.0742799 6:-0.323427 7:0.0680272 8:0.194201 9:-0.962355 10:0.23472 
-1.095376254910841 -0 -0 -0 -0 -0 -1.476516202787713 -0.8521341515466446 -0 -0 1:0.123653 2:0.0170132 3:-0.0635897 4:-0.156667 5:0.0692269 6:-0.401834 7:0.172789 8:-0.063385 9:-0.948665 10:0.477243 
-0 -0 -0 -0 -0 -1.398096360151674 -0 -0 -0 -0 1:0.0683841 2:0.0359168 3:-0.0835897 4:-0.102778 5:0.0303183 6:-0.374644 7:0.142177 8:-0.149022 9:-0.879535 10:0.492198 
-0 -0.4714638985718273 -1.095645600458236 -3.665314083188687 -1.873736803028116 -5 -0 -0 -0 -0 1:0.0791569 2:0.0289855 3:-0.188205 4:-0.103333 5:0.0803436 6:-0.252608 7:0.0244898 8:-0.227916 9:-0.759754 10:0.408973 
-0 -0 -0 -0 -0 -5 -0 -0 -0 -0 1:0.151756 2:-0.0384373 3:-0.0928205 4:-0.185556 5:0.0702375 6:-0.217199 7:0.127891 8:-0.0944032 9:-0.878166 10:0.275033 
-0 -0 -0 -0 -0 -0 -0 -0.3891688059584397 -1.754920747929807 -0 1:-0.491335 2:0.126024 3:0.189744 4:-0.367222 5:0.126832 6:-0.269048 7:-0.272109 8:-0.299393 9:-0.180014 10:0.653446 
-0 -1.13238070450865 -0 -1.280777936018532 -0 -0 -0.3636826578484555 -0 -0 -0 1:-0.513817 2:0.125709 3:0.122564 4:-0.289444 5:0.136433 6:-0.269681 7:-0.218367 8:-0.349292 9:-0.224504 10:0.736021 
-0 -0 -2.026202004074815 -0 -0.5614618229133653 -3.079102806357871 -0 -0 -0 -1.445836530019767 1:-0.503513 2:0.0532451 3:-0.0348718 4:-0.155556 5:0.281961 6:-0.24755 7:-0.147619 8:-0.38503 9:-0.242984 10:0.571521 
-0 -0.3339133781380839 -0 -1.068014931305823 -0 -0 -0 -0 -1.546562933271375 -0 1:-0.486651 2:-0.0138626 3:-0.103077 4:-0.143889 5:0.407276 6:-0.263358 7:-0.12585 8:-0.211059 9:-0.258727 10:0.388817 
-0 -0 -0 -0 -0 -0 -0 -0.8025707570604421 -0 -0 1:-0.511944 2:-0.031821 3:-0.0430769 4:-0.203333 5:0.431531 6:-0.242491 7:-0.187755 8:-0.16116 9:-0.127995 10:0.235371 
-1.106355311041746 -0 -0 -0 -0 -0 -0.8721474631942108 -0 -2.197168023877934 -1.286365251283286 1:-0.555035 2:-0.0229994 3:0.0282051 4:-0.325 5:0.444164 6:-0.24755 7:-0.279592 8:-0.0944032 9:0.0273785 10:0.30104 
