svm_type nu_svc
kernel_type rbf
gamma 0.1
nr_class 11
total_sv 496
rho -2.434 -1.8157 -1.19658 -0.646609 -1.02361 -0.177421 0.0790685 -0.594449 -0.531032 -1.1966 -3.93021 -1.47485 -0.685246 -1.29846 -0.17933 0.0877079 -0.577 -0.381649 -1.55922 -1.11963 -0.204832 -0.727159 0.310861 0.369118 0.00667928 0.1515 -0.680983 0.576376 1.07994 1.07581 0.725952 0.669487 0.57106 0.69841 -5.19276 3.72055 0.978218 0.423836 0.559112 -0.102518 1.94497 0.879703 0.719059 0.668195 1.12042 1.0029 -0.957014 0.0930887 -1.3027 -1.19184 -0.128778 -0.987612 2.82436 -0.951426 -0.751049
label 0 1 2 3 4 5 6 7 8 9 10
nr_sv 44 48 45 41 44 47 48 39 47 46 47
SV
3.799330612524574 1.050691912600713 0.5095919143523823 0.3950444470863678 0.4911549625899568 0.3689986525130273 0.2848287780771097 0.5729537120917699 0.655855521916506 0.7149568636584467 1:-0.2637 2:-0.466919 3:-0.0682051 4:0.771111 5:-0.0101061 6:0.557382 7:-0.218367 8:0.228591 9:-0.494182 10:-0.436931 
3.799330612524574 0 0.5095919143523823 0.2502971500541694 0.4911549625899568 0.3689986525130273 0.2848287780771097 0.5729537120917699 0.655855521916506 0.7149568636584467 1:-0.270258 2:-0.481096 3:-0.0323077 4:0.73 5:-0.0373926 6:0.644641 7:-0.194558 8:0.233985 9:-0.441478 10:-0.436281 
3.799330612524574 0.9796439689722659 0.5095919143523823 0.3950444470863678 0.4911549625899568 0.3689986525130273 0.2848287780771097 0.5729537120917699 0.655855521916506 0.7149568636584467 1:-0.275878 2:-0.492439 3:-0.0533333 4:0.777778 5:-0.0232441 6:0.594689 7:-0.198639 8:0.256237 9:-0.358658 10:-0.454486 
3.799330612524574 0 0.5095919143523823 0.3950444470863678 0.4911549625899568 0.3689986525130273 0.2848287780771097 0.5729537120917699 0.655855521916506 0.7149568636584467 1:-0.256674 2:-0.50252 3:-0.0876923 4:0.759444 5:-0.0232441 6:0.587733 7:-0.140136 8:0.250169 9:-0.290897 10:-0.455787 
3.799330612524574 0 0.5095919143523823 0.3950444470863678 0.4911549625899568 0.3689986525130273 0.2848287780771097 0.5729537120917699 0.655855521916506 0.7149568636584467 1:-0.242155 2:-0.507246 3:-0.125641 4:0.731111 5:-0.0136433 6:0.579513 7:-0.047619 8:0.204316 9:-0.232717 10:-0.509753 
2.817062453784081 0 0.219200780166255 0.3950444470863678 0.03461792956215579 0.2945151031825002 0.2848287780771097 0.5729537120917699 0.655855521916506 0.7149568636584467 1:-0.247307 2:-0.524575 3:-0.153333 4:0.775 5:-0.00252653 6:0.566867 7:-0.0197279 8:0.200944 9:-0.25462 10:-0.559818 
3.108351383225993 0 0 0.2381254059753168 0.03915680797189262 0.3689986525130273 0.2848287780771097 0.5729537120917699 0.655855521916506 0.7149568636584467 1:-0.480562 2:-0.532766 3:0.487692 4:0.0177778 5:0.572511 6:0.435346 7:0.496599 8:-0.103844 9:-0.43258 10:-0.342003 
0 0 0 0 0 0.3689986525130273 0.2848287780771097 0.5729537120917699 0.655855521916506 0.7149568636584467 1:-0.561593 2:-0.547574 3:0.648718 4:0.150556 5:0.549773 6:0.331015 7:0.529252 8:-0.0788941 9:-0.462012 10:-0.33355 
0 0 0 0 0 0.0897429737237051 0.2848287780771097 0.5729537120917699 0.655855521916506 0 1:-0.654333 2:-0.481096 3:0.715385 4:0.293333 5:0.467913 6:0.332912 7:0.489796 8:-0.273769 9:-0.505818 10:-0.315345 
0 0 0 0 0 0 0.09444418568412513 0.5729537120917699 0.655855521916506 0 1:-0.656206 2:-0.521109 3:0.832821 4:0.398333 5:0.419404 6:0.196965 7:0.334014 8:-0.306136 9:-0.713895 10:-0.245774 
0.8771759639850669 0 0 0 0 0 0 0 0.3221117694265109 0 1:-0.579859 2:-0.63201 3:0.810769 4:0.445 5:0.42193 6:0.0110654 7:0.153061 8:-0.25826 9:-0.814511 10:-0.198309 
3.799330612524574 1.050691912600713 0.5095919143523823 0.3950444470863678 0.4911549625899568 0.1617508886757298 0 0.4493291003019266 0 0.7149568636584467 1:0.877752 2:-0.678324 3:-1 4:0.232222 5:-0.110662 6:0.900095 7:0.263265 8:0.569117 9:-0.843943 10:-0.36671 
3.799330612524574 1.050691912600713 0.5095919143523823 0 0.156612103450661 0 0 0 0 0 1:0.832787 2:-0.691556 3:-0.972308 4:0.313333 5:-0.0656897 6:0.952577 7:0.239456 8:0.488874 9:-0.969884 10:-0.273082 
0 0.1288168590554827 0 0 0 0 0 0 0 0 1:0.777049 2:-0.699118 3:-0.880513 4:0.378333 5:-0.0368873 6:0.962694 7:0.338095 8:0.494268 9:-0.913073 10:-0.361508 
0.100614170516562 0 0 0 0 0 0 0 0 0 1:0.792506 2:-0.699748 3:-0.886667 4:0.303333 5:-0.0712481 6:0.976604 7:0.360544 8:0.610924 9:-0.87885 10:-0.363459 
0 1.050691912600713 0.2446249966892586 0.07261729583967193 0 0 0 0 0 0.161905748922932 1:0.871663 2:-0.689351 3:-0.967179 4:0.246111 5:-0.116726 6:0.961429 7:0.387755 8:0.773432 9:-0.826831 10:-0.351105 
3.799330612524574 1.050691912600713 0.5095919143523823 0.3950444470863678 0.4911549625899568 0.3689986525130273 0.2848287780771097 0.5729537120917699 0.655855521916506 0.7149568636584467 1:0.715691 2:-0.724638 3:-0.575385 4:-0.0816667 5:0.0237494 6:0.516282 7:0.420408 8:0.713419 9:0.192334 10:-0.204161 
3.799330612524574 1.050691912600713 0.5095919143523823 0.3950444470863678 0.4911549625899568 0.3689986525130273 0.2848287780771097 0.5729537120917699 0.655855521916506 0.7149568636584467 1:0.734895 2:-0.742596 3:-0.610769 4:-0.075 5:0.0338555 6:0.521973 7:0.42381 8:0.742414 9:0.186858 10:-0.204161 
3.799330612524574 1.050691912600713 0.5095919143523823 0.3950444470863678 0.4911549625899568 0.3689986525130273 0.2848287780771097 0.5729537120917699 0.655855521916506 0.7149568636584467 1:0.665105 2:-0.754883 3:-0.606154 4:-0.0155556 5:0.0737746 6:0.563705 7:0.409524 8:0.761295 9:0.0958248 10:-0.226268 
3.799330612524574 1.050691912600713 0.5095919143523823 0.3950444470863678 0.4911549625899568 0.3689986525130273 0.2848287780771097 0.5729537120917699 0.655855521916506 0.7149568636584467 1:0.586885 2:-0.780718 3:-0.557436 4:0.0716667 5:0.101061 6:0.610496 7:0.409524 8:0.76062 9:0.0253251 10:-0.236021 
3.799330612524574 1.050691912600713 0.5095919143523823 0.3950444470863678 0.4911549625899568 0.3689986525130273 0.2848287780771097 0.5729537120917699 0.655855521916506 0.7149568636584467 1:0.525995 2:-0.786389 3:-0.515897 4:0.126667 5:0.103082 6:0.630098 7:0.448299 8:0.741065 9:-0.00752909 10:-0.247724 
3.799330612524574 1.050691912600713 0.5095919143523823 0.3950444470863678 0.4911549625899568 0.3689986525130273 0.2565912308708196 0.5729537120917699 0.3337437524899952 0.7149568636584467 1:0.476815 2:-0.7908 3:-0.492308 4:0.169444 5:0.111167 6:0.668037 7:0.471429 8:0.750506 9:-0.0273785 10:-0.257477 
3.799330612524574 0.545339243056858 0 0 0 0 0 0 0 0 1:0.0196721 2:-1 3:0.410256 4:0.627778 5:0.408287 6:0.554221 7:-0.2 8:-0.443695 9:-0.402464 10:0.428479 
3.799330612524574 1.050691912600713 0 0 0 0 0 0 0 0 1:-0.040281 2:-0.956837 3:0.429231 4:0.582778 5:0.422436 6:0.568764 7:-0.258503 8:-0.477411 9:-0.251882 10:0.509103 
3.307118163442572 0 0 0 0 0 0 0 0 0 1:-0.191569 2:-0.869565 3:0.573846 4:0.616667 5:0.366852 6:0.464433 7:-0.405442 8:-0.534053 9:-0.113621 10:0.46619 
3.799330612524574 0 0 0 0 0.002221562269709519 0.03921203979554551 0 0 0 1:-0.287119 2:-0.787335 3:0.630256 4:0.508889 5:0.380495 6:0.485931 7:-0.465986 8:-0.598112 9:-0.138946 10:0.548765 
3.799330612524574 1.050691912600713 0 0 0.2291661451021715 0.3689986525130273 0.2848287780771097 0.4840835040894799 0 0 1:-0.288993 2:-0.777568 3:0.648205 4:0.469444 5:0.384032 6:0.478343 7:-0.501361 8:-0.642616 9:-0.132786 10:0.604681 
0 0 0.5095919143523823 0.3950444470863678 0.4911549625899568 0.3689986525130273 0 0 0 0.3496655443830166 1:-0.115222 2:-0.694077 3:0.0189744 4:0.317778 5:0.540172 6:0.148909 7:0.765986 8:-0.855698 9:-0.583162 10:0.16515 
0 0 0.5095919143523823 0.3950444470863678 0.4911549625899568 0 0.1794100998037292 0.049429646117567 0 0.7149568636584467 1:-0.0899297 2:-0.623503 3:-0.08 4:0.206667 5:0.601819 6:0.283592 7:0.652381 8:-1 9:-0.603012 10:0.221717 
0 0.857832199138069 0.5095919143523823 0.3950444470863678 0.4911549625899568 0.3689986525130273 0 0 0 0 1:-0.126932 2:-0.648708 3:0.0630769 4:0.295 5:0.566448 6:0.147012 7:0.677551 8:-0.944707 9:-0.76386 10:0.273082 
3.799330612524574 1.050691912600713 0.05877606397661762 0.3950444470863678 0.4911549625899568 0.1897667771744101 0 0 0 0.7149568636584467 1:-0.242623 2:-0.641777 3:0.261026 4:0.348333 5:0.614957 6:-0.014227 7:0.518367 8:-0.79029 9:-0.876797 10:0.254226 
3.799330612524574 1.050691912600713 0 0 0.4911549625899568 0 0 0 0 0 1:-0.330211 2:-0.602079 3:0.327692 4:0.402222 5:0.598282 6:-0.0597534 7:0.463946 8:-0.857721 9:-0.766598 10:0.124837 
0 0 0 0.2290490423035772 0.03160197650307586 0 0 0 0 0 1:-0.366276 2:-0.562382 3:0.301026 4:0.432778 5:0.567458 6:-0.0268732 7:0.443537 8:-0.93122 9:-0.698152 10:0.0429129 
0 0.2195264159316179 0.5095919143523823 0 0 0 0 0 0 0.2033855703524979 1:-0.0618267 2:-0.79017 3:0.0107692 4:0.392778 5:0.847398 6:0.204553 7:0.172109 8:-0.766689 9:-0.0657084 10:0.0539662 
0 1.050691912600713 0 0 0 0 0 0 0 0 1:-0.166276 2:-0.756144 3:0.0897436 4:0.434444 5:0.878221 6:0.133101 7:0.155782 8:-0.703304 9:-0.145106 10:0.146944 
0 1.050691912600713 0 0 0 0 0 0 0 0 1:-0.238876 2:-0.718336 3:0.0912821 4:0.508889 5:0.876705 6:0.1546 7:0.168027 8:-0.688469 9:-0.218344 10:0.221066 
0 0 0 0 0 0 0 0 0.655855521916506 0 1:-0.548478 2:-0.609326 3:0.402564 4:0.545 5:1 6:0.266519 7:0.104762 8:-0.477411 9:-0.112252 10:0.317945 
0 0 0 0 0 0 0.2848287780771097 0.1630651736745664 0.655855521916506 0 1:-0.754567 2:-0.470699 3:0.731282 4:0.596111 5:0.89237 6:0.174202 7:-0.0367347 8:-0.396494 9:-0.106092 10:0.282835 
3.799330612524574 1.050691912600713 0.5095919143523823 0.3950444470863678 0.4911549625899568 0.3689986525130273 0.2848287780771097 0.5729537120917699 0.655855521916506 0.7149568636584467 1:-0.928337 2:0.10586 3:0.98359 4:0.83 5:-0.0560889 6:-0.776794 7:-0.336735 8:-0.0451787 9:0.0609172 10:0.523407 
3.799330612524574 1.050691912600713 0.4965819878726333 0.3950444470863678 0.4911549625899568 0.3689986525130273 0.2848287780771097 0.5729537120917699 0.655855521916506 0.7149568636584467 1:-0.959251 2:0.13201 3:1 4:0.785 5:-0.0651844 6:-0.680051 7:-0.461905 8:0.0209036 9:0.145106 10:0.391417 
1.187669702619449 1.050691912600713 0.5095919143523823 0.3950444470863678 0.4911549625899568 0.3689986525130273 0.2848287780771097 0.5729537120917699 0.655855521916506 0.7149568636584467 1:-0.962529 2:0.0919975 3:0.974872 4:0.858333 5:-0.22385 6:-0.695226 7:-0.414966 8:-0.0269724 9:0.225873 10:0.339402 
0 1.050691912600713 0.5095919143523823 0.3950444470863678 0.4911549625899568 0.3689986525130273 0.2848287780771097 0.5729537120917699 0.655855521916506 0.7149568636584467 1:-0.959719 2:0.0557656 3:0.933333 4:0.895556 5:-0.296109 6:-0.795764 7:-0.333333 8:-0.0910317 9:0.305955 10:0.26723 
0 0.4209170516478462 0.5095919143523823 0.3950444470863678 0.4911549625899568 0.3689986525130273 0.2848287780771097 0.5729537120917699 0.655855521916506 0.7149568636584467 1:-0.96815 2:0.047574 3:0.898974 4:0.837222 5:-0.205659 6:-0.766045 7:-0.527211 8:-0.120701 9:0.419576 10:0.217815 
0 1.050691912600713 0.5095919143523823 0.3950444470863678 0.4911549625899568 0.3689986525130273 0.2848287780771097 0.5729537120917699 0.655855521916506 0.7149568636584467 1:-0.950351 2:0.0214241 3:0.86 4:0.737778 5:-0.149065 6:-0.744546 7:-0.613605 8:-0.244774 9:0.481177 10:0.206762 
-3.799330612524574 0 0.9967326024948152 0.5891174747995086 0.9410596484073868 0.4959721332748183 0.3150345222818799 0.6966749815463029 0.5365822441982715 1.427270396517015 1:-0.117564 2:-0.442344 3:-0.0805128 4:0.541111 5:-0.0591208 6:0.750869 7:-0.201361 8:0.215779 9:-0.321013 10:-0.224967 
-3.799330612524574 5.299807438597369 0.1412419620229732 0.5891174747995086 0.3282004572070129 0.4959721332748183 0.3150345222818799 0.6966749815463029 0.5365822441982715 1.427270396517015 1:-0.0754098 2:-0.461248 3:-0.165641 4:0.54 5:-0.0520465 6:0.739488 7:-0.223129 8:0.378287 9:-0.425736 10:-0.120286 
-3.799330612524574 2.815889901502415 0.9967326024948152 0.5891174747995086 0.9410596484073868 0.4959721332748183 0.3150345222818799 0.6966749815463029 0.5365822441982715 1.427270396517015 1:-0.0416862 2:-0.470069 3:-0.222564 4:0.453333 5:-0.0757959 6:0.743282 7:-0.10068 8:0.359407 9:-0.232717 10:-0.184005 
-3.799330612524574 0 0 0.5891174747995086 0 0.4959721332748183 0.3150345222818799 0.6966749815463029 0.5365822441982715 1.427270396517015 1:0.00655738 2:-0.488028 3:-0.273846 4:0.372222 5:-0.104598 6:0.786911 7:-0.0972789 8:0.408631 9:-0.140999 10:-0.102081 
-3.799330612524574 0 0.9967326024948152 0.5891174747995086 0.9410596484073868 0.4959721332748183 0.3150345222818799 0.6966749815463029 0.5365822441982715 1.427270396517015 1:0.0140515 2:-0.476686 3:-0.322051 4:0.305 5:-0.120263 6:0.779323 7:-0.0809524 8:0.418746 9:-0.16564 10:-0.0364109 
-3.799330612524574 5.299807438597369 0.9967326024948152 0.5891174747995086 0.9410596484073868 0.4959721332748183 0.3150345222818799 0.6966749815463029 0.5365822441982715 1.427270396517015 1:-0.0444965 2:-0.444234 3:-0.303077 4:0.288889 5:-0.121273 6:0.802087 7:-0.0986395 8:0.348618 9:-0.273101 10:-0.0292588 
-0 0 0.9967326024948152 0.5891174747995086 0.9410596484073868 0.4959721332748183 0.3150345222818799 0.5008817721864092 0.4404904884148979 1.427270396517015 1:0.798126 2:-0.608066 3:-0.238974 4:-0.432778 5:-0.163214 6:0.250079 7:0.490476 8:0.426837 9:0.485969 10:0.120286 
-3.799330612524574 0 0.9967326024948152 0.5891174747995086 0.9410596484073868 0.4959721332748183 0.3150345222818799 0.6966749815463029 0.5365822441982715 1.427270396517015 1:0.664637 2:-0.58097 3:-0.26 4:-0.395 5:-0.0848914 6:0.363895 7:0.479592 8:0.411328 9:0.308008 10:-0.0110533 
-3.799330612524574 0 0.895418620461729 0.5891174747995086 0.9410596484073868 0.4959721332748183 0.1819948032032524 0.6966749815463029 0.5365822441982715 1.427270396517015 1:0.571429 2:-0.578765 3:-0.243077 4:-0.349444 5:-0.00202122 6:0.452419 7:0.434694 8:0.394471 9:0.209446 10:-0.109233 
-3.799330612524574 0 0 0.5891174747995086 0.9410596484073868 0 0 0.6966749815463029 0.5365822441982715 0 1:0.553162 2:-0.602394 3:-0.222051 4:-0.301667 5:-0.00656897 6:0.48277 7:0.376871 8:0.417397 9:0.134155 10:-0.0793238 
-3.799330612524574 0 0 0.1155087924982276 0.2934618310658477 0 0 0.6966749815463029 0.5365822441982715 0 1:0.480562 2:-0.578135 3:-0.205641 4:-0.237778 5:0.11622 6:0.51565 7:0.312925 8:0.434929 9:0.0841889 10:-0.163849 
-3.799330612524574 0 0 0 0 0 0 0.6966749815463029 0.5365822441982715 1.427270396517015 1:0.297424 2:-0.538437 3:-0.142051 4:-0.0755556 5:0.282466 6:0.563073 7:0.314286 8:0.38503 9:0.100616 10:-0.274382 
-0 4.37705116293896 0 0 0 0 0 0 0 0 1:0.9363 2:-0.437618 3:-0.753333 4:-0.0477778 5:-0.220313 6:0.769206 7:0.106122 8:0.81996 9:-0.353867 10:0.0747724 
-0 5.299807438597369 0 0 0 0 0 0 0 0 1:0.966745 2:-0.436043 3:-0.771282 4:-0.0394444 5:-0.245579 6:0.773633 7:0.0734694 8:0.825354 9:-0.366188 10:0.122887 
-0 5.299807438597369 0.9967326024948152 0 0 0 0 0 0 0 1:1 2:-0.428796 3:-0.760513 4:-0.0427778 5:-0.268317 6:0.728106 7:0.0646259 8:0.886042 9:-0.328542 10:0.164499 
-0 5.299807438597369 0.9967326024948152 0.007663500660877328 0 0 0 0 0 0 1:0.990632 2:-0.436673 3:-0.725128 4:-0.015 5:-0.268823 6:0.726842 7:0.077551 8:0.909643 9:-0.327173 10:0.153446 
-3.777591526610211 0 0 0 0 0 0 0 0 0 1:0.914754 2:-0.467864 3:-0.726667 4:0.0955556 5:-0.160182 6:0.782485 7:0.0639456 8:0.960216 9:-0.284736 10:0.0968791 
-3.799330612524574 0 0 0 0 0 0 0 0 0 1:0.785012 2:-0.499055 3:-0.695897 4:0.243889 5:-0.0474987 6:0.817262 7:0.047619 8:0.995954 9:-0.24846 10:0.0357607 
-0 5.299807438597369 0.9967326024948152 0.5891174747995086 0.9410596484073868 0.4959721332748183 0.3150345222818799 0.6966749815463029 0.5365822441982715 1.427270396517015 1:0.684778 2:-0.508192 3:-0.337436 4:-0.357222 5:-0.0550783 6:0.319633 7:0.236735 8:0.477411 9:0.232717 10:-0.182705 
-0 5.299807438597369 0.9967326024948152 0.5891174747995086 0.9410596484073868 0.4959721332748183 0.3150345222818799 0.6966749815463029 0 1.427270396517015 1:0.773302 2:-0.517958 3:-0.304103 4:-0.375 5:-0.124305 6:0.320898 7:0.253741 8:0.474039 9:0.290212 10:-0.153446 
-0 5.299807438597369 0.9967326024948152 0.5891174747995086 0.9410596484073868 0.4959721332748183 0.3150345222818799 0 0 1.427270396517015 1:0.790632 2:-0.530876 3:-0.291282 4:-0.381111 5:-0.122284 6:0.339235 7:0.287755 8:0.422117 9:0.303901 10:-0.152146 
-0 5.299807438597369 0.9967326024948152 0.5891174747995086 0.9410596484073868 0.4959721332748183 0.3150345222818799 0.3939659168044845 0 1.427270396517015 1:0.761593 2:-0.535917 3:-0.302564 4:-0.373333 5:-0.113188 6:0.342396 7:0.296599 8:0.448415 9:0.311431 10:-0.157997 
-0 4.54547431782485 0.9967326024948152 0.5891174747995086 0.9410596484073868 0.4959721332748183 0.3150345222818799 0 0 1.427270396517015 1:0.740515 2:-0.561752 3:-0.306154 4:-0.355556 5:-0.112178 6:0.341764 7:0.282313 8:0.447741 9:0.318275 10:-0.152146 
-0.5328857714360784 5.299807438597369 0.9967326024948152 0.5891174747995086 0.9410596484073868 0.4959721332748183 0.1386232122166039 0.6966749815463029 0 1.427270396517015 1:0.720843 2:-0.585066 3:-0.301538 4:-0.335556 5:-0.11622 6:0.328486 7:0.270068 8:0.45853 9:0.304586 10:-0.163199 
-0 4.459180407085786 0.3614104600472836 0 0 0 0 0 0 0 1:-0.0196721 2:-0.486452 3:0.468718 4:0.586667 5:0.513391 6:-0.214037 7:-0.576871 8:-0.496291 9:-0.331964 10:0.202211 
-2.408679344360881 0 0 0 0 0.4959721332748183 0.3150345222818799 0 0 0 1:-0.0693208 2:-0.44518 3:0.696923 4:0.518333 5:0.45528 6:-0.248814 7:-0.618367 8:-0.50708 9:-0.230664 10:0.204161 
-3.799330612524574 0 0 0 0 0 0 0 0 0 1:-0.024356 2:-0.510397 3:0.765128 4:0.485 5:0.45528 6:-0.195068 7:-0.526531 8:-0.476736 9:-0.219713 10:0.0923277 
-3.799330612524574 0 0 0 0.7605311074554686 0 0 0 0 1.078187495757864 1:0.0126464 2:-0.572149 3:0.778462 4:0.445556 5:0.459323 6:-0.158394 7:-0.440136 8:-0.442347 9:-0.284736 10:-0.00455137 
-3.799330612524574 0 0.9967326024948152 0.5891174747995086 0.9410596484073868 0.4959721332748183 0.3150345222818799 0 0.2871075081569175 1.427270396517015 1:-0.0946136 2:-0.496534 3:0.812308 4:0.422778 5:0.441132 6:-0.36516 7:-0.52517 8:-0.38503 9:-0.366188 10:0.10078 
-0 5.299807438597369 0.9967326024948152 0.5891174747995086 0.9410596484073868 0.4959721332748183 0.3150345222818799 0.6966749815463029 0.5365822441982715 1.427270396517015 1:-0.218735 2:-0.402016 3:0.621026 4:0.567778 5:0.40475 6:-0.752766 7:-0.50068 8:-0.300742 9:-0.340862 10:0.36736 
-0.8795045826419776 0 0 0 0 0 0.3094510291439037 0.6801054750302981 0.5365822441982715 0 1:-0.359719 2:-0.265911 3:0.177949 4:0.718889 5:0.386559 6:0.315839 7:-0.506122 8:-0.469319 9:-0.668036 10:0.141743 
-3.799330612524574 0 0 0 0 0 0 0 0.5365822441982715 0 1:-0.253864 2:-0.310019 3:0.0702564 4:0.766667 5:0.411319 6:0.49921 7:-0.219048 8:-0.358732 9:-0.771389 10:0.0214564 
-3.799330612524574 0 0 0 0 0 0 0 0 0 1:-0.207026 2:-0.373031 3:0.0882051 4:0.776111 5:0.369884 6:0.58963 7:-0.0285714 8:-0.138908 9:-0.92334 10:0.0936281 
-3.799330612524574 0 0 0 0 0 0 0 0 0 1:-0.163934 2:-0.414619 3:0.0348718 4:0.769444 5:0.360788 6:0.594689 7:0.0931973 8:-0.0734997 9:-0.91102 10:0.000650195 
-3.799330612524574 0 0 0 0 0 0 0.2058077104361509 0.3455664918247275 0 1:-0.148946 2:-0.423125 3:-0.0184615 4:0.729444 5:0.382011 6:0.568132 7:0.119728 8:0.00674309 9:-0.927447 10:-0.0539662 
-3.799330612524574 0.03920632176416797 0 0 0 0 0 0.6966749815463029 0.5365822441982715 0.8938212325026259 1:-0.15363 2:-0.439193 3:-0.0276923 4:0.686667 5:0.408287 6:0.449257 7:0.0918367 8:0.128793 9:-0.918549 10:-0.202211 
-0 5.299807438597369 0.9967326024948152 0 0 0 0 0 0 0 1:0.237471 2:-0.63327 3:-0.155897 4:0.189444 5:0.636685 6:0.136263 7:-0.00544218 8:-0.028321 9:-0.507187 10:0.296489 
-0 5.299807438597369 0 0 0 0 0 0 0 0 1:0.195316 2:-0.630435 3:-0.0769231 4:0.17 5:0.621021 6:0.189377 7:-0.0557823 8:-0.00404585 9:-0.530459 10:0.304941 
-0 2.171480241320138 0 0 0 0 0 0 0 0 1:0.0875878 2:-0.610901 3:0.0220513 4:0.182222 5:0.632643 6:0.16282 7:-0.236735 8:-0.0627107 9:-0.481177 10:0.323797 
-0 5.299807438597369 0 0 0 0 0 0 0 0 1:-0.0355972 2:-0.571519 3:0.108718 4:0.265 5:0.622537 6:0.00474233 7:-0.309524 8:-0.13149 9:-0.457906 10:0.406372 
-0 5.299807438597369 0.9967326024948152 0 0.6447145903886728 0 0 0 0 0 1:-0.0501171 2:-0.550095 3:0.0635897 4:0.295556 5:0.626074 6:-0.103383 7:-0.258503 8:-0.185435 9:-0.514716 10:0.542913 
-0 5.299807438597369 0.9967326024948152 0 0.9410596484073868 0 0 0 0 0.8077953252092113 1:-0.00936768 2:-0.566163 3:0.0435897 4:0.271111 5:0.613946 6:-0.157129 7:-0.155782 8:-0.173297 9:-0.561944 10:0.554616 
-0 0 0 0.4659451816404036 0 0.4959721332748183 0.3150345222818799 0.6966749815463029 0.5365822441982715 1.427270396517015 1:-0.517564 2:-0.0800252 3:0.652821 4:0.497222 5:0.440627 6:-0.794499 7:-0.720408 8:-0.431558 9:-0.339493 10:0.739272 
-0 5.299807438597369 0.9967326024948152 0.5891174747995086 0.9410596484073868 0.4959721332748183 0.3150345222818799 0.6966749815463029 0.5365822441982715 1.427270396517015 1:-0.616862 2:0.0746692 3:0.567692 4:0.558889 5:0.22284 6:-1 7:-0.611565 8:-0.438975 9:-0.0855578 10:0.862159 
-3.799330612524574 5.299807438597369 0.9967326024948152 0.5891174747995086 0.9410596484073868 0.4959721332748183 0.3150345222818799 0.6966749815463029 0.5365822441982715 1.427270396517015 1:-0.617799 2:-0.0113422 3:0.533333 4:0.737222 5:0.196564 6:-0.987986 7:-0.411565 8:-0.591369 9:-0.203285 10:1 
-3.799330612524574 5.299807438597369 0.5953941624576446 0.5891174747995086 0.9410596484073868 0.4959721332748183 0.3150345222818799 0.309264070181566 0.5365822441982715 0 1:-0.580796 2:-0.154694 3:0.501538 4:0.793333 5:0.327438 6:-0.861524 7:-0.385034 8:-0.546864 9:-0.355236 10:0.86801 
-0 2.790947401953162 0 0.5891174747995086 0.7962709591051582 0.4959721332748183 0.3150345222818799 0.6966749815463029 0.5365822441982715 0.07473673956432965 1:-0.621546 2:-0.154694 3:0.557949 4:0.613889 5:0.414856 6:-0.860892 7:-0.489796 8:-0.385705 9:-0.372348 10:0.8329 
-0 5.299807438597369 0.9967326024948152 0.5891174747995086 0.9410596484073868 0.4959721332748183 0.3150345222818799 0.6966749815463029 0.5365822441982715 1.427270396517015 1:-0.687588 2:-0.0718336 3:0.605128 4:0.494444 5:0.329459 6:-0.979134 7:-0.436735 8:-0.282535 9:-0.269678 10:0.780234 
-0 -1.226023714965908 3.19974756959567 0.7697477959912056 1.661876309168859 0.5712265219933641 0.3121846932587963 0.6007037808389079 0.4127584206246077 2.121113628115498 1:0.447775 2:-0.31695 3:-0.532821 4:-0.135556 5:-0.282466 6:0.514385 7:-0.348299 8:0.327714 9:-0.449692 10:0.0604681 
-0 -5.299807438597369 3.19974756959567 0.7697477959912056 1.661876309168859 0.5712265219933641 0.3121846932587963 0.6007037808389079 0 2.121113628115498 1:0.440749 2:-0.298047 3:-0.561538 4:-0.15 5:-0.28095 6:0.54031 7:-0.381633 8:0.352664 9:-0.514031 10:0.0747724 
-0 -0 0 0.1959229088951936 0 0 0.3121846932587963 0.6007037808389079 0.4127584206246077 2.121113628115498 1:0.454801 2:-0.272527 3:-0.598974 4:-0.0888889 5:-0.207175 6:0.511224 7:-0.395918 8:0.350641 9:-0.481177 10:-0.00585176 
-0 -0 3.19974756959567 0.6037210346129408 0 0 0.3121846932587963 0.6007037808389079 0 1.505125262771929 1:0.466042 2:-0.267801 3:-0.63641 4:0.0111111 5:-0.186963 6:0.451786 7:-0.346259 8:0.367498 9:-0.488706 10:-0.0195059 
-0 -0 0.04635059469075884 0 0 0.2736121248112405 0.3121846932587963 0.6007037808389079 0.4127584206246077 2.121113628115498 1:0.384543 2:-0.31443 3:-0.608205 4:0.035 5:-0.189995 6:0.44736 7:-0.372109 8:0.38503 9:-0.501711 10:0.0156047 
-0.4453472611625245 -0 0 0 0 0.5712265219933641 0.3121846932587963 0.6007037808389079 0.4127584206246077 2.121113628115498 1:0.362529 2:-0.330813 3:-0.568718 4:0.0355556 5:-0.171804 6:0.471388 7:-0.37415 8:0.42414 9:-0.50308 10:0.0403121 
-0 -5.299807438597369 3.19974756959567 0.6776026698173138 1.661876309168859 0.05531914236551078 0 0 0 2.121113628115498 1:0.590164 2:-0.454316 3:-0.210256 4:-0.406667 5:0.117736 6:0.0028454 7:0.143537 8:0.183412 9:-0.0602327 10:-0.0806242 
-0 -5.299807438597369 3.19974756959567 0.7697477959912056 1.661876309168859 0.5712265219933641 0 0 0 0.1787689318146053 1:0.640281 2:-0.445495 3:-0.213333 4:-0.409444 5:0.0848914 6:0.0256086 7:0.144218 8:0.252192 9:-0.0527036 10:-0.117035 
-1.050691912600713 -5.299807438597369 3.19974756959567 0.7697477959912056 1.661876309168859 0.5712265219933641 0.3121846932587963 0.6007037808389079 0.4127584206246077 2.121113628115498 1:0.515222 2:-0.476055 3:-0.210256 4:-0.356111 5:0.0419404 6:0.128675 7:0.131973 8:0.194201 9:-0.117043 10:-0.13199 
-1.050691912600713 -5.299807438597369 3.19974756959567 0.7697477959912056 1.661876309168859 0.5712265219933641 0.17648214095096 0.6007037808389079 0.4127584206246077 2.121113628115498 1:0.529742 2:-0.487713 3:-0.264615 4:-0.343889 5:0.0141486 6:0.114764 7:0.105442 8:0.215105 9:-0.0869268 10:-0.0676203 
-0 -5.299807438597369 3.19974756959567 0.7697477959912056 1.661876309168859 0.5712265219933641 0.3121846932587963 0.6007037808389079 0 2.121113628115498 1:0.595785 2:-0.462823 3:-0.237436 4:-0.454444 5:0.0272865 6:0.0648119 7:0.102721 8:0.300742 9:-0.0841889 10:-0.046814 
-0 -5.299807438597369 3.19974756959567 0.7697477959912056 1.661876309168859 0.5712265219933641 0.3121846932587963 0.6007037808389079 0.05808032980478749 2.121113628115498 1:0.657611 2:-0.495274 3:-0.151795 4:-0.537778 5:-0.108641 6:0.0597534 7:0.168027 8:0.33176 9:0.019165 10:0.0214564 
-1.050691912600713 -5.299807438597369 0 0 0.07617032498891724 0 0.02965112294539812 0.6007037808389079 0.4127584206246077 0 1:0.612646 2:-0.350977 3:-0.477436 4:0.381111 5:-0.100556 6:0.60607 7:-0.0707483 8:0.597438 9:-0.368925 10:0.053316 
-1.050691912600713 -5.299807438597369 0 0.7697477959912056 1.661876309168859 0.2017974254431245 0 0 0 0 1:0.737705 2:-0.331758 3:-0.554872 4:0.293889 5:-0.171804 6:0.550427 7:-0.0639456 8:0.631827 9:-0.315537 10:0.0591678 
-1.050691912600713 -5.299807438597369 0.2929824062307098 0 0 0 0 0 0 0 1:0.816862 2:-0.331443 3:-0.578462 4:0.321667 5:-0.159171 6:0.49099 7:-0.062585 8:0.614295 9:-0.266256 10:0.0598179 
-1.050691912600713 -5.299807438597369 3.19974756959567 0 0 0 0 0 0 0 1:0.869321 2:-0.336799 3:-0.583077 4:0.305 5:-0.13997 6:0.453683 7:0.00272109 8:0.637222 9:-0.184805 10:0.131339 
-1.050691912600713 -5.299807438597369 0 0.7697477959912056 0 0.5712265219933641 0.06012913435635692 0 0 0 1:0.841218 2:-0.347196 3:-0.569231 4:0.320556 5:-0.136433 6:0.546001 7:0.0244898 8:0.697235 9:-0.151951 10:0.120936 
-1.050691912600713 -5.299807438597369 0 0 0 0 0 0.6007037808389079 0.3915543351874643 0 1:0.740984 2:-0.389729 3:-0.534872 4:0.444444 5:-0.0525518 6:0.652229 7:-0.00340136 8:0.673635 9:-0.175907 10:0.150845 
-0 -0 3.19974756959567 0.7697477959912056 1.661876309168859 0.5712265219933641 0.3121846932587963 0 0.4127584206246077 2.121113628115498 1:0.555035 2:-0.287335 3:-0.268205 4:-0.151111 5:0.372916 6:-0.30509 7:0.298639 8:0.134862 9:-0.15332 10:-0.33355 
-1.050691912600713 -0 3.19974756959567 0.7697477959912056 1.661876309168859 0.5712265219933641 0.3121846932587963 0.6007037808389079 0.4127584206246077 2.121113628115498 1:0.591101 2:-0.307813 3:-0.202051 4:-0.150556 5:0.28954 6:-0.121088 7:0.206803 8:0.159137 9:-0.0219028 10:-0.380364 
-0.6420815317430246 -0 3.19974756959567 0.7697477959912056 1.661876309168859 0.5712265219933641 0 0.02169339925009196 0.4127584206246077 2.121113628115498 1:0.61452 2:-0.318841 3:-0.237949 4:-0.107778 5:0.226377 6:-0.0540626 7:0.153741 8:0.247471 9:-0.101985 10:-0.330299 
-0 -0 3.19974756959567 0 1.661876309168859 0 0 0 0 0 1:0.602342 2:-0.348771 3:-0.258462 4:-0.0983333 5:0.183426 6:-0.032564 7:0.127891 8:0.265003 9:-0.1718 10:-0.224317 
-1.050691912600713 -0 3.19974756959567 0.7697477959912056 1.661876309168859 0.219264360096889 0 0.6007037808389079 0.4127584206246077 2.121113628115498 1:0.540984 2:-0.372086 3:-0.211795 4:-0.0511111 5:0.186963 6:0.0256086 7:0.132653 8:0.268375 9:-0.212183 10:-0.226918 
-1.050691912600713 -3.75384283030095 3.19974756959567 0.7697477959912056 1.661876309168859 0.5712265219933641 0.3121846932587963 0.6007037808389079 0.4127584206246077 2.121113628115498 1:0.535363 2:-0.36925 3:-0.245128 4:-0.0672222 5:0.175341 6:0.0218147 7:0.17619 8:0.347943 9:-0.201232 10:-0.294538 
-0 -0 0 0 0 0.3924599912699634 0.3121846932587963 0 0 0 1:0.217799 2:-0.461878 3:0.393846 4:0.528889 5:0.237999 6:-0.710402 7:-0.37483 8:-0.275792 9:-0.0910335 10:0.317945 
-0 -1.926302305583944 0 0 0 0 0 0 0 0 1:0.185012 2:-0.431317 3:0.404615 4:0.471111 5:0.311774 6:-0.685741 7:-0.397959 8:-0.409305 9:-0.0643395 10:0.360208 
-0 -0 0 0 0 0 0.0459222950060813 0 0 0 1:0.181265 2:-0.432262 3:0.355897 4:0.616667 5:0.251137 6:-0.7319 7:-0.287755 8:-0.473365 9:-0.0855578 10:0.36671 
-0 -0 0 0 0 0.5712265219933641 0.3121846932587963 0 0.09429783462269288 0 1:0.111944 2:-0.432262 3:0.398974 4:0.687778 5:0.191006 6:-0.815997 7:-0.391837 8:-0.283884 9:-0.0232717 10:0.384915 
-1.050691912600713 -0 3.19974756959567 0.7697477959912056 1.661876309168859 0.5712265219933641 0.3121846932587963 0.6007037808389079 0.4127584206246077 2.121113628115498 1:-0.0810304 2:-0.270321 3:0.577436 4:0.565 5:0.0864073 6:-0.990515 7:-0.34966 8:-0.107215 9:0.150582 10:0.303641 
-1.050691912600713 -4.191348758351336 0.6401679224973071 0.7697477959912056 1.661876309168859 0.5712265219933641 0.3121846932587963 0.6007037808389079 0.4127584206246077 2.121113628115498 1:-0.101639 2:-0.305608 3:0.543077 4:0.605 5:0.200606 6:-0.889346 7:-0.391837 8:-0.191504 9:0.0136893 10:0.221066 
-1.050691912600713 -0 0 0 0 0 0 0 0 0 1:0.179391 2:-0.355703 3:-0.170769 4:0.527778 5:0.234967 6:0.1135 7:-0.177551 8:-0.242077 9:-0.536619 10:0.351756 
-1.050691912600713 -0 0 0 0 0 0 0 0.2815843416342707 0 1:0.0941452 2:-0.325142 3:-0.0979487 4:0.582222 5:0.254169 6:0.0635473 7:-0.211565 8:-0.285233 9:-0.629706 10:0.420676 
-1.050691912600713 -4.80190470658997 0 0 0.09349172486645509 0 0 0 0.4127584206246077 0 1:-0.00468384 2:-0.280403 3:-0.0461538 4:0.620556 5:0.245579 6:0.000948467 7:-0.280272 8:-0.34592 9:-0.639973 10:0.511704 
-1.050691912600713 -5.299807438597369 0 0 0 0 0 0.579010381588816 0.4127584206246077 2.121113628115498 1:-0.00702576 2:-0.304033 3:-0.0189744 4:0.538333 5:0.284992 6:0.0116978 7:-0.280952 8:-0.225219 9:-0.782341 10:0.544863 
-1.050691912600713 -5.299807438597369 0 0 0 0 0 0 0 0.4372194335289638 1:0.0580796 2:-0.353812 3:-0.104103 4:0.511111 5:0.289035 6:0.0679734 7:-0.171429 8:-0.183412 9:-0.892539 10:0.492848 
-0 -0 2.220246646176895 0 0 0 0 0 0 0 1:0.405621 2:-0.390359 3:-0.0225641 4:0.415556 5:0.195048 6:-0.424597 7:-0.379592 8:-0.374916 9:-0.119097 10:0.454486 
-0 -0 3.19974756959567 0 0 0 0 0 0 0 1:0.371897 2:-0.386578 3:-0.133846 4:0.497222 5:0.230419 6:-0.465065 7:-0.234014 8:-0.539447 9:-0.0780287 10:0.472042 
-0 -0 3.19974756959567 0.7697477959912056 1.661876309168859 0 0.3121846932587963 0 0 0 1:0.242623 2:-0.360744 3:-0.0630769 4:0.541667 5:0.0939869 6:-0.478343 7:-0.255782 8:-0.486177 9:0.0616016 10:0.364109 
-0 -0 3.19974756959567 0 1.492214259313486 0 0 0 0 0 1:0.263232 2:-0.42281 3:-0.123077 4:0.504444 5:0.0884285 6:-0.315207 7:-0.285714 8:-0.568442 9:0.0848734 10:0.405072 
-0 -5.299807438597369 0 0.062248978656963 0 0.5712265219933641 0.3121846932587963 0.6007037808389079 0.4127584206246077 0 1:-0.317096 2:-0.337744 3:0.253846 4:0.563889 5:0.180394 6:-0.806513 7:-0.308163 8:-0.397842 9:-0.160164 10:0.788036 
-1.050691912600713 -5.299807438597369 3.19974756959567 0.7697477959912056 1.661876309168859 0.5712265219933641 0.3121846932587963 0.6007037808389079 0.4127584206246077 2.121113628115498 1:-0.41452 2:-0.258979 3:0.331795 4:0.467222 5:0.180899 6:-0.895036 7:-0.319048 8:-0.350641 9:-0.0793977 10:0.806242 
-1.013955032295877 -5.299807438597369 0 0.7697477959912056 1.661876309168859 0.5712265219933641 0.3121846932587963 0.6007037808389079 0.4127584206246077 2.121113628115498 1:-0.459953 2:-0.26087 3:0.355897 4:0.413889 5:0.269328 6:-0.905786 7:-0.35102 8:-0.252866 9:-0.1013 10:0.857607 
-1.050691912600713 -5.299807438597369 0 0.7697477959912056 1.661876309168859 0.5712265219933641 0.3121846932587963 0.6007037808389079 0.4127584206246077 2.121113628115498 1:-0.502576 2:-0.242911 3:0.271282 4:0.457778 5:0.271854 6:-0.771103 7:-0.226531 8:-0.359407 9:-0.131417 10:0.668401 
-1.050691912600713 -5.299807438597369 3.19974756959567 0.7697477959912056 1.661876309168859 0.5712265219933641 0.3121846932587963 0.6007037808389079 0.4127584206246077 2.121113628115498 1:-0.580796 2:-0.197858 3:0.230769 4:0.496667 5:0.138454 6:-0.552324 7:-0.14898 8:-0.440324 9:-0.0971937 10:0.541612 
-1.050691912600713 -5.299807438597369 3.19974756959567 0.7697477959912056 1.661876309168859 0.5712265219933641 0.3121846932587963 0.6007037808389079 0.4127584206246077 2.121113628115498 1:-0.632319 2:-0.230939 3:0.279487 4:0.513333 5:0.170288 6:-0.659184 7:-0.0387755 8:-0.29265 9:-0.185489 10:0.537061 
-0.5095919143523823 -0.9967326024948152 -0 1.77205017915285 2.439018172394311 0.8573083827881851 0.3785810976807946 0.6576811264232693 0.4380806718484437 2.361445138166801 1:0.369555 2:-0.0286704 3:-0.492821 4:0.345 5:-0.457302 6:0.198862 7:-0.340136 8:0.0303439 9:0.0417522 10:-0.424577 
-0.5095919143523823 -0 -0 1.77205017915285 0 0.8573083827881851 0.3785810976807946 0.1699565165761868 0.4380806718484437 0 1:0.361593 2:-0.0365469 3:-0.496923 4:0.327778 5:-0.410814 6:0.0382548 7:-0.154422 8:-0.129467 9:0.185489 10:-0.401821 
-0.5095919143523823 -0 -0 1.77205017915285 0 0.8573083827881851 0.3785810976807946 0.6576811264232693 0.4380806718484437 2.361445138166801 1:0.357845 2:-0.0485192 3:-0.498974 4:0.348889 5:-0.425467 6:0.123617 7:-0.286395 8:0.0121376 9:0.126626 10:-0.458388 
-0.5095919143523823 -0.9967326024948152 -1.230850105558635 1.77205017915285 0 0 0.01836363909525284 0.6576811264232693 0.4380806718484437 2.361445138166801 1:0.368618 2:-0.0173283 3:-0.553333 4:0.331111 5:-0.367863 6:0.188745 7:-0.327891 8:0.00404585 9:0.0561259 10:-0.436931 
-0.5095919143523823 -0.9967326024948152 -3.19974756959567 0 0 0 0 0.6576811264232693 0.4380806718484437 2.361445138166801 1:0.363934 2:-0.0163831 3:-0.593846 4:0.374444 5:-0.360283 6:0.190642 7:-0.367347 8:0.08294 9:-0.0691307 10:-0.40117 
-0.5095919143523823 -0.9967326024948152 -3.19974756959567 0.9225746782959043 0 0 0.3785810976807946 0.6576811264232693 0.4380806718484437 2.361445138166801 1:0.331616 2:-0.0545054 3:-0.522564 4:0.428333 5:-0.33906 6:0.123617 7:-0.343537 8:0.104518 9:-0.0869268 10:-0.386216 
-0 -0 -2.813971215522129 0 0 0 0 0 0 0 1:0.526464 2:-0.135791 3:-0.429744 4:-0.158889 5:-0.00303183 6:-0.363895 7:0.0136054 8:0.0984491 9:0.036961 10:-0.174252 
-0 -0 -3.19974756959567 0 0 0 0 0 0 0 1:0.545199 2:-0.109011 3:-0.470769 4:-0.226667 5:0.0151592 6:-0.300664 7:0.0204082 8:-0.0182063 9:0.0855578 10:-0.215865 
-0 -0.6697844635537284 -3.19974756959567 0 0 0 0 0 0 0 1:0.514286 2:-0.112791 3:-0.487179 4:-0.270556 5:0.0621526 6:-0.269048 7:0.00272109 8:-0.0627107 9:0.0540726 10:-0.155397 
-0 -0 -3.19974756959567 0 0 0 0 0 0 0 1:0.480094 2:-0.123503 3:-0.566154 4:-0.249444 5:0.0232441 6:-0.252608 7:0.0312925 8:-0.054619 9:0.00342231 10:-0.10143 
-0.5095919143523823 -0.9967326024948152 -3.19974756959567 1.77205017915285 5.578004824554325 0.8573083827881851 0.3785810976807946 0.6576811264232693 0.4380806718484437 2.361445138166801 1:0.627166 2:-0.0349716 3:-0.261026 4:0.377778 5:-0.316827 6:0.186848 7:0.0285714 8:0.495617 9:-0.205339 10:0.0968791 
-0.5095919143523823 -0.9967326024948152 -3.19974756959567 1.77205017915285 5.578004824554325 0.8573083827881851 0.3785810976807946 0.6576811264232693 0.4380806718484437 2.361445138166801 1:0.656674 2:-0.0595463 3:-0.257949 4:0.413889 5:-0.364325 6:0.183686 7:-0.0612245 8:0.509777 9:-0.143053 10:0.105332 
-0.5095919143523823 -0.9967326024948152 -1.76804624989251 1.77205017915285 5.578004824554325 0.8573083827881851 0.3785810976807946 0.6576811264232693 0.182536366323655 2.361445138166801 1:0.705386 2:-0.0771897 3:-0.257949 4:0.427222 5:-0.391612 6:0.136263 7:-0.111565 8:0.515846 9:-0.08282 10:0.13459 
-0.5095919143523823 -0.9967326024948152 -0 1.77205017915285 5.578004824554325 0.8573083827881851 0.1603741636061786 0.6576811264232693 0 2.361445138166801 1:0.737705 2:-0.0910523 3:-0.238974 4:0.425 5:-0.3714 6:0.0983244 7:-0.0693878 8:0.453136 9:0.000684463 10:0.19896 
-0.5095919143523823 -0.9967326024948152 -3.19974756959567 1.77205017915285 5.578004824554325 0.8573083827881851 0 0.6576811264232693 0 0 1:0.749883 2:-0.108066 3:-0.242051 4:0.450556 5:-0.352703 6:0.0869428 7:-0.0482993 8:0.426163 9:-0.00889802 10:0.221066 
-0.5095919143523823 -0.9967326024948152 -3.19974756959567 0.6576289516681245 5.578004824554325 0 0 0.6576811264232693 0 1.464459915691981 1:0.732553 2:-0.128544 3:-0.264615 4:0.483889 5:-0.334007 6:0.123617 7:-0.037415 8:0.416049 9:-0.036961 10:0.186606 
-0 -0.9967326024948152 -3.0413242422188 1.77205017915285 5.578004824554325 0.8573083827881851 0.3785810976807946 0.6576811264232693 0.4380806718484437 2.361445138166801 1:0.48993 2:-0.0428481 3:0.0774359 4:-0.355556 5:0.16574 6:-0.397408 7:0.110884 8:-0.20971 9:0.149897 10:-0.26658 
-0 -0 -0 1.77205017915285 5.578004824554325 0.8573083827881851 0.3785810976807946 0 0.4380806718484437 2.361445138166801 1:0.500703 2:-0.0270951 3:-0.0225641 4:-0.232222 5:0.138959 6:-0.420171 7:0.106122 8:-0.138908 9:0.182752 10:-0.375163 
-0 -0 -0 1.77205017915285 5.578004824554325 0.8573083827881851 0.3785810976807946 0.4877246098470824 0.4380806718484437 2.361445138166801 1:0.491803 2:-0.047259 3:0.00564103 4:-0.29 5:0.209197 6:-0.506165 7:0.102721 8:-0.0856372 9:0.136208 10:-0.356957 
-0.5095919143523823 -0.9967326024948152 -3.19974756959567 0 3.852423684760566 0.8573083827881851 0.3785810976807946 0.6576811264232693 0.4380806718484437 2.361445138166801 1:0.462295 2:-0.0645873 3:0.00461538 4:-0.346111 5:0.269328 6:-0.558015 7:0.0680272 8:-0.0802428 9:0.126626 10:-0.391417 
-0.5095919143523823 -0.9967326024948152 -3.19974756959567 1.77205017915285 5.578004824554325 0.8573083827881851 0.3785810976807946 0.6576811264232693 0.4380806718484437 2.361445138166801 1:0.479625 2:-0.13138 3:0.0251282 4:-0.194444 5:0.0085902 6:-0.298767 7:-0.0306122 8:-0.171274 9:0.314168 10:-0.427828 
-0.5095919143523823 -0.9967326024948152 -3.19974756959567 1.77205017915285 5.578004824554325 0.8573083827881851 0.3785810976807946 0.6576811264232693 0.4380806718484437 2.361445138166801 1:0.468384 2:-0.153434 3:-0.0241026 4:-0.111667 5:-0.102072 6:-0.143851 7:-0.230612 8:0.08294 9:0.122519 10:-0.378414 
-0 -0.7358257456892182 -3.19974756959567 0 0 0 0 0 0 0 1:0.70726 2:-0.305608 3:0.182564 4:-0.303333 5:-0.00808489 6:-0.646538 7:0.143537 8:-0.159811 9:-0.370979 10:0.275683 
-0 -0.9967326024948152 -3.19974756959567 0 5.578004824554325 0 0 0 0 2.361445138166801 1:0.647775 2:-0.34436 3:0.255897 4:-0.245556 5:-0.0131379 6:-0.706608 7:0.12517 8:-0.0923803 9:-0.314168 10:0.287386 
-0 -0.9967326024948152 -3.19974756959567 0 0 0 0 0 0 0 1:0.686183 2:-0.336799 3:0.246667 4:-0.243889 5:0.0525518 6:-0.738856 7:0.242177 8:-0.190155 9:-0.329227 10:0.236021 
-0.03431978253281606 -0 -0 0 0 0 0 0 0 0 1:0.693208 2:-0.319786 3:0.173333 4:-0.106667 5:0.0166751 6:-0.771103 7:0.336735 8:-0.204316 9:-0.313484 10:0.177503 
-0 -0 -1.752841402727227 0 0 0 0 0 0 0.8969852224748197 1:0.640749 2:-0.301197 3:0.20359 4:-0.133333 5:0.0282971 6:-0.77553 7:0.195238 8:-0.105192 9:-0.36961 10:0.215865 
-0 -0 -0 0 3.131069734235882 0 0 0 0.2555443055247887 0 1:0.21733 2:-0.156585 3:-0.170769 4:0.0438889 5:-0.151592 6:-0.36263 7:0.0047619 8:-0.570465 9:-0.124572 10:0.148895 
-0.4752721318195662 -0 -0 0 5.578004824554325 0 0.3785810976807946 0 0.4380806718484437 0 1:0.152693 2:-0.1339 3:-0.159487 4:-0.015 5:-0.0641738 6:-0.458742 7:0.0435374 8:-0.655428 9:-0.0951403 10:0.20091 
-0.5095919143523823 -0 -0 1.753188889651448 5.578004824554325 0.4365127713466194 0.3785810976807946 0.6576811264232693 0.4380806718484437 0 1:0.105855 2:-0.143037 3:-0.130769 4:0.0505556 5:-0.109651 6:-0.442302 7:0.0258503 8:-0.641268 9:-0.0677618 10:0.1658 
-0.5095919143523823 -0.5878549957466835 -2.191957062463378 1.77205017915285 5.578004824554325 0.8573083827881851 0.3785810976807946 0.6576811264232693 0.4380806718484437 2.361445138166801 1:0.0332553 2:-0.134846 3:-0.0917949 4:0.08 5:-0.123295 6:-0.437243 7:0.00884354 8:-0.590695 9:-0.0944559 10:0.191808 
-0 -0 -0 0 1.733498057717892 0 0 0 0 0 1:0.557845 2:0.0989288 3:-0.0697436 4:-0.135556 5:-4.2067e-17 6:-0.724312 7:0.217007 8:-0.194201 9:-0.494182 10:0.251625 
-0 -0 -0 0.963940304505552 0 0.8573083827881851 0 0 0 0 1:0.538642 2:0.0856963 3:-0.0174359 4:-0.0744444 5:-0.00555836 6:-0.783117 7:0.229252 8:-0.231288 9:-0.356605 10:0.0890767 
-0 -0 -0 1.77205017915285 0 0.8573083827881851 0.199843294979363 0 0 0 1:0.511007 2:0.0822306 3:-0.0328205 4:0.0183333 5:-0.0742799 6:-0.780588 7:0.187075 8:-0.273769 9:-0.28063 10:0.143693 
-0 -0 -0 0 5.578004824554325 0.4207956114415656 0.3785810976807946 0 0 0 1:0.466042 2:0.0450536 3:0.00820513 4:0.103889 5:-0.159171 6:-0.626936 7:0.0176871 8:-0.237357 9:-0.453114 10:0.368661 
-0.5095919143523823 -0.9967326024948152 -0 1.77205017915285 5.578004824554325 0.8573083827881851 0.3785810976807946 0.6576811264232693 0.4380806718484437 2.361445138166801 1:-0.195785 2:-0.218336 3:-0.0358974 4:-0.0827778 5:-0.142496 6:-0.388555 7:0.206122 8:0.23938 9:-0.301848 10:0.53316 
-0.5095919143523823 -0.9967326024948152 -3.19974756959567 1.77205017915285 5.578004824554325 0.8573083827881851 0.3785810976807946 0.6576811264232693 0.4380806718484437 2.361445138166801 1:-0.270726 2:-0.213611 3:-0.0189744 4:-0.0794444 5:-0.0763012 6:-0.371483 7:0.15034 8:0.244774 9:-0.29295 10:0.493498 
-0.5095919143523823 -0.9967326024948152 -3.19974756959567 1.77205017915285 5.578004824554325 0.8573083827881851 0.3785810976807946 0.6576811264232693 0.4380806718484437 2.361445138166801 1:-0.259953 2:-0.222117 3:-0.0933333 4:-0.145 5:0.0419404 6:-0.251344 7:0.00408163 8:0.246123 9:-0.302533 10:0.616385 
-0.5095919143523823 -0.9967326024948152 -3.19974756959567 1.018817713337522 5.578004824554325 0.8573083827881851 0.3785810976807946 0.6576811264232693 0.4380806718484437 2.361445138166801 1:-0.236534 2:-0.224323 3:-0.215897 4:-0.112222 5:0.0358767 6:-0.186216 7:0.0789116 8:0.174646 9:-0.358658 10:0.689857 
-0.5095919143523823 -0.9967326024948152 -3.19974756959567 1.77205017915285 5.578004824554325 0.8573083827881851 0.3785810976807946 0.6576811264232693 0.4380806718484437 2.361445138166801 1:-0.255738 2:-0.248582 3:-0.223077 4:0.00444444 5:-0.128348 6:-0.13816 7:0.229932 8:0.123399 9:-0.386037 10:0.705462 
-0.5095919143523823 -0.9967326024948152 -3.19974756959567 1.77205017915285 5.578004824554325 0.8573083827881851 0.3785810976807946 0.6576811264232693 0.4380806718484437 2.361445138166801 1:-0.255738 2:-0.287335 3:-0.292821 4:0.163333 5:-0.275392 6:0.00537464 7:0.346259 8:-0.0161834 9:-0.209446 10:0.572172 
-0.3950444470863678 -0 -0 -1.77205017915285 15.14274973498538 0 0 0 0 0 1:0.223888 2:0.0119723 3:-0.158462 4:0.372778 5:-0.750379 6:0.0116978 7:0.313605 8:-0.229265 9:0.293634 10:-0.16515 
-0.3950444470863678 -0.5891174747995086 -0 -1.77205017915285 15.14274973498538 0 0 0 0 2.476554054525965 1:0.251054 2:0.0768746 3:-0.249744 4:0.301111 5:-0.717029 6:0.176099 7:0.173469 8:-0.159811 9:0.315537 10:-0.319246 
-0.3950444470863678 -0.5891174747995086 -0.7697477959912056 -1.77205017915285 8.67580030045818 0 0 0.8648975238438767 0.6164984566523375 2.476554054525965 1:0.206557 2:0.0778198 3:-0.30359 4:0.288889 5:-0.63618 6:0.220993 7:-0.00272109 8:-0.0485502 9:0.199179 10:-0.353056 
-0.3950444470863678 -0.5891174747995086 -0.7697477959912056 -1.77205017915285 15.14274973498538 0 0 1.340689184296265 0.6164984566523375 2.476554054525965 1:0.164871 2:0.052615 3:-0.310256 4:0.295556 5:-0.509853 6:0.268416 7:-0.142177 8:-0.0121376 9:0.0985626 10:-0.329649 
-0.3950444470863678 -0.5891174747995086 -0.7697477959912056 -1.77205017915285 15.14274973498538 0 0 1.340689184296265 0.6164984566523375 2.476554054525965 1:0.0772834 2:0.00882168 3:-0.304615 4:0.282222 5:-0.385548 6:0.23111 7:-0.0959184 8:-0.159811 9:0.0841889 10:-0.258127 
-0.3950444470863678 -0.5891174747995086 -0.7697477959912056 -1.77205017915285 15.14274973498538 0.1402617012940065 0 1.340689184296265 0.6164984566523375 2.476554054525965 1:-0.030445 2:-0.00850662 3:-0.304615 4:0.305556 5:-0.308742 6:0.302561 7:-0.195238 8:-0.11733 9:-0.0451745 10:-0.276983 
-0 -0 -0 -0 15.14274973498538 0 0.4311199389124454 1.340689184296265 0.6164984566523375 0 1:0.197658 2:0.154379 3:0.271282 4:-0.178333 5:-0.462355 6:-0.279165 7:-0.0258503 8:0.0613621 9:0.438056 10:-0.156047 
-0 -0 -0 -0 15.14274973498538 0.4416054657206432 0.892127206119037 1.340689184296265 0.6164984566523375 2.476554054525965 1:0.190164 2:0.250788 3:0.156923 4:-0.232778 5:-0.437595 6:-0.164085 7:-0.047619 8:0.173972 9:0.29911 10:-0.221066 
-0 -0 -0 -1.77205017915285 15.14274973498538 6.427072268060263 0.892127206119037 1.340689184296265 0.6164984566523375 0.8373746290280337 1:0.176112 2:0.293006 3:0.0758974 4:-0.199444 5:-0.409298 6:-0.193171 7:-0.0687075 8:0.221848 9:0.219713 10:-0.249025 
-0 -0 -0 -0.176758367325709 0 6.427072268060263 0.892127206119037 1.066779753537343 0.6164984566523375 0 1:0.164871 2:0.345936 3:-0.0117949 4:-0.26 5:-0.402223 6:-0.124881 7:-0.00884354 8:0.141605 9:0.202601 10:-0.317295 
-0 -0.5891174747995086 -0.7697477959912056 -1.77205017915285 0 6.427072268060263 0.3798247200937288 0 0.6164984566523375 2.476554054525965 1:0.15363 2:0.414934 3:-0.225128 4:-0.335556 5:-0.325417 6:0.0161239 7:0.0238095 8:0.0222522 9:0.13347 10:-0.444083 
-0 -0 -0.7697477959912056 -1.77205017915285 0 6.427072268060263 0.892127206119037 0 0.6164984566523375 0 1:0.134895 2:0.407687 3:-0.310256 4:-0.391111 5:-0.218292 6:-0.245653 7:0.236735 8:-0.0728254 9:0.178645 10:-0.46554 
-0.3950444470863678 -0.5891174747995086 -0.7697477959912056 -1.77205017915285 15.14274973498538 6.427072268060263 0.892127206119037 1.340689184296265 0.6164984566523375 2.476554054525965 1:0.301639 2:0.0712035 3:0.16359 4:0.572778 5:-0.515917 6:-0.21214 7:-0.221769 8:0.766015 9:0.0581793 10:0.238622 
-0.3950444470863678 -0.5891174747995086 -0.7697477959912056 -1.77205017915285 15.14274973498538 6.427072268060263 0.892127206119037 1.340689184296265 0.6164984566523375 2.476554054525965 1:0.359719 2:0.0387524 3:0.171282 4:0.612222 5:-0.543204 6:-0.231742 7:-0.281633 8:0.817937 9:0.0732375 10:0.353706 
-0.3950444470863678 -0.5891174747995086 -0.7697477959912056 -1.77205017915285 15.14274973498538 6.427072268060263 0.892127206119037 1.340689184296265 0.6164984566523375 2.476554054525965 1:0.397658 2:0.0293006 3:0.195385 4:0.646111 5:-0.526529 6:-0.261461 7:-0.327211 8:0.79029 9:0.0951403 10:0.33225 
-0.3950444470863678 -0.5891174747995086 -0.7697477959912056 -1.77205017915285 0 6.427072268060263 0.892127206119037 1.340689184296265 0.6164984566523375 2.298878386985185 1:0.421546 2:0.0163831 3:0.201538 4:0.704444 5:-0.4952 6:-0.294341 7:-0.402041 8:0.779501 9:0.109514 10:0.420676 
-0.3950444470863678 -0.5891174747995086 -0.7697477959912056 -1.77205017915285 7.140969560650787 6.427072268060263 0.892127206119037 1.340689184296265 0.6164984566523375 2.476554054525965 1:0.407963 2:-0.0302457 3:0.173333 4:0.767778 5:-0.475493 6:-0.274107 7:-0.376871 8:0.712744 9:0.19781 10:0.356307 
-0.3950444470863678 -0.5891174747995086 -0.7697477959912056 -1.77205017915285 15.14274973498538 6.427072268060263 0.892127206119037 1.340689184296265 0.6164984566523375 2.476554054525965 1:0.375644 2:-0.0778198 3:0.159487 4:0.814444 5:-0.415867 6:-0.264622 7:-0.365986 8:0.627782 9:0.186858 10:0.281534 
-0 -0 -0 -0 12.63830337725313 6.427072268060263 0 0 0 0.6546656056654506 1:0.24637 2:0.229679 3:0.318462 4:-0.305556 5:-0.370894 6:-0.412583 7:-0.0836735 8:0.519892 9:0.125941 10:-0.290637 
-0 -0 -0 -0 0 6.427072268060263 0.4458651318974269 1.340689184296265 0 2.476554054525965 1:0.242155 2:0.126024 3:0.484615 4:-0.217778 5:-0.469429 6:-0.392349 7:-0.127211 8:0.529332 9:0.151951 10:-0.213264 
-0 -0.5245992589291456 -0 -0 0 6.427072268060263 0.892127206119037 1.340689184296265 0 2.476554054525965 1:0.255269 2:-0.0308759 3:0.654359 4:-0.0861111 5:-0.515917 6:-0.515017 7:-0.191837 8:0.480782 9:0.188227 10:0.0149545 
-0.3950444470863678 -0.5891174747995086 -0.7697477959912056 -1.77205017915285 15.14274973498538 6.427072268060263 0.892127206119037 1.340689184296265 0 2.476554054525965 1:0.281499 2:-0.126654 3:0.718462 4:0.00333333 5:-0.516422 6:-0.619349 7:-0.218367 8:0.428186 9:0.213552 10:0.129389 
-0.1913017849981987 -0.5891174747995086 -0.7697477959912056 -0 15.14274973498538 1.142078932093431 0.892127206119037 0 0 0 1:0.266511 2:-0.117202 3:0.712308 4:-0.0333333 5:-0.547246 6:-0.635156 7:-0.134694 8:0.44909 9:0.151951 10:0.137191 
-0.3950444470863678 -0.4410262792758762 -0.7697477959912056 -0.2943063979849889 3.027430910974452 6.427072268060263 0.892127206119037 0.6738050468018575 0 0 1:0.244496 2:-0.115942 3:0.691795 4:-0.0133333 5:-0.535624 6:-0.693961 7:-0.12585 8:0.474713 9:0.138261 10:0.146944 
-0 -0 -0.7697477959912056 -1.77205017915285 15.14274973498538 0 0 0 0 1.162189487373262 1:0.148946 2:0.052615 3:0.11641 4:-0.518889 5:-0.27236 6:-0.413848 7:0.644898 8:-0.0121376 9:-0.206708 10:0.0318596 
-0 -0.5891174747995086 -0.7697477959912056 -1.77205017915285 15.14274973498538 0 0 0 0 2.476554054525965 1:0.100703 2:0.0601764 3:0.0646154 4:-0.460556 5:-0.250126 6:-0.270945 7:0.601361 8:-0.0579906 9:-0.225188 10:-0.0715215 
-0.3950444470863678 -0.5891174747995086 -0.7697477959912056 -1.77205017915285 4.979533395972076 0 0 0.5685238857331599 0.6164984566523375 2.476554054525965 1:0.0697892 2:0.0951481 3:0.0025641 4:-0.487222 5:-0.187468 6:-0.101486 7:0.598639 8:-0.217802 9:-0.221081 10:-0.13459 
-0.3950444470863678 -0.5891174747995086 -0.7697477959912056 -0 15.14274973498538 0 0 0.8480613429725578 0.5454443692929404 2.476554054525965 1:0.0641686 2:0.0809704 3:0.0441026 4:-0.333333 5:-0.369884 6:-0.0306671 7:0.605442 8:-0.151719 9:-0.405202 10:-0.0331599 
-0.3950444470863678 -0.5891174747995086 -0.7697477959912056 -1.300985413842152 15.14274973498538 0 0 1.340689184296265 0.6164984566523375 2.476554054525965 1:0.0421546 2:0.0541903 3:0.115897 4:-0.263333 5:-0.368873 6:-0.18748 7:0.668707 8:-0.0728254 9:-0.5154 10:0.0214564 
-0.3950444470863678 -0.5891174747995086 -0.7697477959912056 -1.77205017915285 15.14274973498538 0 0.6673738669726118 1.340689184296265 0.6164984566523375 2.476554054525965 1:0.0627635 2:0.0601764 3:0.094359 4:-0.419444 5:-0.233451 6:-0.217831 7:0.633333 8:0.000674309 9:-0.418891 10:-0.0604681 
-0 -0 -0 -0 0 6.427072268060263 0.8411395860106509 0 0 0 1:0.0800937 2:0.12949 3:-0.0620513 4:-0.205 5:-0.491662 6:-0.31331 7:0.363265 8:0.198247 9:-0.00342231 10:-0.347204 
-0 -0 -0 -0 8.197274038993985 6.427072268060263 0.816999974035681 0 0 0 1:0.0908665 2:0.0834909 3:-0.0266667 4:-0.121111 5:-0.513896 6:-0.462536 7:0.434014 8:0.210384 9:0.0403833 10:-0.308192 
-0 -0 -0 -0 0 6.427072268060263 0 0 0 0 1:0.101639 2:0.111846 3:-0.0712821 4:-0.162778 5:-0.473977 6:-0.445463 7:0.543537 8:0.0775455 9:0.00752909 10:-0.321196 
-0 -0 -0 -0 0 6.427072268060263 0 0 0 0 1:0.0899297 2:0.165091 3:-0.11641 4:-0.277222 5:-0.4381 6:-0.243124 7:0.529932 8:-0.0384356 9:0.0924025 10:-0.458388 
-0 -0 -0 -0 0 6.427072268060263 0 0 0 0 1:0.0833724 2:0.164146 3:-0.14 4:-0.241111 5:-0.513391 6:-0.188113 7:0.514966 8:0.0188806 9:0.0506502 10:-0.477243 
-0 -0 -0 -0 0.7689376206535362 0 0 0 0 0 1:0.27541 2:0.290485 3:0.152821 4:-0.400556 5:-0.609904 6:-0.291812 7:0.114286 8:0.501686 9:-0.557153 10:-0.109233 
-0 -0 -0 -0 0 6.427072268060263 0.8783128126726399 0 0 0 1:0.204215 2:0.253308 3:0.0984615 4:-0.345 5:-0.758464 6:-0.43092 7:0.232653 8:0.513823 9:-0.341547 10:-0.278934 
-0 -0 -0 -0 0 2.598002744238473 0.892127206119037 0 0 0 1:0.195785 2:0.264335 3:0.0794872 4:-0.389444 5:-0.753916 6:-0.420171 7:0.233333 8:0.46797 9:-0.262149 10:-0.263979 
-0.3847855467268835 -0.5891174747995086 -0.7697477959912056 -1.77205017915285 15.14274973498538 0 0 0 0 0 1:0.123185 2:0.134531 3:-0.36359 4:-0.319444 5:-0.306721 6:-0.160923 7:0.863265 8:-0.504383 9:-0.353867 10:0.127438 
-0.2140015624476533 -0 -0 -0 0 0 0 0 0.07105408735939711 0 1:0.0351288 2:0.114367 3:-0.328718 4:-0.281667 5:-0.391107 6:-0.132469 7:0.920408 8:-0.469319 9:-0.283368 10:0.0260078 
-0.3950444470863678 -0 -0 -0 0 2.105123424713712 0.892127206119037 1.340689184296265 0.6164984566523375 0 1:-0.167681 2:0.113422 3:-0.270769 4:-0.285 5:-0.326933 6:-0.241859 7:1 8:-0.469993 9:-0.152635 10:0.102081 
-0.3950444470863678 -0.2126094113939954 -0 -0 0 6.427072268060263 0.892127206119037 1.340689184296265 0.6164984566523375 0 1:-0.352225 2:0.147133 3:-0.153333 4:-0.407778 5:-0.160687 6:-0.39804 7:0.842857 8:-0.246123 9:-0.0841889 10:0.168401 
-0.3950444470863678 -0.5891174747995086 -0.7697477959912056 -1.77205017915285 0 6.427072268060263 0.892127206119037 1.340689184296265 0.6164984566523375 2.476554054525965 1:-0.362529 2:0.119723 3:-0.265641 4:-0.403333 5:-0.00808489 6:-0.21214 7:0.666667 8:-0.391773 9:-0.12731 10:0.261378 
-0.3950444470863678 -0.5891174747995086 -0.7697477959912056 -1.77205017915285 15.14274973498538 0 0.892127206119037 1.340689184296265 0.6164984566523375 2.476554054525965 1:-0.244028 2:0.0775047 3:-0.489744 4:-0.296111 5:-0.0752906 6:0.0439456 7:0.637415 8:-0.45853 9:-0.218344 10:0.358908 
-0.4911549625899568 -0 -0 -0 -15.14274973498538 2.434046550164456 0.3730523587324959 1.23874364401427 0.6643976808112046 0 1:0.104918 2:0.00441084 3:-0.111795 4:0.241111 5:-0.72764 6:0.0692381 7:0.193197 8:-0.293999 9:0.26694 10:-0.144993 
-0.4911549625899568 -0 -0 -0 -15.14274973498538 2.434046550164456 0.6499653552015521 1.23874364401427 0.6643976808112046 0 1:0.117096 2:0.0324512 3:-0.103077 4:0.227778 5:-0.76857 6:0.122352 7:0.212245 8:-0.301416 9:0.279261 10:-0.205462 
-0.4911549625899568 -0 -0 -0 -15.14274973498538 2.434046550164456 0.6499653552015521 0.1365926746096424 0.6643976808112046 0 1:0.0885246 2:0.0727788 3:-0.150256 4:0.161667 5:-0.711976 6:0.0458426 7:0.35034 8:-0.385705 9:0.245722 10:-0.169051 
-0 -0 -0 -0 -15.14274973498538 2.434046550164456 0.6499653552015521 0 0.3796328474996837 0 1:0.0285714 2:0.1046 3:-0.185641 4:0.101667 5:-0.597777 6:-0.126146 7:0.460544 8:-0.432906 9:0.127995 10:-0.00910273 
-0 -0 -0 -0 -15.14274973498538 2.434046550164456 0.6499653552015521 0 0.6643976808112046 0 1:-0.00608899 2:0.138311 3:-0.22359 4:0.04 5:-0.515917 6:-0.128043 7:0.452381 8:-0.431558 9:0.0492813 10:0.0669701 
-0 -0 -0 -0 -15.14274973498538 2.434046550164456 0.6499653552015521 1.23874364401427 0.6643976808112046 0 1:0.00515222 2:0.148708 3:-0.238462 4:0.0583333 5:-0.579586 6:0.0723996 7:0.268027 8:-0.400539 9:0.149897 10:-0.00845254 
-0.4911549625899568 -0.9410596484073868 -1.661876309168859 -5.578004824554325 -0 0 0 0 0 0 1:0.35363 2:-0.188091 3:0.439487 4:-0.264444 5:-0.0656897 6:-0.470756 7:-0.0183673 8:-0.318948 9:0.687201 10:0.106632 
-0 -0.9410596484073868 -1.661876309168859 -3.961935249621759 -0 0.3308253209075147 0.5164380473687169 0 0.284764833311521 2.516044868761003 1:0.297424 2:-0.152804 3:0.473333 4:-0.403333 5:-0.0197069 6:-0.52134 7:0.0455782 8:-0.246123 9:0.646133 10:0.0754226 
-0.01255266559235014 -0 -0 -0 -0 0 0 0 0 0 1:0.244496 2:-0.246692 3:0.490769 4:-0.229444 5:-0.251137 6:-0.458742 7:0.144218 8:-0.348618 9:0.555784 10:0.139792 
-0 -0.4821457379597299 -0 -0 -0 0 0 0 0 0 1:0.323653 2:-0.207624 3:0.414872 4:-0.239444 5:-0.274886 6:-0.370218 7:0.00408163 8:-0.255563 9:0.613279 10:0.149545 
-0 -0.9410596484073868 -1.661876309168859 -5.578004824554325 -0 2.434046550164456 0 0 0 0 1:0.339578 2:-0.116572 3:0.319487 4:-0.258889 5:-0.140475 6:-0.392349 7:-0.0884354 8:-0.105866 9:0.684463 10:0.0676203 
-0 -0 -1.661876309168859 -5.578004824554325 -0 2.434046550164456 0.6499653552015521 1.23874364401427 0.6643976808112046 0 1:0.274941 2:-0.0400126 3:0.183077 4:-0.301667 5:-0.103588 6:-0.387291 7:-0.0809524 8:0.0114633 9:0.643395 10:-0.0929779 
-0.4911549625899568 -0.9410596484073868 -1.661876309168859 -5.578004824554325 -15.14274973498538 2.434046550164456 0.6499653552015521 1.23874364401427 0.6643976808112046 6.101858432225125 1:0.445433 2:0.0163831 3:0.0625641 4:0.592778 5:-0.422941 6:-0.142586 7:-0.188435 8:0.714093 9:-0.149213 10:0.186606 
-0.4911549625899568 -0.9410596484073868 -0 -2.14353793061782 -15.14274973498538 2.434046550164456 0.6499653552015521 1.23874364401427 0.6643976808112046 6.101858432225125 1:0.431382 2:0.0400126 3:0.0738462 4:0.535 5:-0.453259 6:-0.062915 7:-0.121769 8:0.734322 9:-0.167009 10:0.207412 
-0.3503346068807002 -0.2922235868421602 -0.7527179966772022 -5.578004824554325 -15.14274973498538 2.434046550164456 0.6499653552015521 1.23874364401427 0 0 1:0.483841 2:0.015753 3:0.0523077 4:0.527778 5:-0.45528 6:-0.118558 7:-0.115646 8:0.706001 9:-0.0896646 10:0.291287 
-0.4911549625899568 -0.9410596484073868 -1.661876309168859 -5.578004824554325 -15.14274973498538 2.434046550164456 0 1.160070552174506 0 0 1:0.555035 2:-0.0390674 3:0.00974359 4:0.594444 5:-0.455786 6:-0.112868 7:-0.163265 8:0.648685 9:-0.0595483 10:0.303641 
-0.4911549625899568 -0.9410596484073868 -1.661876309168859 -5.578004824554325 -0 0 0 0 0 2.031346413155076 1:0.586417 2:-0.068683 3:-0.0676923 4:0.606667 5:-0.448711 6:-0.0218147 7:-0.12381 8:0.676332 9:-0.0835044 10:0.237971 
-0.4911549625899568 -0.9410596484073868 -1.661876309168859 -5.578004824554325 -0 0 0 0 0 0 1:0.595785 2:-0.108381 3:-0.13641 4:0.553889 5:-0.424962 6:0.00347771 7:0.0258503 8:0.521241 9:-0.0520192 10:0.285436 
-0 -0 -0 -0 -15.14274973498538 2.434046550164456 0.6499653552015521 1.23874364401427 0 0 1:0.286651 2:0.0214241 3:0.288718 4:-0.173889 5:-0.19909 6:-0.424597 7:0.0802721 8:0.273769 9:0.281999 10:-0.191808 
-0 -0 -0 -0 -15.14274973498538 2.434046550164456 0.6499653552015521 1.23874364401427 0.6643976808112046 6.101858432225125 1:0.302108 2:-0.00850662 3:0.382051 4:-0.148889 5:-0.245579 6:-0.358837 7:0.0727891 8:0.284558 9:0.409309 10:-0.273082 
-0 -0 -0 -0 -15.14274973498538 2.434046550164456 0.6499653552015521 1.23874364401427 0.6643976808112046 6.101858432225125 1:0.328337 2:-0.0812854 3:0.433333 4:-0.0755556 5:-0.339565 6:-0.329118 7:-0.0170068 8:0.461227 9:0.355236 10:-0.249025 
-0 -0 -0 -0 -15.14274973498538 2.434046550164456 0.6499653552015521 1.23874364401427 0.6643976808112046 6.101858432225125 1:0.356909 2:-0.127914 3:0.426154 4:-0.0811111 5:-0.313795 6:-0.439772 7:-0.000680272 8:0.42414 9:0.527036 10:-0.279584 
-0.4911549625899568 -0.9410596484073868 -0 -0 -15.14274973498538 2.434046550164456 0.6499653552015521 1.23874364401427 0.6643976808112046 6.101858432225125 1:0.367681 2:-0.237555 3:0.455897 4:-0.0205556 5:-0.286003 6:-0.420803 7:-0.077551 8:0.402562 9:0.589322 10:-0.173602 
-0.4911549625899568 -0.9410596484073868 -1.661876309168859 -0 -0 2.434046550164456 0.6499653552015521 1.23874364401427 0.6643976808112046 6.101858432225125 1:0.343326 2:-0.350347 3:0.466667 4:0.0561111 5:-0.262254 6:-0.294973 7:-0.117687 8:0.429535 9:0.507187 10:-0.0812744 
-0 -0 -0 -0 -6.895551098692924 0 0 0 0 0 1:0.271194 2:-0.0923125 3:-0.0430769 4:-0.465 5:-0.0394138 6:-0.567499 7:0.834694 8:-0.045853 9:-0.449692 10:0.414174 
-0 -0 -1.661876309168859 -5.360389384789068 -0 0 0 0 0 0 1:0.29555 2:-0.125079 3:-0.0717949 4:-0.472778 5:0.00404245 6:-0.472653 7:0.735374 8:-0.0869858 9:-0.305955 10:0.206112 
-0.4911549625899568 -0.9410596484073868 -1.661876309168859 -5.578004824554325 -0 0 0 0 0 6.101858432225125 1:0.244028 2:-0.150914 3:-0.134872 4:-0.346667 5:0.0353714 6:-0.317104 7:0.570068 8:-0.203641 9:-0.379877 10:0.19961 
-0.4911549625899568 -0.9410596484073868 -1.661876309168859 -5.578004824554325 -0 0 0 0 0 6.101858432225125 1:0.109602 2:-0.175488 3:-0.0902564 4:-0.215556 5:0.138454 6:-0.211508 7:0.411565 8:-0.18004 9:-0.577002 10:0.152146 
-0.4911549625899568 -0.9410596484073868 -1.661876309168859 -5.578004824554325 -0 0 0 1.23874364401427 0.6643976808112046 6.101858432225125 1:0.034192 2:-0.232199 3:0.0446154 4:-0.035 5:0.1238 6:-0.108441 7:0.336054 8:-0.139582 9:-0.680356 10:0.053316 
-0.4911549625899568 -0.9410596484073868 -1.661876309168859 -1.71884754962427 -0.541204815913862 0 0 1.23874364401427 0.6643976808112046 6.101858432225125 1:-0.082904 2:-0.275677 3:0.128718 4:0.178889 5:0.0565942 6:-0.130572 7:0.369388 8:-0.206339 9:-0.542779 10:0.0221066 
-0 -0 -0.6357755182440383 -5.578004824554325 -15.14274973498538 0 0 0 0 6.101858432225125 1:0.183138 2:0.0223693 3:-0.164103 4:-0.198889 5:-0.2476 6:-0.165349 7:0.142857 8:-0.0209036 9:-0.0451745 10:-0.130689 
-0 -0.9290267224087645 -1.661876309168859 -5.578004824554325 -14.15731656738911 0 0 0 0 6.101858432225125 1:0.227166 2:-0.0286704 3:-0.0625641 4:-0.226111 5:-0.265285 6:-0.099589 7:0.102721 8:-0.00539447 9:0.0396988 10:-0.149545 
-0 -0.9410596484073868 -1.661876309168859 -5.578004824554325 -12.33277722212589 0 0 0 0 6.101858432225125 1:0.271194 2:-0.0655325 3:-0.0358974 4:-0.206111 5:-0.283982 6:-0.0844135 7:0.108844 8:0.0552933 9:0.0629706 10:-0.237321 
-0.4911549625899568 -0.9410596484073868 -1.661876309168859 -5.578004824554325 -15.14274973498538 0 0 1.180824061244391 0 6.101858432225125 1:0.264637 2:-0.122558 3:-0.00923077 4:-0.0916667 5:-0.296614 6:-0.0723996 7:0.0414966 8:0.222522 9:0.00958248 10:-0.330949 
-0.4911549625899568 -0.9410596484073868 -1.661876309168859 -5.578004824554325 -0 0.17958026592545 0 1.23874364401427 0.6643976808112046 6.101858432225125 1:0.196721 2:-0.200693 3:0.00512821 4:0.0405556 5:-0.234462 6:-0.0490041 7:-0.0632653 8:0.449764 9:-0.180698 10:-0.295189 
-0.4911549625899568 -0.9410596484073868 -1.661876309168859 -3.54930435901006 -11.31286496034503 2.434046550164456 0.6499653552015521 1.23874364401427 0.6643976808112046 6.101858432225125 1:0.0796253 2:-0.251418 3:0.0235897 4:0.102222 5:-0.120263 6:0.0161239 7:-0.0455782 8:0.530681 9:-0.265572 10:-0.30039 
-0 -0 -0 -0 -15.14274973498538 2.434046550164456 0.6499653552015521 0 0 6.101858432225125 1:0.347073 2:0.3138 3:0.124103 4:-0.450556 5:-0.251137 6:-0.249447 7:0.127211 8:0.173297 9:-0.666667 10:0.163849 
-0 -0 -0 -0 -15.14274973498538 0 0.4104403043018914 0 0 0 1:0.338642 2:0.314115 3:0.0533333 4:-0.324444 5:-0.286508 6:-0.244388 7:0.222449 8:0.0559676 9:-0.721424 10:0.326398 
-0 -0 -0 -0 -6.201335162397394 0 0 0 0 0 1:0.309602 2:0.194392 3:0.129231 4:-0.17 5:-0.381001 6:-0.292444 7:0.25102 8:0.0384356 9:-0.722108 10:0.33355 
-0.1282676901169064 -0.1787232496041188 -0.9662061236353563 -5.578004824554325 -0 0 0 0 0 6.101858432225125 1:0.162529 2:0.0642722 3:0.0164103 4:-0.140556 5:-0.194543 6:-0.183686 7:0.146259 8:-0.402562 9:-0.620808 10:0.4987 
-0.4911549625899568 -0.9410596484073868 -1.661876309168859 -5.578004824554325 -0 0 0 0 0.6643976808112046 6.101858432225125 1:0.0440281 2:0.031821 3:-0.193846 4:-0.112778 5:0.0924709 6:-0.176099 7:-0.0428571 8:-0.592717 9:-0.364134 10:0.524057 
-0 -0 -0 -5.578004824554325 -0 0 0 0 0 0 1:-0.0266979 2:0.02615 3:-0.441538 4:-0.0761111 5:-0.262254 6:-0.134998 7:0.310204 8:-0.248146 9:-0.295688 10:0.641092 
-0 -0 -0 -0 -9.129949113077307 2.434046550164456 0.6499653552015521 1.23874364401427 0.6643976808112046 0 1:-0.159719 2:0.026465 3:-0.313333 4:-0.0872222 5:-0.318343 6:-0.211508 7:0.381633 8:-0.0404585 9:-0.377823 10:0.589077 
-0.4911549625899568 -0 -0 -0 -15.14274973498538 2.434046550164456 0.6499653552015521 1.23874364401427 0.6643976808112046 1.554467150309046 1:-0.322717 2:0.0220542 3:-0.214359 4:-0.0483333 5:-0.296614 6:-0.21214 7:0.304082 8:-0.0296696 9:-0.262834 10:0.572172 
-0.4911549625899568 -0.9410596484073868 -0.9690529797811207 -0 -0 0 0.6499653552015521 1.23874364401427 0.6643976808112046 6.101858432225125 1:-0.348478 2:-0.0614367 3:-0.304103 4:0.0327778 5:-0.163214 6:-0.050901 7:0.248299 8:-0.246123 9:-0.219713 10:0.643693 
-0.4911549625899568 -0.9410596484073868 -1.661876309168859 -5.578004824554325 -0 1.923640963331491 0.6499653552015521 1.23874364401427 0.6643976808112046 6.101858432225125 1:-0.414988 2:-0.0554505 3:-0.386154 4:0.0777778 5:-0.0111167 6:-0.137528 7:0.237415 8:-0.228591 9:-0.308693 10:0.8329 
-0.4911549625899568 -0.9410596484073868 -1.661876309168859 -5.578004824554325 -0 2.434046550164456 0.6499653552015521 1.23874364401427 0.6643976808112046 6.101858432225125 1:-0.48993 2:-0.0519849 3:-0.411795 4:0.124444 5:0.0899444 6:-0.248182 7:0.280272 8:-0.198247 9:-0.265572 10:0.73472 
-0.3689986525130273 -0.2323066371521665 -0 -0 -0 -2.434046550164456 3.237289748111752 3.016812172652148 1.071770391024808 1.450969347163766 1:-0.190164 2:0.196597 3:0.0533333 4:0.365 5:-0.9333 6:0.0989567 7:0.264626 8:0.17532 9:0.362081 10:-0.145644 
-0.3689986525130273 -0 -0 -0 -0 -0 3.237289748111752 3.016812172652148 1.071770391024808 0 1:-0.237002 2:0.149338 3:0.0917949 4:0.428333 5:-0.912077 6:-0.0787227 7:0.27619 8:0.111261 9:0.38809 10:-0.0760728 
-0 -0 -0 -0 -0 -2.058100108794628 3.237289748111752 1.200920767323605 1.071770391024808 0 1:-0.261827 2:0.110271 3:0.0733333 4:0.345 5:-0.780697 6:-0.397408 7:0.497959 8:0.0613621 9:0.338809 10:0.0903771 
-0.07796432244101184 -0 -0 -0 -0 -2.434046550164456 3.237289748111752 3.016812172652148 1.071770391024808 0 1:-0.22623 2:0.0712035 3:0.0471795 4:0.367778 5:-0.817079 6:-0.250711 7:0.417007 8:0.0883345 9:0.407255 10:0.0156047 
-0.3689986525130273 -0.4959721332748183 -0 -0.8573083827881851 -6.427072268060263 -2.434046550164456 3.237289748111752 3.016812172652148 0.9230598891320057 1.450969347163766 1:-0.179391 2:0.0586011 3:-0.0297436 4:0.303333 5:-0.855483 6:-0.0920013 7:0.356463 8:0.141605 9:0.427789 10:-0.0448635 
-0.3689986525130273 -0.4959721332748183 -0.5712265219933641 -0.8573083827881851 -6.427072268060263 -2.434046550164456 1.170986548435967 3.016812172652148 1.071770391024808 1.450969347163766 1:-0.185948 2:0.0875866 3:-0.145128 4:0.175 5:-0.789288 6:0.0211824 7:0.332653 8:0.108564 9:0.395619 10:-0.0812744 
-0 -0 -0.5712265219933641 -0.8573083827881851 -0 -0 3.237289748111752 0 1.071770391024808 0 1:-0.030445 2:0.445495 3:-0.235385 4:-0.436111 5:-0.0212228 6:-0.668669 7:0.138776 8:0.29737 9:0.478439 10:-0.0682705 
-0 -0 -0.4193116408645884 -0.8573083827881851 -0 -0 2.248379086627766 0 1.071770391024808 0 1:-0.0327869 2:0.37051 3:-0.0748718 4:-0.235 5:-0.275392 6:-0.509327 7:-0.136054 8:0.192852 9:0.776181 10:-0.136541 
-0 -0.2716691032527564 -0 -0.8573083827881851 -6.427072268060263 -2.434046550164456 0 0 0 1.450969347163766 1:0.0103044 2:0.379332 3:0.0123077 4:-0.264444 5:-0.406266 6:-0.282327 7:-0.137415 8:0.181389 9:0.714579 10:-0.107932 
-0 -0 -0 -0 -6.427072268060263 -2.434046550164456 3.237289748111752 0.9230033734108138 0 0.780358614606445 1:-0.00749415 2:0.350977 3:0.117949 4:-0.226111 5:-0.408287 6:-0.348087 7:-0.108844 8:0.119353 9:0.759754 10:0.0325098 
-0 -0 -0 -0 -4.618537859465843 -2.434046550164456 0 0 0.100487408253138 0 1:-0.0135831 2:0.320101 3:0.169231 4:-0.2 5:-0.378474 6:-0.458109 7:-0.110204 8:0.0445044 9:0.838467 10:0.050065 
-0 -0 -0 -0.2639103318319773 -6.427072268060263 -2.063435967071443 0 0 0 0 1:0.00515222 2:0.390359 3:0.0389744 4:-0.34 5:-0.308742 6:-0.499842 7:0.0918367 8:0.0566419 9:0.787817 10:-0.122887 
-0 -0 -0 -0 -6.427072268060263 -0 3.237289748111752 0 0 0 1:0.219672 2:0.15942 3:0.230256 4:0.663889 5:-0.671551 6:-0.367689 7:-0.312925 8:0.917734 9:0.126626 10:0.43173 
-0 -0.4959721332748183 -0.5712265219933641 -0.6035010894672023 -6.427072268060263 -0.2457849327984094 3.237289748111752 0 0 0 1:0.198595 2:0.0806553 3:0.248205 4:0.723889 5:-0.560889 6:-0.432185 7:-0.369388 8:0.813891 9:0.195072 10:0.483745 
-0.3689986525130273 -0.4959721332748183 -0.5712265219933641 -0.8573083827881851 -6.427072268060263 -2.434046550164456 0 0.2880533237852018 0 1.450969347163766 1:0.185948 2:-0.0532451 3:0.229231 4:0.895556 5:-0.435068 6:-0.44736 7:-0.513605 8:0.70263 9:0.19165 10:0.560468 
-0.3689986525130273 -0.4959721332748183 -0.5712265219933641 -0.8573083827881851 -0 -2.434046550164456 0.03666157311136676 3.016812172652148 0 1.450969347163766 1:0.21171 2:-0.0778198 3:0.195385 4:0.906667 5:-0.456796 6:-0.417009 7:-0.465986 8:0.776129 9:0.238193 10:0.553966 
-0.3689986525130273 -0.4959721332748183 -0.5712265219933641 -0.8573083827881851 -6.427072268060263 -2.434046550164456 0 3.016812172652148 0 1.450969347163766 1:0.235129 2:-0.0270951 3:0.189744 4:0.797222 5:-0.509348 6:-0.395511 7:-0.368707 8:0.91234 9:0.179329 10:0.579974 
-0.3689986525130273 -0.4959721332748183 -0.5712265219933641 -0.8573083827881851 -6.427072268060263 -2.434046550164456 0 0 0 1.450969347163766 1:0.294614 2:0.00441084 3:0.168718 4:0.694444 5:-0.510864 6:-0.405628 7:-0.321088 8:0.937289 9:0.143737 10:0.603381 
-0 -0 -0 -0 -0 -0 3.237289748111752 2.02253693736182 0 0 1:-0.0548009 2:0.0396975 3:0.701026 4:0.234444 5:-0.534108 6:-0.448625 7:-0.60068 8:0.401888 9:0.819302 10:0.228869 
-0.3689986525130273 -0.4959721332748183 -0.3086567529035573 -0 -0 -0 3.237289748111752 3.016812172652148 1.055095857068246 0 1:-0.076815 2:-0.047574 3:0.767179 4:0.377778 5:-0.525518 6:-0.460006 7:-0.65102 8:0.319622 9:0.793292 10:0.380364 
-0.3689986525130273 -0.4959721332748183 -0.5712265219933641 -0 -0 -0 3.237289748111752 0 1.071770391024808 0.7312895484092635 1:-0.0482436 2:-0.174543 3:0.782051 4:0.516111 5:-0.355735 6:-0.476446 7:-0.793878 8:0.105866 9:0.80219 10:0.593628 
-0.3689986525130273 -0.4959721332748183 -0.5712265219933641 -0.8573083827881851 -0 -1.036504078284241 3.237289748111752 2.226156384114589 1.071770391024808 1.450969347163766 1:0.00655738 2:-0.281033 3:0.754872 4:0.584444 5:-0.217787 6:-0.428391 7:-0.861224 8:-0.0566419 9:0.759754 10:0.728869 
-0.3689986525130273 -0.4959721332748183 -0.5712265219933641 -0.8573083827881851 -0 -2.434046550164456 1.226388768881728 3.016812172652148 1.071770391024808 1.450969347163766 1:0.0669789 2:-0.372716 3:0.700513 4:0.620556 5:-0.186458 6:-0.427758 7:-0.745578 8:-0.113958 9:0.696783 10:0.785436 
-0.3689986525130273 -0.4959721332748183 -0.5712265219933641 -0.8573083827881851 -6.427072268060263 -2.434046550164456 0 3.016812172652148 1.071770391024808 1.450969347163766 1:0.113349 2:-0.392565 3:0.651282 4:0.579444 5:-0.287014 6:-0.489093 7:-0.526531 8:0.0330411 9:0.733744 10:0.66775 
-0 -0 -0 -0 -0 -0 3.237289748111752 0 0 0 1:-0.214052 2:0.13201 3:0.831795 4:-0.08 5:-0.457302 6:-0.742649 7:0.0278912 8:0.751854 9:-0.0622861 10:-0.343953 
-0 -0 -0 -0 -0 -0 0.2109338030630863 0 0 0 1:-0.154567 2:0.158475 3:0.801026 4:-0.157222 5:-0.481051 6:-0.671198 7:0.112925 8:0.910991 9:-0.104038 10:-0.343953 
-0 -0 -0 -0 -0 -0 3.237289748111752 3.016812172652148 0 0 1:-0.170023 2:0.255514 3:0.822564 4:-0.201111 5:-0.491157 6:-0.605438 7:0.0877551 8:0.842886 9:-0.137577 10:-0.180754 
-0 -0 -0 -0 -0 -0 3.237289748111752 2.98253293290027 0 0 1:-0.239344 2:0.386894 3:0.729231 4:-0.321667 5:-0.513391 6:-0.607335 7:0.0802721 8:0.778152 9:-0.334702 10:-0.0721717 
-0 -0 -0 -0 -0 -0 3.237289748111752 0 0.001611248874985657 0 1:-0.283841 2:0.558286 3:0.29641 4:-0.499444 5:-0.382516 6:-0.453683 7:0.380272 8:0.312879 9:-0.390144 10:-0.114434 
-0 -0 -0 -0 -0 -0 3.237289748111752 3.016812172652148 1.071770391024808 0 1:-0.274005 2:0.430372 3:0.215385 4:-0.348889 5:-0.306721 6:-0.413215 7:0.512245 8:0.128793 9:-0.29295 10:-0.354356 
-0.3689986525130273 -0.3221047509543327 -0.5712265219933641 -0.8573083827881851 -6.427072268060263 -0 0 0 0.0632863787212411 1.450969347163766 1:-0.146604 2:0.271582 3:-0.0887179 4:-0.231667 5:-0.249116 6:-0.400569 7:0.572789 8:0.1706 9:0.0287474 10:-0.544213 
-0.3689986525130273 -0.4959721332748183 -0.5712265219933641 -0.8573083827881851 -6.427072268060263 -2.434046550164456 0 0 1.071770391024808 1.450969347163766 1:-0.130211 2:0.299307 3:-0.179487 4:-0.211667 5:-0.203638 6:-0.286121 7:0.658503 8:0.0876601 9:-0.102669 10:-0.572822 
-0.3689986525130273 -0.4959721332748183 -0.5712265219933641 -0.8573083827881851 -6.427072268060263 -2.408598439742162 0 2.142929924240014 1.071770391024808 1.450969347163766 1:-0.0749415 2:0.266226 3:-0.137949 4:-0.328333 5:-0.120263 6:-0.245021 7:0.65034 8:0.219825 9:-0.0992471 10:-0.606632 
-0.3689986525130273 -0.4959721332748183 -0.5712265219933641 -0.8573083827881851 -6.427072268060263 -2.434046550164456 0 3.016812172652148 1.071770391024808 1.450969347163766 1:-0.0224824 2:0.262445 3:-0.164103 4:-0.402778 5:-0.0828701 6:-0.100221 7:0.623129 8:0.192178 9:-0.0150582 10:-0.492198 
-0.3689986525130273 -0.4959721332748183 -0.5712265219933641 -0.8573083827881851 -6.427072268060263 -2.434046550164456 0 3.016812172652148 1.071770391024808 1.450969347163766 1:-0.0796253 2:0.282294 3:-0.169231 4:-0.331111 5:-0.0848914 6:0.0395194 7:0.606122 8:-0.0863115 9:0.0232717 10:-0.394668 
-0.3689986525130273 -0.4959721332748183 -0.5712265219933641 -0.8573083827881851 -6.427072268060263 -2.434046550164456 0 3.016812172652148 1.071770391024808 1.450969347163766 1:-0.180796 2:0.235665 3:0.0461538 4:-0.217222 5:-0.135422 6:0.0135947 7:0.432653 8:-0.176669 9:0.0492813 10:-0.426528 
-0 -0 -0 -0 -6.427072268060263 -0 0 0 0 1.373956284433517 1:0.169087 2:0.1339 3:0.634872 4:-0.0844444 5:-0.645781 6:-0.609232 7:-0.170068 8:0.894134 9:-0.00684463 10:-0.364759 
-0 -0 -0 -0 -6.427072268060263 -0 0 0 0 0 1:0.172365 2:0.15627 3:0.648718 4:-0.0305556 5:-0.651339 6:-0.688903 7:-0.234014 8:0.862441 9:0.0889802 10:-0.373862 
-0 -0 -0 -0 -3.828382351290855 -0 0 0 0 0 1:0.140515 2:0.208885 3:0.548205 4:-0.0633333 5:-0.668014 6:-0.704078 7:-0.143537 8:0.869184 9:-0.00821355 10:-0.425878 
-0 -0 -0 -0 -6.427072268060263 -0 0 0 0 0 1:0.0721311 2:0.227158 3:0.385128 4:-0.149444 5:-0.671551 6:-0.580778 7:0.0761905 8:0.802428 9:-0.330595 10:-0.39987 
-0 -0 -0 -0.0351483109765837 -6.427072268060263 -2.434046550164456 0 0 0 0.016334246878307 1:0.0238876 2:0.255514 3:0.2 4:-0.236111 5:-0.602324 6:-0.440405 7:0.293197 8:0.612947 9:-0.594114 10:-0.331599 
-0.2452293825380122 -0.4959721332748183 -0.5712265219933641 -0.8573083827881851 -6.427072268060263 -2.434046550164456 0 0 0 1.450969347163766 1:-0.0103044 2:0.196912 3:0.113333 4:-0.396111 5:-0.471956 6:-0.291179 7:0.348299 8:0.443021 9:-0.546886 10:-0.36736 
-0.3689986525130273 -0 -0.5712265219933641 -0.8120570333006069 -0 -0 0 0.2811150474722811 0 0 1:-0.315222 2:0.352237 3:-0.111795 4:-0.468333 5:-0.261748 6:-0.339235 7:0.54966 8:0.478759 9:-1 10:0.175553 
-0 -0.1658637751903811 -0 -0 -0 -0 3.237289748111752 3.016812172652148 1.071770391024808 0 1:-0.379859 2:0.400756 3:-0.10359 4:-0.600556 5:-0.202122 6:-0.262725 7:0.432653 8:0.532704 9:-0.997262 10:0.276333 
-0.04580494753400328 -0.4959721332748183 -0.4144846502185827 -0 -0 -0 3.237289748111752 3.016812172652148 1.071770391024808 1.450969347163766 1:-0.421077 2:0.36736 3:0.0158974 4:-0.676667 5:-0.166751 6:-0.196965 7:0.287755 8:0.505057 9:-0.791923 10:0.224967 
-0.3689986525130273 -0.4959721332748183 -0.5712265219933641 -0.8573083827881851 -0 -1.923762673966939 3.237289748111752 3.016812172652148 1.071770391024808 1.450969347163766 1:-0.408899 2:0.343415 3:-0.054359 4:-0.765 5:-0.0136433 6:0.014227 7:0.214966 8:0.413351 9:-0.908282 10:0.20156 
-0.3689986525130273 -0.4959721332748183 -0.5712265219933641 -0.8573083827881851 -4.407224325363829 -2.434046550164456 1.581229716103589 3.016812172652148 1.071770391024808 1.450969347163766 1:-0.383138 2:0.31821 3:-0.221026 4:-0.59 5:0.0085902 6:-0.143218 7:0.447619 8:0.349292 9:-0.932923 10:0.171001 
-0.3689986525130273 -0.4959721332748183 -0.5712265219933641 -0.8573083827881851 -0 -0 3.237289748111752 3.016812172652148 1.071770391024808 1.450969347163766 1:-0.463232 2:0.307498 3:-0.16359 4:-0.34 5:-0.194543 6:-0.324692 7:0.627211 8:0.298719 9:-0.889802 10:0.269181 
-0.2848287780771097 -0.3150345222818799 -0.3121846932587963 -0.3785810976807946 -0.892127206119037 -0.6499653552015521 -3.237289748111752 2.821604185742549 1.436008474851242 0.6227675709282401 1:-0.405152 2:0.127599 3:0.338974 4:0.766667 5:-0.842345 6:-0.0964274 7:-0.25034 8:0.540796 9:0.497604 10:-0.103381 
-0.2848287780771097 -0.3150345222818799 -0.3121846932587963 -0.3785810976807946 -0.892127206119037 -0.6499653552015521 -3.237289748111752 2.821604185742549 0 0.6227675709282401 1:-0.409836 2:0.110271 3:0.340513 4:0.767222 5:-0.888327 6:-0.112868 7:-0.248299 8:0.576534 9:0.513347 10:-0.0981795 
-0.2848287780771097 -0.3150345222818799 -0.3121846932587963 -0.243687604662533 -0.892127206119037 -0.6499653552015521 -3.237289748111752 2.821604185742549 0 0.6227675709282401 1:-0.42623 2:0.1339 3:0.327692 4:0.69 5:-0.9429 6:-0.107177 7:-0.188435 8:0.548213 9:0.491444 10:-0.0669701 
-0.2848287780771097 -0.3150345222818799 -0.3121846932587963 -0.3785810976807946 -0.892127206119037 -0.6499653552015521 -3.237289748111752 2.821604185742549 1.436008474851242 0.6227675709282401 1:-0.467447 2:0.120038 3:0.353333 4:0.647222 5:-0.740273 6:-0.501107 7:0.196599 8:0.0418071 9:0.634497 10:0.173602 
-0.2848287780771097 -0.3150345222818799 -0 -0 -0 -0 -0 2.821604185742549 0.8916723678503344 0.6227675709282401 1:-0.530211 2:0.172338 3:0.300513 4:0.522222 5:-0.980293 6:-0.101486 7:0.0115646 8:0.424815 9:0.518823 10:-0.104031 
-0.2848287780771097 -0.3150345222818799 -0 -0 -0 -0.03172079405579065 -1.412313052487438 2.029415552102749 0 0.6227675709282401 1:-0.544262 2:0.169187 3:0.293846 4:0.426111 5:-1 6:-0.121088 7:0.127211 8:0.426837 9:0.49076 10:-0.0981795 
-0 -0.3150345222818799 -0.3121846932587963 -0.3785810976807946 -0.892127206119037 -0.6499653552015521 -3.237289748111752 2.821604185742549 1.436008474851242 0.6227675709282401 1:-0.405152 2:0.457782 3:0.524615 4:-0.498333 5:-0.491157 6:-0.407525 7:0.247619 8:0.351315 9:0.0506502 10:0.513654 
-0 -0.1721650957306622 -0.3121846932587963 -0.1273581502605594 -0.892127206119037 -0.6499653552015521 -3.237289748111752 2.821604185742549 0.84885903827952 0.6227675709282401 1:-0.386885 2:0.531191 3:0.446667 4:-0.588889 5:-0.474482 6:-0.310149 7:0.359184 8:0.41942 9:-0.0225873 10:0.440182 
-0 -0 -0 -0.3785810976807946 -0.892127206119037 -0.6499653552015521 -3.237289748111752 2.821604185742549 0 0 1:-0.357845 2:0.581285 3:0.337436 4:-0.581667 5:-0.463871 6:-0.263358 7:0.544898 8:0.461902 9:-0.0978782 10:0.364109 
-0 -0 -0 -0 -0.892127206119037 -0.6499653552015521 -3.237289748111752 2.821604185742549 0 0 1:-0.393911 2:0.502836 3:0.485128 4:-0.512222 5:-0.506316 6:-0.460639 7:0.457143 8:0.530681 9:-0.120465 10:0.382965 
-0 -0 -0 -0 -0 -0 -3.237289748111752 1.343525845052149 0 0 1:-0.425761 2:0.540013 3:0.574872 4:-0.450556 5:-0.483578 6:-0.58141 7:0.282313 8:0.468645 9:-0.00889802 10:0.514954 
-0 -0 -0 -0 -0.892127206119037 -0 -3.237289748111752 0 0 0 1:-0.32178 2:0.425961 3:0.141026 4:0.627222 5:-0.77615 6:-0.613658 7:0.205442 8:0.538773 9:0.525667 10:0.122237 
-0 -0 -0 -0 -0.892127206119037 -0 -0 0 0 0 1:-0.288993 2:0.367675 3:0.135385 4:0.682222 5:-0.887822 6:-0.442934 7:0.0496599 8:0.780175 9:0.340862 10:0.326398 
-0 -0 -0.3121846932587963 -0.2794563960415913 -0.892127206119037 -0.5870789734425406 -3.237289748111752 0 0 0 1:-0.280562 2:0.388154 3:0.151795 4:0.664444 5:-0.8095 6:-0.611761 7:0.0721088 8:0.581254 9:0.47707 10:0.243823 
-0.2848287780771097 -0.3150345222818799 -0.3121846932587963 -0 -0.5945728651266474 -0 -0 2.821604185742549 0 0.6227675709282401 1:-0.229508 2:-0.124764 3:0.757436 4:0.798889 5:-0.543709 6:-0.358837 7:-0.943537 8:0.492245 9:0.629021 10:0.780884 
-0.2848287780771097 -0.3150345222818799 -0.3121846932587963 -0.3785810976807946 -0 -0.5826449875481307 -0.9935091496385859 2.821604185742549 1.436008474851242 0.2458162832034629 1:-0.22904 2:-0.169187 3:0.766667 4:0.880556 5:-0.565942 6:-0.413848 7:-0.881633 8:0.357384 9:0.609172 10:0.836801 
-0.2848287780771097 -0.3150345222818799 -0.3121846932587963 -0.3785810976807946 -0.892127206119037 -0.6499653552015521 -3.237289748111752 2.821604185742549 1.436008474851242 0.6227675709282401 1:-0.231382 2:-0.168242 3:0.772821 4:0.87 5:-0.562911 6:-0.470123 7:-0.821769 8:0.266352 9:0.620123 10:0.737971 
-0.2848287780771097 -0.3150345222818799 -0.3121846932587963 -0.3785810976807946 -0.1281315287341551 -0.1610248809457395 -3.237289748111752 0.6089199433049798 1.436008474851242 0.6227675709282401 1:-0.234192 2:-0.171078 3:0.743077 4:0.826111 5:-0.514401 6:-0.446728 7:-1 8:0.315577 9:0.68104 10:0.79909 
-0.2848287780771097 -0.3150345222818799 -0.3121846932587963 -0.3785810976807946 -0.892127206119037 -0.6499653552015521 -3.237289748111752 0 0 0.6227675709282401 1:-0.212646 2:-0.199118 3:0.738462 4:0.831111 5:-0.571501 6:-0.466329 7:-0.934694 8:0.314902 9:0.701574 10:0.769831 
-0.2848287780771097 -0.3150345222818799 -0.3121846932587963 -0.3785810976807946 -0.892127206119037 -0.6499653552015521 -3.237289748111752 0 0 0.6227675709282401 1:-0.190164 2:-0.243541 3:0.73641 4:0.89 5:-0.625063 6:-0.503003 7:-0.820408 8:0.308159 9:0.681725 10:0.771131 
-0 -0 -0 -0 -0.892127206119037 -0 -3.237289748111752 0 0 0 1:-0.38267 2:0.563957 3:0.315897 4:-0.301111 5:-0.477514 6:-0.798925 7:0.180272 8:0.939312 9:-0.0718686 10:-0.0175553 
-0 -0 -0 -0 -0.3493193352307408 -0 -3.237289748111752 0 0 0 1:-0.413115 2:0.637051 3:0.352308 4:-0.364444 5:-0.532087 6:-0.628833 7:0.182993 8:0.656102 9:0.0704997 10:0.0669701 
-0.1517729944593135 -0 -0.3121846932587963 -0.3785810976807946 -0 -0.6499653552015521 -0 2.821604185742549 1.436008474851242 0 1:-0.546604 2:0.458097 3:0.0625641 4:0.281667 5:-0.444164 6:-0.649067 7:0.437415 8:0.19555 9:0.490075 10:0.0370611 
-0.2848287780771097 -0.3004374313472964 -0.3121846932587963 -0.3785810976807946 -0 -0.08704098499536395 -0 0 1.436008474851242 0 1:-0.539578 2:0.381537 3:0.0805128 4:0.427222 5:-0.525518 6:-0.700285 7:0.396599 8:0.213756 9:0.561944 10:0.0442133 
-0 -0 -0 -0.1066600443969055 -0 -0.6499653552015521 -0.6997440709977234 0 1.436008474851242 0 1:-0.520843 2:0.418715 3:0.0415385 4:0.381111 5:-0.625063 6:-0.537148 7:0.357823 8:0.248146 9:0.583847 10:-0.115735 
-0.2848287780771097 -0 -0 -0 -0 -0.6499653552015521 -0 0 1.436008474851242 0 1:-0.514754 2:0.447385 3:0.0466667 4:0.331667 5:-0.673067 6:-0.387291 7:0.390476 8:0.279838 9:0.577002 10:-0.208062 
-0 -0 -0 -0 -0 -0 -0 0 1.436008474851242 0 1:-0.513349 2:0.405797 3:0.0830769 4:0.353889 5:-0.637696 6:-0.466329 7:0.394558 8:0.300067 9:0.652977 10:-0.0897269 
-0.04152893129905701 -0 -0 -0.3785810976807946 -0.892127206119037 -0.6499653552015521 -1.662819430090108 1.66134703102522 1.436008474851242 0.6227675709282401 1:-0.468384 2:0.452426 3:-0.0774359 4:0.158889 5:-0.669025 6:-0.179893 7:0.509524 8:0.360081 9:0.594798 10:-0.173602 
-0.09152685231873921 -0.1574665174858012 -0 -0 -0.892127206119037 -0.6499653552015521 -3.237289748111752 0 1.436008474851242 0.6227675709282401 1:-0.531148 2:0.437618 3:0.221026 4:-0.91 5:-0.270339 6:-0.130572 7:0.439456 8:0.432906 9:0.0800821 10:-0.404421 
-0.2848287780771097 -0 -0 -0.3785810976807946 -0.892127206119037 -0 -3.237289748111752 2.821604185742549 1.436008474851242 0.6227675709282401 1:-0.592506 2:0.508507 3:0.0430769 4:-0.798889 5:-0.162203 6:-0.148909 7:0.465986 8:0.412003 9:-0.169062 10:-0.412874 
-0.2848287780771097 -0.3150345222818799 -0.3121846932587963 -0.3785810976807946 -0.892127206119037 -0.2319452485073943 -1.70619379300965 0 1.436008474851242 0.3769512877247772 1:-0.612646 2:0.573724 3:-0.188718 4:-0.753333 5:-0.00606367 6:-0.156497 7:0.595918 8:0.316925 9:-0.315537 10:-0.447984 
-0.2848287780771097 -0.3150345222818799 -0.3121846932587963 -0.3785810976807946 -0.892127206119037 -0.6499653552015521 -3.237289748111752 2.821604185742549 1.436008474851242 0.6227675709282401 1:-0.628103 2:0.587587 3:-0.352821 4:-0.691111 5:0.0955028 6:-0.132469 7:0.647619 8:0.231288 9:-0.4141 10:-0.420676 
-0.2848287780771097 -0.3150345222818799 -0.3121846932587963 -0.3785810976807946 -0.892127206119037 -0.6499653552015521 -3.237289748111752 2.821604185742549 1.436008474851242 0.6227675709282401 1:-0.627166 2:0.578765 3:-0.397949 4:-0.67 5:0.159677 6:-0.0983244 7:0.708844 8:0.155091 9:-0.460643 10:-0.394018 
-0.2848287780771097 -0.3150345222818799 -0.3121846932587963 -0.3785810976807946 -0.892127206119037 -0.6499653552015521 -0 2.821604185742549 1.436008474851242 0.6227675709282401 1:-0.621546 2:0.536232 3:-0.209231 4:-0.736111 5:0.0955028 6:-0.212773 7:0.727891 8:0.188806 9:-0.22245 10:-0.311443 
-0.2848287780771097 -0.3150345222818799 -0.3121846932587963 -0 -0 -0 -0 2.821604185742549 1.13148554357263 0 1:-0.654801 2:0.840895 3:-0.272821 4:-1 5:0.144012 6:0.191906 7:0.0938776 8:0.46325 9:-0.823409 10:-0.0162549 
-0.2848287780771097 -0.3150345222818799 -0.3121846932587963 -0.3785810976807946 -0 -0.2684401961096967 -0 2.821604185742549 1.436008474851242 0.6227675709282401 1:-0.665574 2:0.819156 3:-0.466154 4:-0.843333 5:0.298636 6:0.152071 7:0.138095 8:0.274444 9:-0.639973 10:0.0448635 
-0.2848287780771097 -0.3150345222818799 -0.3121846932587963 -0.3785810976807946 -0.7122306831465307 -0.6499653552015521 -3.237289748111752 2.821604185742549 1.436008474851242 0.6227675709282401 1:-0.653396 2:0.806868 3:-0.692308 4:-0.661111 5:0.4381 6:0.12172 7:0.208163 8:0.102495 9:-0.605065 10:0.053316 
-0.2848287780771097 -0.3150345222818799 -0.3121846932587963 -0.3785810976807946 -0 -0.6499653552015521 -0 2.821604185742549 1.436008474851242 0.6227675709282401 1:-0.652459 2:0.771267 3:-0.616923 4:-0.709444 5:0.300657 6:0.0869428 7:0.3 8:0.260958 9:-0.517454 10:0.0344603 
-0 -0.3150345222818799 -0.3121846932587963 -0.3785810976807946 -0 -0 -0 2.821604185742549 1.436008474851242 0.6227675709282401 1:-0.673068 2:0.745117 3:-0.482051 4:-0.822778 5:0.183426 6:0.052798 7:0.278231 8:0.339177 9:-0.307324 10:0.0559168 
-0.5729537120917699 -0.6966749815463029 -0.6007037808389079 -0 -0 -0 -0 -0 5.996534949922268 2.84954291063238 1:-0.367213 2:0.0680529 3:-0.206154 4:0.165 5:-0.266296 6:0.590262 7:-0.302721 8:0.49764 9:-0.0102669 10:-0.189857 
-0.3278862601382024 -0.6966749815463029 -0.6007037808389079 -0.6576811264232693 -1.340689184296265 -1.23874364401427 -0 -0 5.996534949922268 2.84954291063238 1:-0.331148 2:0.0233144 3:-0.34 4:0.119444 5:-0.253663 6:0.479608 7:-0.0455782 8:0.227916 9:0.372348 10:-0.284785 
-0 -0.6966749815463029 -0.6007037808389079 -0.6576811264232693 -0 -0 -0 -0 2.17890930954024 2.84954291063238 1:-0.297892 2:-0.026465 3:-0.325128 4:0.142222 5:-0.312784 6:0.602276 7:-0.190476 8:0.492245 9:0.212868 10:-0.141092 
-0.5729537120917699 -0.6966749815463029 -0.6007037808389079 -0.6576811264232693 -0 -0 -0 -0 0 2.84954291063238 1:-0.253864 2:-0.102079 3:-0.309231 4:0.171111 5:-0.299646 6:0.561176 7:-0.217687 8:0.604181 9:0.264887 10:-0.159948 
-0.5729537120917699 -0.6966749815463029 -0.6007037808389079 -0.6576811264232693 -1.340689184296265 -1.23874364401427 -0 -0 0 2.84954291063238 1:-0.218735 2:-0.160365 3:-0.350256 4:0.171111 5:-0.313795 6:0.527031 7:-0.212245 8:0.652731 9:0.227926 10:-0.023407 
-0.5729537120917699 -0.6966749815463029 -0.6007037808389079 -0.6576811264232693 -0.06593274201147611 -1.183608417177191 -0 -0 4.415972737776474 2.84954291063238 1:-0.220141 2:-0.202268 3:-0.353846 4:0.24 5:-0.279939 6:0.62504 7:-0.22449 8:0.770735 9:-0.0855578 10:0.10078 
-0 -0 -0 -0 -0 -0 -0 -2.821604185742549 5.996534949922268 0 1:-0.508197 2:0.326717 3:0.355897 4:-0.0305556 5:-0.414351 6:-0.0660765 7:0.105442 8:0.0316925 9:0.49076 10:0.627438 
-0 -0 -0 -0 -0 -0 -0 -2.821604185742549 5.996534949922268 0 1:-0.557845 2:0.349716 3:0.36359 4:-0.201667 5:-0.343103 6:-0.134998 7:0.112925 8:0.091706 9:0.336756 10:0.544863 
-0 -0 -0 -0 -0 -0 -3.016812172652148 -2.821604185742549 5.996534949922268 0 1:-0.584075 2:0.300252 3:0.472821 4:-0.101111 5:-0.47903 6:-0.198862 7:0.126531 8:0.0525961 9:0.193703 10:0.517555 
-0 -0 -0 -0 -0.9019785262674904 -0 -3.016812172652148 -2.821604185742549 0.4468166353249947 0 1:-0.541452 2:0.357593 3:0.494872 4:0.0588889 5:-0.619505 6:-0.124249 7:0.136054 8:0.028321 9:0.192334 10:0.408973 
-0 -0 -0 -0 -1.340689184296265 -1.23874364401427 -3.016812172652148 -2.821604185742549 5.996534949922268 0 1:-0.507728 2:0.450221 3:0.41641 4:0.00166667 5:-0.575543 6:-0.0331963 7:0.37415 8:-0.0465273 9:0.299795 10:0.191808 
-0 -0 -0 -0 -1.340689184296265 -0.5749777717016794 -3.007421196784436 -2.821604185742549 5.996534949922268 0 1:-0.496487 2:0.529931 3:0.0666667 4:-0.238333 5:-0.27236 6:0.180525 7:0.379592 8:-0.0222522 9:0.312799 10:0.110533 
-0.2904945430662471 -0.6966749815463029 -0.6007037808389079 -0.6576811264232693 -1.340689184296265 -1.23874364401427 -3.016812172652148 -2.821604185742549 0 2.84954291063238 1:0.012178 2:-0.094518 3:-0.0764103 4:0.64 5:-0.505811 6:-0.498577 7:0.247619 8:0.362104 9:0.513347 10:0.390117 
-0.5729537120917699 -0.6966749815463029 -0.6007037808389079 -0.6576811264232693 -1.340689184296265 -1.23874364401427 -3.016812172652148 -2.64261085428971 4.475413815163945 2.84954291063238 1:-0.11897 2:-0.116887 3:-0.00769231 4:0.906667 5:-0.352198 6:-0.461271 7:0.0789116 8:0.217127 9:0.375086 10:0.343303 
-0.5729537120917699 -0.6966749815463029 -0.6007037808389079 -0.6576811264232693 -1.340689184296265 -1.23874364401427 -3.016812172652148 -2.821604185742549 5.996534949922268 2.84954291063238 1:-0.18829 2:-0.0620668 3:-0.0102564 4:1 5:-0.452249 6:-0.257034 7:0.0428571 8:0.267701 9:0.412047 10:0.0962289 
-0.5729537120917699 -0 -0.2231367629545344 -0.6576811264232693 -1.340689184296265 -1.23874364401427 -3.016812172652148 -2.821604185742549 2.543352572708762 2.84954291063238 1:-0.221546 2:0.0015753 3:0.014359 4:0.873333 5:-0.531582 6:0.0641796 7:-0.0612245 8:0.439649 9:0.531828 10:-0.288687 
-0.5729537120917699 -0 -0 -0.6576811264232693 -1.340689184296265 -1.23874364401427 -3.016812172652148 -2.821604185742549 5.996534949922268 0.4383043725183624 1:-0.219672 2:0.00819156 3:0.0128205 4:0.745 5:-0.485599 6:0.164717 7:0.0598639 8:0.424815 9:0.604381 10:-0.323147 
-0.5729537120917699 -0.1314179213154766 -0 -0 -1.340689184296265 -0.9172076842776297 -0.632360360053815 -0 0 0 1:-0.163466 2:-0.0554505 3:-0.0517949 4:0.656667 5:-0.451238 6:0.289915 7:-0.0387755 8:0.720162 9:0.479124 10:-0.237321 
-0 -0 -0 -0.2238782173306524 -1.340689184296265 -1.23874364401427 -3.016812172652148 -2.821604185742549 0 2.344893710628807 1:-0.10445 2:-0.0535602 3:0.371282 4:-0.15 5:-0.557352 6:0.0319317 7:-0.203401 8:0.607552 9:0.441478 10:0.375813 
-0 -0.6966749815463029 -0.6007037808389079 -0.6576811264232693 -1.340689184296265 -1.23874364401427 -3.016812172652148 -2.821604185742549 0 0 1:-0.0571429 2:-0.166037 3:0.47641 4:0.0177778 5:-0.533098 6:-0.0565918 7:-0.245578 8:0.542144 9:0.498289 10:0.654746 
-0.5729537120917699 -0.6966749815463029 -0.6007037808389079 -0.6576811264232693 -1.340689184296265 -1.23874364401427 -3.016812172652148 -2.612971230136421 0 2.84954291063238 1:-0.0435597 2:-0.270636 3:0.53641 4:0.167778 5:-0.524002 6:-0.0458426 7:-0.193878 8:0.46325 9:0.401095 10:0.748375 
-0.2953607685321734 -0.6966749815463029 -0.6007037808389079 -0.6576811264232693 -1.340689184296265 -1.23874364401427 -3.016812172652148 -0 0 0 1:-0.0370023 2:-0.276938 3:0.508718 4:0.129444 5:-0.585144 6:0.061018 7:-0.0380952 8:0.484828 9:0.328542 10:0.661899 
-0.5729537120917699 -0.6966749815463029 -0.6007037808389079 -0.6576811264232693 -1.340689184296265 -1.23874364401427 -3.016812172652148 -0 0 2.84954291063238 1:-0.0323185 2:-0.326717 3:0.488718 4:0.171111 5:-0.621526 6:0.0926336 7:0.0591837 8:0.472016 9:0.255305 10:0.63459 
-0.5729537120917699 -0.6966749815463029 -0.6007037808389079 -0.6576811264232693 -1.340689184296265 -1.23874364401427 -3.016812172652148 -0 0 2.84954291063238 1:-0.0796253 2:-0.374291 3:0.475385 4:0.238333 5:-0.608388 6:0.207714 7:0.179592 8:0.449764 9:0.0657084 10:0.407672 
-0.5729537120917699 -0.5401975658023893 -0 -0 -0 -0 -0 -0 5.996534949922268 0.3532536038676021 1:-0.469789 2:0.240391 3:0.250769 4:-0.392222 5:0.193027 6:0.0730319 7:0.273469 8:0.165206 9:-0.269678 10:-0.511053 
-0.5729537120917699 -0.6966749815463029 -0.5293552304405044 -0.6576811264232693 -0.752257410905832 -0.6326142802205492 -0 -0 5.996534949922268 2.84954291063238 1:-0.466042 2:0.269061 3:0.15641 4:-0.362778 5:0.254674 6:-0.032564 7:0.304762 8:0.209036 9:-0.389459 10:-0.46619 
-0 -0 -0 -0 -1.340689184296265 -1.23874364401427 -3.016812172652148 -0.5924436770432613 0 0 1:-0.464637 2:0.20983 3:0.240513 4:-0.301667 5:0.138454 6:-0.124881 7:0.353741 8:0.260958 9:-0.267625 10:-0.490247 
-0.4948783364063478 -0 -0 -0 -1.340689184296265 -1.23874364401427 -1.053255430017103 -0 5.996534949922268 2.484771099944652 1:-0.473536 2:0.206364 3:0.338462 4:-0.301111 5:0.134411 6:-0.171672 7:0.293878 8:0.205664 9:-0.219713 10:-0.483745 
-0.5729537120917699 -0 -0 -0.2596112491202254 -1.340689184296265 -1.23874364401427 -3.016812172652148 -0 5.996534949922268 2.84954291063238 1:-0.493208 2:0.247637 3:0.433333 4:-0.286667 5:0.133906 6:-0.22289 7:0.180952 8:0.0795684 9:-0.223135 10:-0.4987 
-0.5729537120917699 -0.6966749815463029 -0.6007037808389079 -0.6576811264232693 -1.340689184296265 -1.23874364401427 -3.016812172652148 -0 5.996534949922268 2.84954291063238 1:-0.468852 2:0.202268 3:0.295385 4:-0.171667 5:0.184942 6:-0.22289 7:0.265986 8:0.140931 9:-0.346338 10:-0.53446 
-0.310241228132339 -0.4400481503314426 -0 -0.6576811264232693 -0 -0 -2.114855728354983 -2.804819120320801 0 0.07786303430533686 1:-0.311475 2:0.252048 3:-0.541538 4:0.217222 5:-0.0757959 6:0.399937 7:0.170748 8:0.855024 9:0.0123203 10:-0.750975 
-0 -0 -0 -0 -0 -0 -0 -2.821604185742549 0 0 1:-0.386417 2:0.18431 3:-0.211795 4:0.172778 5:-0.162708 6:0.253241 7:-0.0285714 8:0.948753 9:0.20397 10:-0.685956 
-0 -0 -0 -0 -0 -0 -0 -0 5.996534949922268 2.84954291063238 1:-0.328337 2:0.0516698 3:-0.228718 4:0.252778 5:-0.113694 6:0.135631 7:0.0183673 8:0.769386 9:0.273101 10:-0.616385 
-0.5729537120917699 -0.6788809530252726 -0.2747268088967891 -0 -0 -0 -0 -0 5.996534949922268 2.84954291063238 1:-0.36815 2:-0.0311909 3:-0.0923077 4:0.412222 5:-0.0414351 6:0.111603 7:-0.106122 8:0.724208 9:0.236824 10:-0.515605 
-0.5729537120917699 -0.6966749815463029 -0.6007037808389079 -0.3080021728543141 -0 -0 -0 -0 5.996534949922268 2.84954291063238 1:-0.360656 2:-0.149338 3:-0.0358974 4:0.579444 5:0.0384032 6:0.243124 7:-0.318367 8:0.653405 9:0.0198494 10:-0.157997 
-0 -0 -0 -0 -0.6306914064889864 -0 -3.016812172652148 -2.821604185742549 0 0 1:-0.425293 2:0.122873 3:0.222564 4:-0.61 5:0.224861 6:-0.270945 7:0.628571 8:0.817937 9:-0.753593 10:-0.10143 
-0 -0 -0 -0 -0 -0 -3.016812172652148 -2.821604185742549 0 0 1:-0.453864 2:0.0923125 3:0.377949 4:-0.631111 5:0.183426 6:-0.226684 7:0.470748 8:0.867835 9:-0.722108 10:-0.083225 
-0 -0.5170681604502775 -0.3840257658805045 -0 -0 -0 -0 -0 0 0 1:-0.482904 2:0.0850662 3:0.381026 4:-0.667778 5:0.243557 6:-0.071135 7:0.319048 8:0.611598 9:-0.804244 10:0.0663199 
-0.5729537120917699 -0.6966749815463029 -0.6007037808389079 -0.6576811264232693 -0 -1.23874364401427 -0 -0 0 2.84954291063238 1:-0.465574 2:0.111531 3:0.131795 4:-0.618333 5:0.426478 6:-0.0395194 7:0.210884 8:0.33648 9:-0.888433 10:0.215865 
-0.5729537120917699 -0.6966749815463029 -0.6007037808389079 -0.6576811264232693 -0.6660733070987325 -1.23874364401427 -0 -0 0.2721722017381069 2.84954291063238 1:-0.449649 2:0.0759294 3:0.0933333 4:-0.551667 5:0.497726 6:-0.0521657 7:0.0367347 8:0.213756 9:-0.862423 10:0.228869 
-0.5729537120917699 -0.6966749815463029 -0.6007037808389079 -0.6576811264232693 -0 -1.23874364401427 -0 -0 5.996534949922268 2.84954291063238 1:-0.526464 2:0.094833 3:0.11641 4:-0.435 5:0.563921 6:-0.0287702 7:-0.177551 8:-0.0411328 9:-0.50924 10:0.189857 
-0 -0 -0 -0 -0 -0 -0 -2.821604185742549 0 0 1:-0.651991 2:0.699748 3:0.06 4:-0.882222 5:0.245579 6:-0.0920013 7:-0.0292517 8:0.0836143 9:-0.750171 10:0.0845254 
-0 -0.4790871752603529 -0.6007037808389079 -0.5238706135413467 -1.005134160116277 -0 -3.016812172652148 -2.821604185742549 0 0 1:-0.653396 2:0.691871 3:-0.139487 4:-0.706667 5:0.401213 6:-0.130572 7:0.0727891 8:-0.0323668 9:-0.960301 10:0.0773732 
-0 -0 -0.6007037808389079 -0.6576811264232693 -1.340689184296265 -0.4078227786657607 -3.016812172652148 -2.821604185742549 5.996534949922268 0 1:-0.655269 2:0.68179 3:-0.2 4:-0.593889 5:0.377463 6:-0.190009 7:0.197959 8:-0.0586649 9:-0.810404 10:-0.0325098 
-0 -0 -0 -0 -0 -0 -0 -2.821604185742549 5.996534949922268 0 1:-0.70445 2:0.698173 3:-0.110769 4:-0.688889 5:0.335523 6:-0.156497 7:0.12517 8:-0.00606878 9:-0.755647 10:0.0149545 
-0 -0 -0 -0 -0 -0 -2.242543802746109 -2.821604185742549 3.656967577514284 0 1:-0.742389 2:0.735665 3:0.0205128 4:-0.784444 5:0.22385 6:-0.182422 7:0.0326531 8:0.104518 9:-0.823409 10:0.13264 
-0 -0 -0.3908667743443914 -0 -0 -0 -0 -2.633571861180003 5.996534949922268 0 1:-0.737705 2:0.73913 3:-0.146667 4:-0.678889 5:0.411319 6:-0.126146 7:-0.158503 8:-0.0647336 9:-0.815195 10:0.212614 
-0.655855521916506 -0.5365822441982715 -0.4127584206246077 -0.4380806718484437 -0.6164984566523375 -0.6643976808112046 -0.854592453720814 -0 -5.996534949922268 0.9672401748713713 1:-0.267916 2:-0.0277253 3:-0.431282 4:0.659444 5:0.10763 6:0.525767 7:-0.271429 8:0.345246 9:0.145106 10:-0.451235 
-0.655855521916506 -0.5365822441982715 -0.4127584206246077 -0.4380806718484437 -0.6164984566523375 -0.6643976808112046 -1.071770391024808 -0.7634314724040387 -5.996534949922268 0.9672401748713713 1:-0.279625 2:-0.0280403 3:-0.445128 4:0.683333 5:0.0970187 6:0.522605 7:-0.262585 8:0.374241 9:0.0588638 10:-0.384265 
-0.655855521916506 -0.5365822441982715 -0.4127584206246077 -0.4380806718484437 -0.6164984566523375 -0.6643976808112046 -0 -0 -5.996534949922268 0.9672401748713713 1:-0.311007 2:-0.0214241 3:-0.434359 4:0.664444 5:0.0995452 6:0.566867 7:-0.305442 8:0.348618 9:-0.0116359 10:-0.247074 
-0.655855521916506 -0.5365822441982715 -0.4127584206246077 -0.4380806718484437 -0.6164984566523375 -0.6643976808112046 -0 -0 -0 0.9672401748713713 1:-0.286183 2:-0.0365469 3:-0.541538 4:0.673333 5:0.136938 6:0.429023 7:-0.107483 8:0.169252 9:0.245038 10:-0.371912 
-0.655855521916506 -0.5365822441982715 -0.4127584206246077 -0.4380806718484437 -0.6164984566523375 -0.6643976808112046 -1.071770391024808 -0 -5.046550770730915 0.9672401748713713 1:-0.284778 2:-0.0396975 3:-0.610769 4:0.677778 5:0.125316 6:0.409421 7:-0.0857143 8:0.245448 9:0.271732 10:-0.505202 
-0.655855521916506 -0.5365822441982715 -0.4127584206246077 -0.4380806718484437 -0.6164984566523375 -0.1198595465601249 -0 -1.436008474851242 -5.996534949922268 0.9672401748713713 1:-0.371429 2:-0.0126024 3:-0.568718 4:0.678333 5:0.0970187 6:0.49668 7:-0.289796 8:0.453136 9:0.0314853 10:-0.558518 
-0 -0.5365822441982715 -0.4127584206246077 -0.4380806718484437 -0.6164984566523375 -0.6643976808112046 -0.2927622933861745 -0 -5.996534949922268 0.9672401748713713 1:-0.676347 2:0.104285 3:0.230256 4:0.0677778 5:-0.192016 6:0.316472 7:0.180272 8:0.0350641 9:0.214237 10:0.592328 
-0.2803109655990286 -0.3262290178810793 -0 -0 -0.228966482861016 -0 -0 -0.6284569693052346 -5.996534949922268 0.09921822366765067 1:-0.749415 2:0.200693 3:0.313846 4:0.188333 5:-0.396665 6:0.472653 7:0.0789116 8:-0.0768712 9:0.277892 10:0.271782 
-0 -0 -0 -0 -0 -0 -0 -0.04554395235097894 -1.695614673920431 0 1:-0.844965 2:0.36673 3:0.306154 4:0.0238889 5:-0.215766 6:0.0957951 7:0.215646 8:-0.0708024 9:0.167693 10:0.381664 
-0 -0 -0 -0 -0.4449126158828008 -0 -1.071770391024808 -1.436008474851242 -5.996534949922268 0 1:-0.874941 2:0.44896 3:0.283077 4:-0.173333 5:-0.224861 6:0.190642 7:0.27483 8:0.0714767 9:-0.206023 10:0.33355 
-0 -0 -0 -0.4380806718484437 -0.6164984566523375 -0.6643976808112046 -1.071770391024808 -1.436008474851242 -5.996534949922268 0.9672401748713713 1:-0.419672 2:0.119408 3:-0.0425641 4:0.312778 5:-0.475998 6:-0.0167562 7:0.533333 8:0.074174 9:1 10:0.203511 
-0 -0 -0 -0.4380806718484437 -0.6164984566523375 -0.6643976808112046 -1.071770391024808 -1.436008474851242 -5.996534949922268 0.9672401748713713 1:-0.512412 2:0.1046 3:0.0758974 4:0.455556 5:-0.436079 6:-0.110971 7:0.414966 8:0.0188806 9:0.9295 10:0.120936 
-0.4483094230812146 -0 -0 -0.4380806718484437 -0.6164984566523375 -0.6643976808112046 -1.071770391024808 -1.436008474851242 -0 0.6280872220853171 1:-0.588759 2:0.169502 3:0.163077 4:0.545 5:-0.309752 6:-0.277901 7:0.44966 8:-0.142953 9:0.859001 10:0.215865 
-0.655855521916506 -0.32872712196661 -0.4127584206246077 -0 -0 -0.6643976808112046 -1.071770391024808 -1.436008474851242 -0 0 1:-0.607494 2:0.177379 3:0.187692 4:0.616667 5:-0.248105 6:-0.286753 7:0.397959 8:-0.20499 9:0.875428 10:0.308192 
